tree
version=v4
num_class=1
num_tree_per_iteration=1
label_index=0
max_feature_idx=17
objective=binary sigmoid:1
feature_names=rolling_cv_7 rolling_cv_14 bb_width_14 holiday_density_7 is_holiday_today trend_r2_14 day_of_week_sin day_of_week_cos month_sin month_cos rolling_mean_14 rolling_std_14 tft_pred lgb_pred pred_diff pred_ratio item_idx store_idx
feature_infos=[0:2.645751311065915] [0:3.7416573867912799] [0:14.96662954716512] none none [0:0.71197462331482952] none none none none [0:72.571428571428569] [0:28.207239348231241] [0:99.165762900221353] [0.13669658590552983:85.872256511735031] [4.8186048124065906e-05:27.344741658790674] [0:4.4637544960725011] -1:0:4:6:10:14:25:31:35:37:41:45:46:47:49:60:61:64:66:76:82:86:91:93:96:100:101:105:106:107:108:119:129:134:137:140:146:147:148:149:150:152:158:165:169:176:179:190:192:199:202:207:209:210:212:215:223:224:228:230:236:237:241:243:249:252:255:262:269:288:291:293:296:304:315:319:321:324:328:330:332:336:342:344:359:360:364:370:376:379:384:390:396:400:409:412:415:419:420:424:430:432:435:439:444:447:448:451:458:459:460:466:472:479:488:497:500:502:504:509:513:519:520:527:530:541:542:543:557:567:571:573:580:581:582:583:584:588:592:597:601:604:607:612:619:625:630:634:635:648:657:659:672:673:674:676:681:687:693:699:704:711:715:724:727:739:740:742:746:747:749:756:768:772:775:790:793:803:805:815:827:841:848:849:851:856:857:861:864:866:868:870:871:873:877:881:887:890:892:897:909:917:918:920:934:935:939:948:949:957:958:960:961:970:972:982:984:987:989:997:1017:1027:1031:1040:1042:1047:1050:1052:1054:1065:1069:1071:1073:1074:1078:1079:1080:1083:1085:1086:1088:1091:1097:1099:1102:1107:1110:1111:1114:1116:1117:1120:1129:1131:1132:1133:1134:1137:1138:1144:1151:1154:1156:1158:1162:1164:1166:1169:1170:1177:1180:1188:1191:1192:1203:1208:1209:1215:1219:1223:1228:1234:1238:1239:1240:1247:1250:1254:1256:1257:1259:1261:1267:1269:1274:1275:1276:1279:1287:1289:1290:1292:1299:1301:1310:1321:1328:1329:1331:1335:1344:1348:1350:1351:1352:1353:1358:1360:1362:1371:1374:1380:1381:1382:1383:1390:1394:1396:1397:1404:1421:1425:1426:1427:1431:1433:1441:1453:1465:1471:1479:1480:1489:1492:1496:1502:1503:1507:1509:1514:1523:1531:1546:1560:1566:1569:1571:1573:1576:1585:1590:1600:1607:1610:1611:1617:1625:1630:1644:1645:1651:1666:1668:1669:1683:1692:1705:1719:1723:1732:1739:1765:1772:1774:1779:1780:1783:1784:1785:1792:1796:1797:1800:1801:1802:1803:1810:1816:1822:1829:1836:1845:1850:1853:1859:1870:1878:1879:1884:1888:1894:1895:1901:1904:1909:1914:1916:1918:1927:1934:1942:1944:1949:1956:1964:1968:1969:1977:1981:1982:1992:2002:2011:2022:2027:2040:2044:2052:2057:2058:2066:2067:2072:2074:2075:2079:2081:2091:2092:2097:2098:2102:2105:2109:2110:2114:2117:2118:2119:2120:2123:2132:2134:2135:2140:2146:2147:2149:2150:2153:2159:2166:2182:2193:2194:2199:2207:2209:2220:2227:2229:2231:2233:2238:2239:2245:2246:2251:2266:2268:2274:2275:2276:2289:2290:2292:2300:2304:2310:2311:2315:2320:2330:2331:2332:2333:2341:2343:2351:2353:2354:2361:2362:2365:2373:2374:2377:2380:2383:2392:2395:2397:2403:2408:2409:2411:2412:2421:2427:2428:2430:2434:2439:2455:2456:2457:2458:2462:2464:2466:2470:2471:2472:2494:2505:2508:2509:2515:2517:2518:2526:2533:2538:2550:2552:2554:2565:2566:2573:2574:2576:2578:2581:2582:2587:2597:2606:2609:2612:2616:2624:2634:2638:2641:2647:2650:2661:2666:2669:2670:2677:2679:2680:2685:2695:2704:2705:2710:2712:2718:2719:2723:2724:2725:2729:2734:2744:2765:2766:2776:2777:2778:2788:2802:2818:2820:2824:2847:2850:2865:2867:2877:2880:2890:2898:2908:2909:2914:2929:2944:2949:2956:2959:2969:2974:2977:2985:2986:2993:2994:2999:3007:3013:3021:3025:3030:3031:3033:3038:3041:3044:2:5:8:9:13:15:17:18:24:32:34:36:39:42:44:50:53:54:56:57:62:65:67:68:70:71:73:74:78:79:80:83:84:85:88:104:110:113:114:115:123:125:130:132:133:135:138:139:143:153:161:163:168:170:171:172:173:174:180:182:184:187:189:193:195:198:201:203:205:208:211:213:214:219:225:226:234:238:244:245:248:254:257:261:263:268:274:278:279:280:283:285:294:295:298:301:303:306:307:309:310:311:316:318:322:323:325:329:334:335:338:339:343:345:346:350:352:357:358:362:365:368:369:373:374:375:377:383:387:388:391:392:394:397:401:403:404:406:407:413:416:417:418:421:422:427:433:434:437:441:443:445:446:453:454:455:461:464:465:470:471:477:481:482:486:489:490:492:498:499:501:505:506:507:508:514:515:516:517:522:524:525:528:532:534:536:544:545:552:553:554:556:558:559:560:563:564:565:566:568:575:578:579:585:586:591:602:603:606:609:610:613:614:615:616:617:618:620:621:623:624:628:632:633:639:642:643:647:649:650:652:654:656:660:661:664:666:669:677:678:682:683:685:688:691:692:696:698:701:703:707:719:721:722:731:732:734:738:741:744:745:750:755:757:758:760:763:764:765:766:769:770:773:777:778:779:783:785:792:796:797:800:801:804:809:811:814:819:820:822:823:833:834:835:836:838:840:843:844:846:850:854:855:860:862:863:869:878:880:883:885:889:891:893:894:896:902:903:906:910:913:915:922:923:925:927:928:929:931:932:933:937:938:942:944:945:951:953:959:963:965:968:971:975:976:977:985:988:993:994:995:996:999:1000:1001:1003:1006:1009:1010:1011:1012:1013:1014:1019:1020:1021:1022:1023:1025:1032:1035:1037:1038:1043:1044:1046:1053:1055:1058:1059:1061:1062:1068:1070:1075:1090:1093:1096:1098:1101:1105:1108:1113:1119:1121:1122:1124:1126:1135:1140:1142:1143:1147:1160:1163:1173:1175:1176:1181:1185:1190:1198:1199:1201:1202:1204:1211:1214:1216:1217:1220:1221:1222:1224:1225:1226:1232:1237:1242:1243:1246:1255:1263:1265:1268:1271:1272:1273:1277:1278:1281:1283:1284:1285:1286:1288:1293:1297:1300:1305:1306:1307:1313:1314:1316:1317:1318:1320:1324:1326:1327:1332:1336:1337:1339:1340:1345:1347:1349:1354:1356:1359:1363:1366:1369:1370:1372:1375:1379:1384:1385:1387:1388:1389:1391:1393:1398:1400:1401:1408:1409:1410:1413:1414:1415:1416:1432:1434:1435:1436:1437:1439:1440:1442:1443:1445:1447:1448:1450:1452:1454:1455:1458:1463:1467:1473:1474:1475:1476:1477:1481:1482:1483:1486:1487:1488:1490:1491:1494:1497:1498:1499:1500:1505:1508:1512:1517:1518:1532:1533:1538:1541:1545:1548:1551:1552:1555:1556:1558:1561:1562:1563:1565:1570:1572:1578:1580:1581:1583:1586:1587:1589:1593:1595:1597:1598:1599:1602:1608:1609:1612:1613:1614:1618:1620:1621:1628:1629:1633:1636:1637:1639:1640:1643:1646:1649:1650:1652:1654:1656:1660:1661:1662:1673:1675:1676:1679:1688:1689:1691:1693:1694:1695:1696:1699:1700:1702:1706:1707:1708:1709:1712:1716:1720:1725:1726:1727:1729:1730:1731:1734:1737:1741:1742:1745:1746:1749:1752:1753:1754:1757:1760:1761:1762:1763:1767:1768:1775:1776:1777:1787:1790:1791:1795:1798:1799:1804:1807:1811:1812:1814:1817:1818:1821:1823:1827:1830:1833:1834:1835:1840:1841:1842:1843:1848:1854:1855:1856:1858:1860:1865:1866:1867:1868:1873:1877:1880:1882:1887:1890:1893:1900:1903:1906:1908:1913:1915:1920:1925:1931:1932:1936:1938:1940:1941:1946:1947:1948:1951:1952:1957:1959:1960:1966:1970:1971:1974:1976:1979:1983:1985:1988:1990:1994:1995:2000:2003:2005:2006:2009:2010:2013:2018:2023:2024:2029:2030:2031:2032:2033:2034:2035:2036:2037:2041:2043:2046:2048:2054:2055:2056:2059:2060:2063:2068:2082:2086:2095:2096:2099:2100:2101:2103:2108:2112:2113:2115:2121:2122:2124:2125:2127:2129:2131:2138:2139:2141:2142:2143:2145:2148:2152:2154:2155:2156:2158:2160:2162:2167:2168:2169:2170:2171:2172:2175:2176:2177:2178:2181:2185:2186:2190:2191:2192:2195:2197:2198:2202:2208:2211:2212:2215:2216:2217:2218:2219:2221:2222:2223:2224:2228:2234:2236:2240:2241:2247:2249:2250:2252:2255:2256:2257:2259:2260:2262:2263:2264:2270:2271:2272:2277:2281:2284:2287:2288:2291:2295:2302:2305:2306:2308:2312:2313:2314:2317:2321:2326:2328:2336:2338:2340:2345:2355:2356:2359:2364:2367:2371:2375:2376:2379:2382:2384:2385:2391:2394:2399:2400:2405:2406:2407:2410:2413:2416:2417:2418:2419:2420:2422:2443:2445:2447:2452:2453:2454:2459:2463:2465:2467:2473:2474:2478:2479:2480:2484:2490:2493:2495:2496:2498:2501:2504:2506:2510:2511:2514:2516:2520:2521:2523:2524:2525:2539:2540:2541:2542:2544:2545:2546:2551:2553:2555:2557:2558:2560:2562:2563:2569:2571:2577:2579:2583:2585:2589:2590:2592:2593:2596:2598:2601:2603:2604:2605:2610:2614:2615:2617:2620:2621:2626:2627:2628:2629:2632:2636:2639:2648:2649:2651:2652:2654:2655:2656:2658:2660:2664:2667:2668:2671:2672:2673:2674:2675:2676:2681:2683:2689:2690:2693:2694:2696:2697:2698:2699:2700:2701:2707:2715:2717:2726:2727:2730:2735:2737:2743:2745:2750:2751:2752:2753:2755:2757:2763:2767:2768:2770:2774:2775:2779:2782:2783:2784:2785:2786:2787:2792:2795:2797:2799:2803:2806:2807:2808:2809:2812:2814:2815:2816:2819:2821:2826:2831:2833:2835:2836:2837:2838:2841:2842:2844:2845:2851:2853:2857:2858:2861:2863:2866:2870:2873:2876:2879:2882:2884:2885:2886:2893:2894:2895:2900:2904:2906:2910:2915:2916:2917:2918:2919:2920:2926:2927:2928:2932:2933:2934:2935:2936:2937:2938:2940:2943:2951:2954:2955:2958:2962:2964:2967:2972:2978:2980:2981:2983:2984:2990:2991:2995:2997:3002:3005:3008:3010:3017:3019:3022:3024:3027:3035:3037:3:7:11:12:16:19:20:22:26:30:38:40:43:51:52:58:59:69:72:87:89:92:94:97:99:102:103:112:116:117:118:120:121:124:126:127:128:141:144:154:155:156:159:160:166:167:177:178:181:183:185:188:191:194:196:200:204:206:216:217:218:220:221:222:227:229:231:240:246:253:256:258:260:265:266:267:270:271:277:281:282:286:287:289:290:297:302:305:308:312:317:320:326:333:340:348:349:351:353:354:355:361:363:366:367:371:378:380:381:382:385:395:398:399:402:405:411:414:426:428:429:436:438:440:450:452:456:457:463:468:474:475:476:478:480:483:484:485:494:495:503:511:512:518:526:529:535:538:539:548:549:550:551:561:562:569:570:572:574:576:577:587:589:590:595:596:598:599:608:622:627:629:631:640:641:644:651:653:655:658:662:663:667:670:675:694:695:700:702:705:706:708:709:712:713:714:716:718:720:723:725:728:729:730:735:736:737:748:751:753:754:759:761:767:774:776:784:786:787:788:789:791:794:795:798:806:810:813:816:817:818:821:825:828:829:830:831:832:837:839:842:852:858:865:872:875:879:884:888:895:899:900:901:905:911:912:914:919:936:941:950:952:956:964:966:967:973:978:979:980:981:986:990:991:992:1007:1016:1026:1028:1034:1036:1041:1045:1048:1049:1056:1060:1063:1064:1066:1072:1076:1077:1081:1082:1084:1089:1092:1094:1100:1103:1104:1106:1109:1112:1115:1125:1127:1128:1130:1136:1139:1141:1145:1146:1152:1153:1157:1159:1161:1165:1167:1168:1171:1172:1178:1179:1183:1184:1186:1187:1189:1195:1197:1200:1205:1206:1210:1213:1218:1227:1231:1235:1236:1241:1244:1245:1248:1249:1252:1253:1260:1262:1264:1266:1270:1280:1291:1294:1295:1296:1298:1302:1303:1311:1312:1315:1319:1325:1330:1334:1338:1341:1342:1343:1346:1355:1357:1364:1365:1373:1376:1378:1386:1392:1395:1399:1402:1405:1406:1411:1412:1418:1419:1420:1422:1429:1430:1438:1446:1449:1456:1457:1459:1460:1464:1468:1469:1470:1472:1478:1484:1493:1504:1511:1516:1519:1520:1522:1524:1525:1526:1527:1528:1529:1530:1534:1537:1539:1542:1550:1553:1557:1559:1564:1567:1568:1575:1577:1582:1584:1588:1594:1606:1615:1616:1619:1622:1623:1624:1626:1627:1631:1632:1634:1635:1638:1641:1642:1653:1657:1658:1663:1664:1665:1667:1670:1671:1672:1674:1677:1681:1682:1684:1685:1686:1698:1701:1704:1710:1711:1713:1714:1717:1718:1721:1724:1733:1735:1736:1738:1740:1744:1750:1755:1756:1759:1764:1766:1771:1778:1782:1788:1789:1793:1805:1806:1809:1815:1819:1824:1825:1826:1828:1831:1837:1838:1839:1847:1849:1852:1857:1862:1864:1869:1871:1872:1874:1875:1876:1881:1885:1886:1889:1891:1892:1896:1899:1902:1907:1910:1911:1912:1917:1921:1924:1926:1928:1929:1930:1933:1937:1945:1950:1953:1954:1955:1958:1961:1962:1963:1965:1967:1972:1973:1978:1980:1986:1987:1989:1991:1993:1996:1998:1999:2007:2014:2015:2016:2019:2021:2025:2042:2045:2047:2049:2053:2061:2062:2065:2070:2071:2073:2076:2077:2080:2083:2084:2087:2088:2090:2093:2094:2104:2106:2107:2111:2116:2128:2130:2136:2144:2151:2163:2165:2179:2183:2187:2188:2189:2196:2200:2201:2203:2204:2210:2214:2230:2232:2244:2248:2261:2265:2267:2269:2273:2278:2279:2280:2282:2285:2286:2293:2301:2303:2307:2316:2318:2319:2322:2323:2324:2325:2327:2329:2337:2342:2346:2357:2358:2360:2363:2366:2368:2370:2372:2378:2386:2387:2388:2389:2390:2393:2396:2401:2402:2404:2414:2415:2423:2425:2429:2435:2436:2437:2438:2440:2450:2451:2460:2468:2469:2475:2477:2482:2487:2488:2489:2492:2499:2500:2503:2507:2512:2513:2522:2527:2528:2529:2530:2531:2532:2534:2536:2537:2543:2559:2561:2564:2567:2570:2572:2575:2586:2595:2600:2602:2607:2608:2618:2619:2622:2623:2631:2635:2637:2640:2642:2643:2644:2646:2653:2657:2659:2662:2663:2684:2686:2688:2691:2703:2706:2708:2709:2713:2714:2720:2721:2722:2728:2731:2732:2736:2738:2746:2747:2749:2758:2759:2762:2769:2772:2773:2781:2789:2791:2793:2794:2796:2798:2801:2805:2817:2823:2825:2827:2828:2830:2832:2846:2848:2849:2854:2855:2856:2859:2860:2862:2864:2868:2869:2871:2872:2874:2878:2881:2883:2887:2888:2892:2897:2902:2903:2905:2907:2913:2921:2922:2923:2924:2930:2939:2945:2946:2948:2952:2953:2957:2963:2965:2968:2970:2971:2973:2987:2988:2989:2992:3000:3003:3004:3006:3009:3012:3015:3020:3023:3028:3029:3032:3036:3039:3043:3047:3048:1:21:28:33:55:63:75:77:90:98:109:111:136:142:157:164:175:186:197:233:235:239:242:247:250:259:264:272:273:275:276:284:299:313:314:337:341:356:372:386:389:393:410:431:442:449:467:469:473:487:491:493:496:531:533:537:546:555:600:605:611:626:636:638:645:665:668:679:684:686:690:717:743:762:771:780:799:802:807:808:812:824:826:845:847:853:867:874:882:886:898:907:921:924:926:930:940:943:946:947:954:955:969:974:983:998:1008:1015:1029:1030:1033:1039:1051:1057:1067:1087:1118:1149:1155:1174:1182:1193:1194:1212:1230:1233:1258:1282:1309:1322:1323:1333:1361:1367:1368:1377:1403:1407:1417:1423:1428:1444:1451:1461:1466:1495:1501:1506:1510:1513:1515:1521:1535:1536:1540:1547:1549:1554:1574:1591:1592:1596:1604:1605:1648:1655:1659:1680:1687:1690:1697:1722:1743:1751:1758:1770:1773:1781:1786:1794:1808:1813:1820:1844:1851:1861:1863:1883:1897:1919:1923:1935:1939:1943:1975:1997:2004:2008:2012:2017:2020:2028:2038:2051:2064:2069:2078:2085:2133:2137:2161:2164:2173:2174:2180:2184:2205:2206:2213:2237:2242:2243:2253:2254:2283:2296:2297:2298:2299:2309:2334:2335:2339:2344:2347:2348:2349:2352:2381:2398:2424:2426:2431:2432:2441:2442:2444:2446:2449:2461:2476:2481:2485:2497:2502:2519:2535:2547:2548:2556:2568:2580:2584:2591:2594:2599:2611:2613:2625:2630:2633:2645:2692:2702:2711:2733:2739:2740:2748:2756:2761:2764:2771:2790:2810:2811:2813:2822:2834:2839:2840:2843:2852:2875:2891:2896:2901:2912:2925:2941:2950:2960:2961:2966:2975:2976:2979:2982:2996:2998:3001:3011:3014:3016:3026:3034:3042:29:48:81:95:131:145:151:162:292:327:347:408:425:510:521:523:540:547:594:637:646:671:680:689:697:710:726:733:752:781:782:859:904:916:1002:1004:1005:1018:1024:1095:1148:1196:1229:1251:1304:1308:1424:1462:1485:1543:1544:1601:1603:1647:1678:1703:1715 none
tree_sizes=3356 4829 4768 4697 4507 3443 4834 5002 3451 3451 4843 4702 5077 4682 4833 4807 5247

Tree=0
num_leaves=31
num_cat=0
split_feature=10 1 1 0 14 1 15 15 5 14 14 14 14 1 14 14 14 14 14 12 12 15 14 15 1 1 5 5 12 14
split_gain=1165.54 313.973 293.713 201.07 356.72 224.195 190.075 290.419 252.733 143.087 312.463 142.569 121.627 137.057 117.085 171.053 115.866 267.119 111.871 101.019 103.313 146.549 250.25 124.441 107.463 99.2356 153.467 95.5737 86.1116 87.1427
threshold=0.53571428571428581 1.3922864426767732 1.8810798862519273 0.81649658092772603 0.77022748950903008 0.77349246815376194 1.1337533216452036 0.98038869321848143 0.008062698369184473 0.4400083347238683 0.39972991488118192 0.34651647282067605 0.18935635241521295 3.741657386773944 0.32270700124514357 0.31103300154289765 0.22842970921645939 0.57283150530727134 0.74180703675634818 0.0026410369969736007 1.0743115741582379 0.79001588282522717 0.23711815651189197 1.3070935668851129 0.80476624683640674 0.85734633319489661 0.0095131395753567712 0.0090129376666830841 1.0372794328471673 0.5299653053338268
decision_type=2 2 2 2 2 2 2 2 2 2 2 2 2 2 2 2 2 2 2 2 2 2 2 2 2 2 2 2 2 2
left_child=1 -1 11 6 5 -5 7 8 -2 10 12 14 13 -4 15 -3 -10 -18 19 -7 25 -22 24 -24 -23 -21 -27 -13 29 -28
right_child=3 2 9 4 -6 18 -8 -9 16 -11 -12 27 -14 -15 -16 -17 17 -19 -20 20 21 22 23 -25 -26 26 28 -29 -30 -31
leaf_value=0.82785313163117391 0.83046784076891322 0.83093088866532738 0.82534561904478543 0.82054127880313954 0.82509105149813911 0.64063948077917388 0.6768419528626306 0.80296923117340435 0.62783137968261904 0.83909106200034189 0.63963087823127662 0.78996006967865062 0.80311667806791964 0.66703163117016273 0.82085448551998152 0.62526405492053616 0.82784549606172375 0.6500308643602225 0.62967382312508513 0.80314311063074417 0.64510961517602605 0.61247423543791868 0.83523638230785857 0.64154215726715547 0.71873657900563903 0.81925441095877705 0.71018580555915312 0.70747418244753379 0.82660869841296103 0.75120542013175795
leaf_weight=591.29123083606828 32.019336940371431 18.454045970924199 22.077440985478461 85.108329719980247 146.98483129043598 25.634072770364583 201.00372236175463 113.2928373318864 69.261587486951612 179.14715863333549 33.341137815266848 42.9918974628672 605.7357363231713 35.903740751673467 87.280169641133398 22.358720128424466 32.826890036347322 59.227797486702912 24.075026782462373 83.846566661261022 56.773720177123323 27.546653266064823 66.053856791229919 9.4825895624235255 174.58427938283421 62.633452267851681 240.78625728096813 191.72019156860188 25.351994612719864 280.08065172610804
leaf_count=2784 264 141 170 241 875 172 1541 804 375 328 185 271 2657 44 149 59 353 282 136 130 140 29 347 155 666 756 1048 901 219 796
internal_value=0.769716 0.797876 0.78357 0.741342 0.751702 0.742418 0.714631 0.739402 0.702153 0.799235 0.788992 0.745738 0.796495 0.727313 0.788166 0.718259 0.676684 0.71344 0.736244 0.738681 0.741128 0.718306 0.733272 0.810921 0.704255 0.752146 0.745123 0.722583 0.736623 0.732243
internal_weight=3646.88 1830.3 1239.01 1816.57 1308.94 1161.96 507.632 306.628 193.336 876.205 697.058 362.805 663.717 57.9812 128.093 40.8128 161.316 92.0547 1076.85 1052.77 1027.14 334.441 277.667 75.5364 202.131 692.699 608.852 234.712 546.219 520.867
internal_count=17018 7689 4905 9329 5710 4835 3619 2078 1274 3384 3056 1521 2871 214 349 200 1010 635 4594 4458 4286 1337 1197 502 695 2949 2819 1172 2063 1844
is_linear=0
shrinkage=1


Tree=1
num_leaves=31
num_cat=6
split_feature=16 16 15 14 16 14 14 14 13 13 16 16 14 13 15 13 14 16 13 0 13 12 12 5 13 14 11 14 15 14
split_gain=2655.73 839.655 226.596 207.926 77.0532 97.8447 71.243 105.908 70.5064 97.9172 118.296 107.198 85.3988 54.736 118.727 52.7521 74.9696 45.3566 110.629 44.5119 43.1332 88.1197 82.9818 57.8156 44.4043 37.2258 35.3462 32.0855 27.7656 36.0819
threshold=0 1 0.01894905012905496 0.089915085075040382 2 0.19297424750449069 0.22260608603867962 0.59779987428289894 0.38533142726568326 0.80727742257674051 3 4 0.2141278314564653 0.79993717236467721 0.01995140068886541 0.18640868390269807 0.18935635241521295 5 0.30303684390454455 1.0631125685144232 1.7182919075893897 1.1192471887229927 1.8351477166737058 0.59895436491853793 1.7778808220398357 0.13097493314150635 1.4600918230947435 0.061436837868250223 0.01080831925390693 0.4400083347238683
decision_type=9 9 2 2 9 2 2 2 2 2 9 9 2 2 2 2 2 9 2 2 2 2 2 2 2 2 2 2 2 2
left_child=3 28 15 -1 5 -4 -5 13 -6 11 -11 -10 -13 14 -8 -3 -17 18 -18 -7 21 23 26 27 -22 -26 -23 -12 -2 -30
right_child=1 2 4 6 8 19 7 -9 9 10 20 12 -14 -15 -16 16 17 -19 -20 -21 24 22 -24 -25 25 -27 -28 -29 29 -31
leaf_value=-0.01664888427769053 0.071981304779728875 0.063016042873466557 0.070018700628293351 -0.094638054983049114 0.049523248354232441 0.020597608548041556 -0.061980362223767904 -0.088716570055879448 -0.10079426656835351 0.056217550407573508 -0.088841132302578757 -0.11851259646568764 -0.0062021908052330953 -0.074089369520738663 -0.0034928368162127944 -0.13397634669666145 -0.081769229239664121 0.027186752237933078 0.025894211230907266 -0.037101470486025634 -0.13678034218923199 -0.039516127197415596 -0.10680429896759154 -0.14339345145858612 -0.12055766638330334 -0.0090217155457150856 0.06189624992280171 -0.00588824008253791 0.040069378248690418 0.071782206276255742
leaf_weight=226.33135795593262 647.42862749099731 78.865175155340694 52.236026555299759 222.82643032073975 28.474765608320013 61.809804007411003 219.99154090881348 259.18289566040039 75.398207664489746 44.692527644336224 16.652219530660659 20.060226963367313 108.32826032279991 158.97456216812134 143.28069734573364 7.8362103421241036 35.246846348047256 546.55120562255615 73.85665325820446 72.787873446941376 15.672282593557609 10.231039691949261 10.37557582138106 14.339447768405078 10.023904095403848 29.487902220309479 53.637550362152979 38.859660355839878 194.74100494384766 166.27621841430664
leaf_count=33 97 1278 21 32 277 14 32 37 11 53 481 303 2118 23 21 20 23 6072 31 28 109 591 251 6 286 2611 416 1689 29 25
internal_value=3.89283e-05 0.0304908 0.00534403 -0.0594587 -0.0158611 0.0113298 -0.069699 -0.0625875 -0.026216 -0.0316181 -0.0102485 -0.0572015 -0.0220341 -0.0496201 -0.0389119 0.0243563 0.0197611 0.0215985 -0.00814122 -0.010605 -0.0266392 -0.0135805 0.0243456 -0.0538916 -0.0655651 -0.0373177 0.0456511 -0.0307721 0.06514 0.0546756
internal_weight=3644.46 2413.87 1405.42 1230.59 663.067 186.834 1004.26 781.43 476.234 447.759 243.972 203.787 128.388 522.247 363.272 742.356 663.491 655.655 109.103 134.598 199.28 144.095 74.2442 69.8513 55.1841 39.5118 63.8686 55.5119 1008.45 361.017
internal_count=17018 16840 16689 178 9265 63 145 113 9202 8925 6493 2432 2421 76 53 7424 6146 6126 54 42 6440 3434 1258 2176 3006 2897 1007 2170 151 54
cat_boundaries=0 93 178 268 343 421 512
cat_threshold=0 0 0 0 536870912 0 0 0 1073741824 16779264 0 512 0 0 524288 0 0 0 0 256 1048576 0 134217728 0 66560 0 0 12 0 0 32 0 0 0 0 4194816 8388608 2147483648 0 2048 4194304 0 0 0 268435456 0 0 0 0 0 0 0 0 0 0 4096 0 0 0 0 0 0 0 128 0 0 0 0 536870912 65536 4 0 0 536870912 0 0 0 0 1073741824 0 0 0 0 1 0 268435456 0 0 268435456 0 0 0 64 0 0 0 0 0 32768 0 0 0 0 0 0 0 8192 262144 0 0 0 268435456 0 2048 0 0 1024 0 0 0 0 0 0 4194304 0 0 272629760 16777216 0 0 0 512 0 0 0 33554688 0 0 0 0 0 0 0 0 0 0 0 0 0 0 0 524288 0 0 512 0 0 0 0 4194304 512 0 0 536870912 2155872256 0 0 67108864 0 0 135168 4194304 0 0 256 0 0 1073741824 0 0 0 0 0 0 0 0 0 268435456 0 0 0 0 4096 0 0 0 8 0 0 0 0 8388608 0 0 0 0 0 0 262144 0 0 0 0 0 0 0 0 0 0 0 0 0 0 0 0 0 0 0 0 536870912 0 0 0 0 0 0 0 0 0 0 0 0 0 0 65536 0 0 0 0 0 0 0 65536 33554432 0 0 256 0 0 0 0 0 0 0 0 0 0 524288 0 0 0 0 0 0 0 0 0 0 0 0 32768 0 0 0 0 0 0 0 0 0 0 0 0 0 0 0 0 0 0 0 0 0 2048 0 0 1073741824 131072 16 0 0 0 8192 0 0 0 0 0 4194304 0 4 0 0 0 0 0 0 0 0 0 0 0 0 0 0 0 0 4194304 67108864 0 0 0 0 256 0 0 0 0 0 0 0 0 0 0 0 0 32768 0 0 0 0 0 0 0 0 0 0 0 0 0 0 0 0 0 0 0 0 0 0 0 0 0 0 0 0 0 0 0 0 0 1024 0 0 0 0 4 0 0 0 0 0 0 0 0 0 0 0 0 0 0 0 0 4194304 0 0 0 0 0 0 0 0 16777216 0 0 0 0 0 0 0 0 0 0 0 0 0 0 0 0 0 0 0 0 0 0 0 0 0 0 0 0 0 0 0 0 0 0 0 0 0 0 0 0 0 0 0 536870912 0 0 0 0 0 0 0 0 0 69632 0 0 0 0 0 0 0 0 0 0 32 65536 0 0 0 1073741824 0 0 32 0 16 0 0 0 524288 0 0 262144 0 0 0 0 0 0 0 0 131072
is_linear=0
shrinkage=0.05


Tree=2
num_leaves=31
num_cat=7
split_feature=16 16 13 14 16 14 14 14 13 14 13 15 16 16 14 14 13 14 14 13 13 15 14 16 15 14 15 16 14 15
split_gain=2383.68 774.502 199.936 107.755 93.8321 76.4755 97.6029 57.5811 56.2549 54.111 73.0636 95.2269 97.8639 76.9803 94.8126 98.4732 79.1718 72.289 65.1701 55.7108 64.5798 56.6957 51.1291 49.3507 48.3165 113.591 56.2346 71.2449 47.5364 63.3552
threshold=0 1 0.38533142726568326 0.089915085075040382 2 0.18935635241521295 0.59779987428289894 0.37270482636652952 0.56564426105601118 0.70144217079999527 0.57594527606680901 0.93233204671653047 3 4 0.061436837868250223 0.21944008728932654 2.1341163515750208 0.66902205467647724 0.6555552738337167 0.87117553867855191 1.6356705987879583 0.011588649850322645 0.24267616461191191 5 0.037886013639167083 0.32270700124514357 0.0090989969712221442 6 0.46254536732945634 0.0095141775172105144
decision_type=9 9 2 2 9 2 2 2 2 2 2 2 9 9 2 2 2 2 2 2 2 2 2 9 2 2 2 9 2 2
left_child=22 3 7 -2 -4 -5 8 24 -7 10 23 12 -12 -13 -15 16 -16 18 19 21 -21 -14 -1 -6 26 -26 27 -3 29 -24
right_child=1 2 4 5 9 6 -8 -9 -10 -11 11 13 17 14 15 -17 -18 -19 -20 20 -22 -23 28 -25 25 -27 -28 -29 -30 -31
leaf_value=0.070737674458819483 -0.024382784789709719 -0.013767945047160467 -0.10364890557480017 -0.092116828390918559 0.05563308650100042 -0.06050019990707374 -0.081930889977959775 -0.085580317635903735 -0.028129284336328671 0.022787690245769699 -0.091884501457337647 0.040330152790625608 0.040496017440817877 -0.089455161405283729 0.035427162518982688 -0.0751926789284003 -0.11673931978744473 -0.11567566563768383 0.065778383158685588 0.034229933109858675 -0.089092975626522214 -0.078840326175976194 0.057418956457565423 -0.0094628764388412293 -0.12570053509389933 0.066781254954367666 0.059431687705152593 0.033952964226561327 0.065239143721853285 0.019495764547620004
leaf_weight=469.30430603027344 207.36931848526001 109.52013631165028 20.722175598144531 194.59483480453491 39.21428969502449 278.86115217208862 266.41732883453369 11.860367144457994 258.73918581008911 89.708942064316943 78.443270206451416 60.751059532165527 12.132199783576651 40.388484744355083 95.307237673085183 34.908734376775101 9.3903848589397949 18.972560243448243 22.801811116980389 49.730114275123924 13.496847913251257 55.404245611978695 229.8103723526001 69.76748245197814 16.241392796160657 14.515007498674093 119.7846547276713 245.99306268035434 292.43238592147827 211.47816562652588
leaf_count=72 30 22 3 27 40 40 37 137 37 2462 11 9 182 887 1024 1387 220 197 94 1134 446 811 35 2331 71 47 701 4447 45 32
internal_value=6.96955e-05 -0.0283597 -0.000307948 -0.0567104 -0.0175205 -0.0639914 -0.0571842 0.0233203 -0.0449206 -0.0132424 -0.0188435 -0.0270527 -0.0486027 -0.00458658 -0.02083 -0.00246868 0.0217793 -0.0223066 -0.0122237 -0.0258253 0.0079046 -0.0574028 0.0573722 0.0181967 0.0258726 -0.0348617 0.0298027 0.0198197 0.0496053 0.0392451
internal_weight=3638.06 2435.04 1229.05 1205.98 711.14 998.613 804.018 517.915 537.6 690.418 600.709 491.727 250.981 240.746 179.995 139.606 104.698 172.538 153.565 130.763 63.227 67.5364 1203.03 108.982 506.054 30.7564 475.298 355.513 733.721 441.289
internal_count=17018 16834 16663 171 11238 141 114 5425 77 11235 8773 6402 2875 3527 3518 2631 1244 2864 2667 2573 1580 993 184 2371 5288 118 5170 4469 112 67
cat_boundaries=0 85 178 232 288 344 423 505
cat_threshold=0 0 0 0 0 32768 0 0 0 0 0 0 0 8192 262144 0 0 0 268435456 0 2048 0 0 1024 0 0 0 0 0 0 4456448 0 0 272629760 16777216 0 0 0 512 0 0 0 33554688 0 0 0 0 0 0 0 0 0 0 4 0 0 0 0 524288 0 0 512 0 0 0 0 4259840 4608 0 0 536870912 2155872768 0 0 67108864 0 0 135168 4194304 0 1073741824 256 0 0 1073741824 0 0 0 0 536870912 0 0 0 1073741824 16779264 0 512 0 0 524288 0 0 0 0 256 1048576 0 134217728 0 66560 0 0 12 0 0 32 0 0 0 0 4194816 8388608 2147483648 0 2048 4194304 0 0 0 268435456 0 0 0 0 0 0 0 0 0 0 0 0 0 0 0 0 0 0 128 0 0 0 0 536870912 65536 4 0 0 536870912 0 0 0 0 1073741824 0 0 0 0 1 0 268435456 0 0 268435456 0 0 0 64 0 0 0 0 0 0 0 0 0 0 0 0 0 0 0 0 0 0 0 0 0 0 0 0 0 0 0 0 0 0 0 0 0 0 0 0 0 0 0 0 0 0 0 0 0 0 1024 0 0 0 0 0 0 65536 0 0 0 0 1 0 0 0 0 0 0 0 32768 0 0 0 0 0 0 0 0 0 0 0 0 0 0 67108864 0 0 0 0 0 0 0 0 0 0 0 0 0 0 0 0 0 0 0 0 0 0 0 0 0 0 0 4096 0 0 0 0 0 0 0 0 0 0 0 0 0 0 0 0 0 0 0 0 0 0 0 8388608 0 0 0 67108864 0 0 0 0 0 0 0 0 0 0 0 0 0 0 0 0 0 0 0 0 0 0 0 0 0 0 0 4096 0 0 0 0 1 0 0 0 0 0 131072 0 131072 0 0 0 0 0 1 0 0 268435456 0 0 0 0 0 0 0 0 0 0 0 0 0 0 0 0 0 0 0 0 0 0 0 0 0 0 0 0 0 0 0 0 0 0 0 0 256 16 0 2048 0 0 0 0 0 0 0 0 0 0 0 0 0 33554432 0 16777216 256 0 0 0 0 0 0 0 0 0 0 0 0 0 0 0 0 0 0 0 0 0 0 0 0 0 0 0 0 0 0 0 0 0 0 0 0 0 0 0 0 0 0 0 0 0 0 0 0 2097152 0 0 0 0 0 0 0 0 0 0 0 0 0 0 0 0 0 0 0 256 1073741824 0 0 0 0 0 0 0 16 524288 0 0 128
is_linear=0
shrinkage=0.05


Tree=3
num_leaves=31
num_cat=6
split_feature=16 16 15 15 12 15 15 10 15 15 16 15 12 16 15 15 15 15 15 16 15 5 12 15 12 16 15 12 11 15
split_gain=2186.15 689.159 174.29 92.4414 89.6669 105.736 124.099 65.6027 48.602 53.8228 50.467 45.804 44.7804 42.3239 41.2062 59.1847 40.7239 40.6694 53.3195 83.3713 74.1885 77.5707 44.0994 56.206 90.9296 71.6721 39.9104 39.73 35.1256 32.3393
threshold=0 1 0.018419316331777822 0.024796462775368646 0.58471057523409953 0.96585114312466447 1.1337533216452036 0.46428571428571436 0.012089815797032435 0.011588649850322645 2 0.021564444586619932 0.012367170103971927 3 0.025481545043672848 0.033734163574966287 0.0095141775172105144 0.037886013639167083 0.93233204671653047 4 0.95305534333280206 1.0000000180025095e-35 0.84858885545314233 1.2310895016888432 1.00269587811524 5 1.286849464077195 0.013189634783583816 1.0994504121565496 0.88458390506860851
decision_type=9 9 2 2 2 2 2 2 2 2 9 2 2 9 2 2 2 2 2 9 2 2 2 2 2 9 2 2 2 2
left_child=16 3 8 7 -5 -6 -7 -2 9 10 -3 28 -13 -14 -15 -16 -1 -17 19 -19 -20 -22 -23 25 -25 -24 -26 -21 -4 -29
right_child=1 2 11 4 5 6 -8 -9 -10 -11 -12 12 13 14 15 17 -18 18 20 27 21 22 23 24 26 -27 -28 29 -30 -31
leaf_value=0.064624064074011708 -0.053885861920688095 -0.018939089990459256 0.0040282017103114229 -0.014405999946781246 -0.088607536008082743 -0.01730030855422527 -0.067057836038204519 -0.09572794845157076 0.054794459403953527 -0.09917156738992132 0.023460953635104052 0.04801820985828148 0.018200973113859365 0.050880090815779523 -0.10244155261670672 0.053893817713318651 0.045861179492187674 -0.082480537933939529 0.065905134039277544 -0.12939530374256955 -0.1251354763350617 -0.10870078454965584 0.04380351719015451 0.045278879754382356 -0.1242391011995778 -0.027129670859770479 -0.024357493993057672 -0.0047297625057528903 -0.12920860314236579 -0.081716785614538268
leaf_weight=658.69856548309326 192.60026741027832 79.233241021633148 7.2287179920822391 192.33643740415573 159.82791185379028 253.4224591255188 247.88424634933472 182.38785246014595 85.942891857819632 10.284859180683268 393.32565643684939 26.854852475225925 67.505192019045353 18.310605964623392 23.8092195908539 17.158905952237546 515.53399801254272 72.783777713775635 29.707306406227872 7.6094386139884582 15.770587416598572 10.700393125414847 72.628659725189209 19.618183655198663 25.53403888802859 54.8767558503896 16.440886228228919 137.96659552562051 15.669506192905828 15.137257651658727
leaf_count=104 27 65 228 29 22 36 34 28 693 99 6492 222 47 190 397 136 80 10 197 6 68 140 11 278 333 2543 1363 2626 68 446
internal_value=8.56635e-05 -0.0267608 -9.91995e-05 -0.0531125 -0.0444533 -0.0531947 -0.0419042 -0.0742371 0.020151 0.0139847 0.0164475 -0.0176772 -0.0151618 -0.0179637 -0.0224225 -0.0254364 0.0559103 -0.0217395 -0.0244501 -0.0415517 -0.00816992 -0.0183781 -0.00995148 -0.00436362 -0.0435843 0.0145824 -0.0851171 -0.0168361 -0.0871472 -0.0123414
internal_weight=3626.79 2452.56 1224.1 1228.46 853.471 661.135 501.307 374.988 568.787 482.844 472.559 655.311 632.413 605.558 538.053 519.742 1174.23 495.933 478.774 233.497 245.277 215.57 199.799 189.099 61.5931 127.505 41.9749 160.713 22.8982 153.104
internal_count=17018 16834 16658 176 121 92 70 55 7349 6656 6557 9309 9013 8791 8744 8554 184 8157 8021 3088 4933 4736 4668 4528 1974 2554 1696 3078 296 3072
cat_boundaries=0 85 178 262 352 408 460
cat_threshold=0 0 0 0 0 32768 0 0 0 0 0 0 0 8192 262144 0 0 0 268435456 0 2048 0 0 1024 0 0 0 0 0 0 4456448 0 0 272629760 16777216 0 0 0 512 0 0 0 33554688 0 0 0 0 0 2097152 0 0 0 0 0 0 0 0 0 524288 0 0 512 0 0 0 0 4259840 4608 0 0 536870912 2155872768 0 0 67108864 0 0 135168 4194304 0 1073741824 256 0 0 1073741824 0 0 0 0 536870912 0 0 0 1073741824 16779264 0 512 0 0 524288 32 0 0 0 256 1048576 0 134217728 0 66560 0 0 12 0 0 32 0 0 0 0 4194816 8388608 2147483648 0 2048 4194304 0 0 0 268435456 0 0 0 0 0 0 0 0 0 0 0 0 0 0 0 0 0 0 128 0 0 0 0 536870912 65536 4 0 0 536870912 0 0 0 0 1073741824 0 0 0 0 1 0 268435456 0 0 268435456 0 0 0 64 0 0 0 0 0 0 0 0 0 0 0 0 0 0 32 0 0 0 0 0 0 0 0 0 0 0 0 0 0 0 0 0 0 0 0 0 0 0 0 0 0 0 0 0 0 0 0 0 0 0 131072 0 0 69632 0 0 0 0 0 0 0 0 0 0 0 65536 2 0 0 0 0 0 0 0 0 0 0 16 524288 0 8192 262272 0 128 0 0 0 0 0 0 0 0 0 268435456 0 0 0 0 4096 0 0 0 8 0 0 0 0 8388608 0 0 0 0 0 0 0 0 0 0 0 0 0 0 0 0 0 0 0 0 0 0 0 0 0 4194304 0 0 0 0 0 0 0 0 0 0 0 0 0 0 0 0 0 0 4194304 0 0 0 0 0 0 33554432 0 0 0 0 0 0 0 0 0 0 0 0 0 524288 0 0 0 0 1 0 0 0 0 0 0 0 0 0 0 0 0 0 0 0 0 0 0 0 0 0 0 67108864 0 0 0 0 0 0 0 0 0 0 0 0 0 0 0 0 0 0 1024 0 0 0 0 0 0 0 0 4096 0 0 0 0 0 0 0 0 0 0 0 0 0 0 0 0 0 0 0 0 0 0 0 0 0 0 0 67108864 0 0 0 0 0 0 0 0 0 0 0 0 0 0 0 0 0 0 0 0 0 0 0 536870916
is_linear=0
shrinkage=0.05


Tree=4
num_leaves=31
num_cat=5
split_feature=16 16 15 14 14 14 15 15 13 14 15 16 14 16 15 14 14 13 15 13 13 13 16 14 15 15 5 13 0 13
split_gain=2005.72 606.848 178.165 84.5174 65.8206 90.2931 60.6363 58.8981 56.8099 64.5146 57.572 99.7038 59.0126 66.6459 56.7909 51.8112 75.4852 63.9879 42.2268 76.7206 42.0111 130.585 60.4095 41.9277 56.3219 69.3507 48.4825 33.8577 33.0273 32.1669
threshold=0 1 0.018419316331777822 0.089915085075040382 0.22260608603867962 0.59779987428289894 0.041789350113198447 0.0095141775172105144 0.18640868390269807 0.18935635241521295 0.012089815797032435 2 0.34864338675767576 3 0.011588649850322645 0.3166790650495967 0.26185705205856702 0.26290362773539272 0.01109368339950305 0.79993717236467721 0.33477092210029263 0.38964033523302294 4 0.31103300154289765 0.0012054197665205052 0.0059945587164822326 0.20538285244167601 0.50662073630465476 1.4174834246858885 1.189544215771382
decision_type=9 9 2 2 2 2 2 2 2 2 2 9 2 9 2 2 2 2 2 2 2 2 9 2 2 2 2 2 2 2
left_child=7 3 8 -2 -5 18 -7 -1 -3 -10 11 -11 15 -14 -15 16 -13 -18 -6 -20 -4 -22 -23 24 -19 26 -26 -9 -29 -24
right_child=1 2 20 4 5 6 -8 27 9 10 -12 12 13 14 -16 -17 17 23 19 -21 21 22 29 -25 25 -27 -28 28 -30 -31
leaf_value=0.065532910774578582 -0.021286961186075103 0.06011726627861097 -0.089625054457558695 -0.080017154364245058 -0.058800728650138911 -0.10047961703511235 -0.053029277394700702 0.020315468055676675 -0.12711582957875875 -0.09256561144237091 0.054008636496648714 0.045069506290704421 -0.068476937879811364 0.017065659548829729 -0.11471938499148165 0.059702539333982368 -0.16530277562605816 0.047197472475617376 -0.0092170517894656825 -0.055348265367893348 0.061592477829454068 -0.091374680252883533 -0.010780776190689864 -0.1089494670290734 0.027423083970734966 0.040640015284150094 -0.14792940924969894 0.038953962310411053 0.068577583708918963 -0.037638906029139607
leaf_weight=613.78739023208618 211.06409502029419 75.00469113572035 20.248672876274213 223.68341398239136 160.12458992004395 114.01056343317032 164.43007281422615 127.3488187789917 8.0226459400728327 13.459694385528563 82.617081972071901 89.78118977160193 28.055281639099121 114.12091568857431 8.8057799336966109 87.13716907449998 6.9714043084532014 38.042498722206801 220.17412757873535 152.59219980239868 49.281817739829421 22.169089317321777 373.89467516192235 9.0694957021623832 5.3746529230847964 15.057454072870312 14.786577822640538 255.08738279342651 149.07465839385986 158.83991847594734
leaf_count=100 30 1276 145 30 22 19 23 20 20 2 666 1807 4 2176 56 532 12 421 31 21 166 3 4384 57 111 197 17 40 24 4606
internal_value=0.000102866 -0.0252738 -0.000114909 -0.049724 -0.0560034 -0.0493828 -0.0724583 0.0545056 0.019431 0.0135771 0.0157762 0.00844176 0.0135933 -0.0110513 0.00705167 0.0280807 0.0126944 -0.0198545 -0.0373257 -0.0281009 -0.0187822 -0.016408 -0.0233354 -0.00753853 0.00501582 -0.0405479 -0.101183 0.0427969 0.0498806 -0.0184426
internal_weight=3612.12 2466.82 1220.74 1246.08 1035.01 811.332 278.441 1145.3 596.307 521.302 513.279 430.662 417.202 150.982 122.927 266.22 179.083 89.3021 532.891 372.766 624.434 604.186 554.904 82.3307 73.2612 35.2187 20.1612 531.511 404.162 532.735
internal_count=17018 16834 16658 176 146 116 42 184 7354 6078 6058 5392 5390 2236 2232 3154 2622 815 74 52 9304 9159 8993 803 746 325 128 84 64 8990
cat_boundaries=0 85 178 256 325 403
cat_threshold=0 0 0 0 0 32768 0 0 0 0 0 0 0 8192 262144 0 0 0 268435456 0 2048 0 0 8389632 0 0 0 0 0 0 4456448 0 0 272629760 16777216 0 0 0 512 0 0 0 33554688 0 0 0 0 0 0 0 0 0 0 0 0 0 0 0 524288 0 0 512 0 0 0 0 4259840 4608 0 0 536870912 2155872768 0 0 67108864 0 0 135168 4194304 0 1073741824 256 0 0 1073741824 0 0 0 0 536870912 0 0 0 1073741824 16779264 0 512 0 0 524288 32 0 0 0 256 1048576 0 134217728 0 66560 0 0 12 0 0 32 0 0 0 0 4194816 8388608 2147483648 0 2048 4194304 0 0 0 268435456 0 0 0 0 0 0 0 0 0 0 0 0 0 0 0 0 0 0 128 0 0 0 0 536870912 65536 4 0 0 536870912 0 0 0 0 1073741824 0 0 0 0 1 0 268435456 0 0 268435456 0 0 0 64 0 0 0 0 0 0 0 0 0 0 0 0 0 0 0 0 0 0 0 0 0 0 0 0 0 0 0 0 0 0 0 0 0 0 0 0 0 0 0 0 0 0 0 536870912 0 0 0 0 0 0 0 0 0 0 0 0 0 0 0 0 0 0 0 0 0 0 0 0 0 0 0 0 0 0 0 0 0 16 0 0 0 0 0 0 0 0 0 0 0 0 0 0 0 0 0 0 0 0 0 0 0 0 0 0 0 0 0 0 0 0 0 0 0 0 0 0 0 0 0 0 0 0 0 0 0 0 0 0 0 0 0 65536 0 0 0 0 0 0 0 0 0 0 0 0 0 0 256 0 0 0 0 0 0 0 0 0 0 0 0 0 0 0 0 0 0 0 0 0 0 0 0 0 0 0 0 0 0 0 0 0 0 0 0 0 0 0 0 0 0 0 0 0 0 1024 0 0 0 0 0 0 0 0 0 0 0 0 0 0 0 0 0 0 0 0 0 0 0 0 0 0 0 0 0 0 16777216
is_linear=0
shrinkage=0.05


Tree=5
num_leaves=31
num_cat=0
split_feature=10 1 1 13 14 14 1 5 13 14 14 1 12 13 15 12 11 13 14 14 10 14 14 14 14 1 12 12 12 14
split_gain=698.022 239.705 199.289 127.425 118.888 251.323 115.326 130.824 170.812 126.459 147.751 125.417 142.882 179.611 152.033 145.563 117.166 108.019 120.641 118.897 105.967 94.5605 170.603 142.096 92.6131 87.0972 76.9977 73.4898 145.019 149.277
threshold=0.53571428571428581 1.3922864426767732 1.8810798862519273 4.3307498622169218 0.4400083347238683 0.39972991488118192 1.7937280031319449 0.0026070420807262919 1.6846833950585971 0.089915085075040382 0.1002262925643513 0.71710535151701471 1.5840821630426671 1.202929515711969 0.024796462775368646 0.018416589513933327 1.2224996910042509 0.34905107691492593 0.32270700124514357 0.31103300154289765 1.1071428571428574 0.52579596913235482 0.60380803466788346 0.66902205467647724 0.18935635241521295 3.741657386773944 0.99173062276006652 0.98388284852162411 1.0743115741582379 0.075216820371765317
decision_type=2 2 2 2 2 2 2 2 2 2 2 2 2 2 2 2 2 2 2 2 2 2 2 2 2 2 2 2 2 2
left_child=1 -1 17 6 5 24 7 8 26 16 -11 -12 13 14 -13 -16 27 18 19 -3 21 -17 -23 -24 25 -4 -2 -9 -29 -30
right_child=3 2 4 -5 -6 -7 -8 9 -10 10 11 12 -14 -15 15 20 -18 -19 -20 -21 -22 22 23 -25 -26 -27 -28 28 29 -31
leaf_value=0.051168026813228407 -0.042502940837954091 0.059317774943717788 0.04818680284947658 0.0443972605356803 0.063251339141199583 -0.11518090793372673 0.02443537548952758 -0.09327650275554264 -0.066985199064708983 -0.11885169318193632 -0.073549571887129322 -0.064251738353958698 0.020212019107702029 -0.097296694161569275 0.063722650420478477 -0.048460487548586853 0.027530275525899334 -0.036915020012530692 0.066078766626154528 -0.11336761736632012 0.060588154700813572 0.069015536634208993 -0.081115420299202837 0.029617203019940853 0.028494260872630125 -0.081004769972514254 0.063653920920040352 0.038627676701204691 -0.10448052843215057 0.074833823645745742
leaf_weight=527.3365533069591 20.529066392220557 16.738840179517865 19.650658790022135 71.60902877690387 158.73836923029739 35.070831243414432 116.79581380449235 38.516100597335026 46.251534203300253 55.430683051003143 179.89035581238568 197.77179863071069 132.19480464805383 103.73180549615063 55.569227664964274 252.34604145237245 154.78847722441424 263.96339199598879 63.871176282409579 24.641440352424979 35.942236064001918 58.584539709612727 69.820189217105508 49.519282189197838 570.2646831079619 38.814966512378305 101.70791289163753 64.975056175142527 53.621904163155705 14.812797136604784
leaf_count=2784 368 116 170 1029 328 185 429 131 254 106 1059 785 889 887 133 1035 563 1207 143 55 348 146 143 232 2657 44 384 251 135 22
internal_value=8.95776e-05 0.0231002 0.0106805 -0.0210143 0.0243793 0.0150836 -0.0236126 -0.026941 0.0148579 -0.0315819 -0.0391423 -0.0352507 -0.0280401 -0.035788 -0.0269208 -0.0127711 -0.00402611 -0.0198375 0.0229916 -0.0435142 -0.0218887 -0.0287783 -0.000863447 -0.0351675 0.0223498 -0.0375827 0.0458254 -0.032437 -0.0148723 -0.0656677
internal_weight=3593.5 1719.09 1191.75 1874.41 822.54 663.801 1802.8 1686 168.489 1517.52 1190.8 1135.37 955.48 823.285 719.553 521.782 326.714 369.215 105.251 41.3803 466.212 430.27 177.924 119.339 628.73 58.4656 122.237 171.926 133.41 68.4347
internal_count=17018 7689 4905 9329 3384 3056 8300 7871 1006 6865 5763 5657 4598 3709 2822 2037 1102 1521 314 171 1904 1556 521 375 2871 214 752 539 408 157
is_linear=0
shrinkage=0.05


Tree=6
num_leaves=31
num_cat=6
split_feature=16 16 16 14 14 0 15 14 14 11 15 14 15 12 14 14 12 16 12 16 14 14 15 16 14 14 15 14 14 12
split_gain=1739.3 521.246 180.552 62.4516 189.337 68.5904 111.429 140.632 61.978 73.9982 54.2775 53.4384 44.9637 62.87 42.6987 62.2349 104.869 42.242 56.3926 38.934 37.042 59.9068 45.6858 104.707 49.0576 52.2179 34.7195 31.8112 69.6119 47.1238
threshold=0 1 2 0.089915085075040382 0.10927504927993477 0.81649658092772603 0.83109515245743348 0.5299653053338268 0.34864338675767576 0.46880723093849536 0.035075382975527584 0.35081380857579586 0.01995140068886541 0.58471057523409953 0.24267616461191191 0.4400083347238683 0.0030913309838322971 3 4.7669413733052695 4 0.1855151505784253 0.18935635241521295 0.0088650760344632425 5 0.32504544269704527 0.24933666539632349 1.1337533216452036 0.32270700124514357 0.23521626471216753 1.2270055779063918
decision_type=9 9 9 2 2 2 2 2 2 2 2 2 2 2 2 2 2 9 2 9 2 2 2 9 2 2 2 2 2 2
left_child=14 12 3 -3 -5 26 7 -7 10 -10 20 -11 -2 -14 -1 16 -16 18 -13 -12 -4 -22 23 -23 25 -25 -6 28 29 -21
right_child=1 2 8 4 5 6 -8 -9 9 11 19 17 13 -15 15 -17 -18 -19 -20 27 21 22 -24 24 -26 -27 -28 -29 -30 -31
leaf_value=0.066409352550171552 -0.087378614040316188 0.00024446830517659051 0.059178771822262957 -0.11439462032039367 -0.021590879962079007 -0.051160047201128517 0.023849343547857348 0.0062616101621298798 -0.10973017459263326 -0.12771624322205402 0.044409406416533161 0.064756311918998527 -0.031324812821250186 -0.074262542214371216 0.052490752969911215 0.061731339268114277 -0.0051543927779723834 -0.012606309179669978 -0.054665800493004492 0.01348848776389467 -0.11347271413951704 -0.090024004229291701 0.054452000767971555 0.041962703428451473 0.05899015115410762 -0.016856959142410401 -0.0605191537763832 0.050479558659034751 -0.080613423153061858 -0.066845864394266014
leaf_weight=412.09620559215546 182.33019065856934 210.53072375059128 70.466329277143814 61.89069652557373 91.582714036107063 252.59157562255859 143.57567548751831 184.52156016230583 18.335129289131146 8.7192780552431923 23.046009346842766 44.851361572742462 143.65165615081787 209.70416641235352 210.48666906356812 317.86385631561279 126.20139741897583 204.83924694848247 12.680077552795408 89.083339085569605 8.2924011554568988 13.723633766174315 83.325864131562412 63.083545975852758 63.070888744900003 93.893083351198584 152.90921288728714 16.332584624527954 38.891757050645538 22.959663966088556
leaf_count=76 24 33 1295 8 19 35 20 31 205 54 25 115 20 28 35 54 20 7233 2 2034 16 2 572 1563 346 948 23 224 924 1034
internal_value=0.000110887 -0.0226254 -0.0105819 -0.0240184 -0.0300475 -0.0237212 -0.0143674 -0.0269202 0.00634234 -0.0125165 0.0157622 -0.0059415 -0.0659808 -0.0568068 0.0533018 0.0458639 0.0308835 -0.0018946 0.0327439 -0.00618108 0.0263118 0.0191941 0.0226635 0.0113327 0.0207999 0.00678065 -0.0459373 -0.0149147 -0.0229792 -0.00297349
internal_weight=3575.53 2508.88 1973.2 1097.6 887.071 825.181 580.689 437.113 875.594 289.425 586.169 271.09 535.686 353.356 1066.65 654.552 336.688 262.371 57.5314 190.313 395.856 325.389 317.097 233.771 220.048 156.977 244.492 167.267 150.935 112.043
internal_count=17018 16833 16761 169 136 128 86 66 16592 7609 8983 7404 72 48 185 109 55 7350 117 4241 4742 3447 3431 2859 2857 2511 42 4216 3992 3068
cat_boundaries=0 85 169 262 356 431 509
cat_threshold=0 0 0 0 0 32768 0 0 0 0 0 0 0 8192 262144 0 0 0 268435456 0 2048 0 0 1024 0 0 0 0 0 0 4456448 0 0 272629760 16777216 0 0 0 512 0 0 0 33554688 0 0 0 0 0 0 0 0 0 0 4 0 0 0 0 524288 0 0 512 0 0 0 0 4194304 4608 0 0 536870912 2155872768 0 0 67125248 0 0 135168 4194304 0 1073741824 256 0 0 1073741824 0 0 0 0 0 0 0 0 1073741824 16779264 0 512 0 0 0 0 0 0 0 0 0 0 0 0 66560 0 0 4 0 0 0 0 0 0 0 512 0 0 0 2048 4194304 0 0 0 0 0 0 0 0 0 0 0 0 0 0 0 0 0 0 0 0 0 0 128 0 0 0 0 536870912 0 0 0 0 0 0 0 0 0 0 0 0 0 0 1 0 0 0 8388608 536870913 0 0 0 0 0 0 0 32768 0 524288 32 0 0 0 256 1048576 0 134217728 0 0 0 0 67109128 0 0 32 0 0 0 0 4194304 8388608 2147483648 0 0 0 0 2 0 268435456 0 1024 0 0 0 0 4 0 0 0 4096 0 0 0 0 0 0 0 0 0 0 0 0 0 65536 4 0 0 536870912 0 0 0 16777216 1074266112 0 0 0 0 0 0 268435456 0 0 268435456 0 0 0 64 0 0 0 4096 0 0 0 0 0 0 131072 0 131072 0 4096 0 0 0 1 0 0 268435456 0 8388608 0 0 0 0 0 0 0 0 0 0 0 0 0 0 131072 0 0 0 0 0 0 0 0 0 0 0 0 0 0 0 2048 0 0 0 256 16 67108864 201328640 0 0 32 0 0 0 256 0 0 0 0 0 0 33554432 0 0 256 33554432 0 0 8388608 0 33554432 0 0 0 0 0 0 0 2 524288 0 0 0 0 0 0 0 0 0 268435456 0 0 0 0 4096 0 0 0 8 0 0 0 0 0 0 0 0 0 0 0 0 0 0 0 0 0 0 1073741824 0 0 0 0 0 0 0 0 0 0 0 0 0 0 0 0 0 0 0 0 0 0 0 0 0 0 0 0 65536 0 0 0 0 0 0 0 65536 0 0 0 0 0 0 0 0 0 0 0 0 0 0 0 0 0 0 0 0 0 0 0 0 0 0 0 0 0 0 0 0 0 0 0 0 0 0 0 0 0 0 0 536870912 0 0 0 0 0 0 0 0 0 0 0 0 0 0 0 0 0 0 0 0 0 0 0 0 0 0 0 0 0 0 0 0 0 16
is_linear=0
shrinkage=0.05


Tree=7
num_leaves=31
num_cat=8
split_feature=16 16 15 15 16 13 16 12 13 15 13 16 15 16 16 16 13 13 13 15 15 13 15 15 13 1 13 12 12 15
split_gain=1604.1 464.174 180.7 130.287 107.997 121.517 63.8842 50.3184 49.0339 48.8915 60.2774 86.558 42.4935 236.09 230.022 78.3726 61.2711 124.034 98.7791 48.5804 42.7274 38.3918 40.1532 33.0665 43.3177 30.5398 27.8049 100.224 84.5633 51.3029
threshold=0 1 0.01894905012905496 0.021564444586619932 2 0.37191881445810909 3 0.013189634783583816 0.66010540716848831 0.012357328091671478 0.18640868390269807 4 0.9209380966768913 5 6 7 0.95975349616755767 0.75242521530507422 0.71796178005224431 0.031539085740514221 0.039875672096649294 0.19654973536611339 0.011588649850322645 0.0095141775172105144 0.50662073630465476 1.0377490433255441 4.3307498622169218 4.5787005473752274 7.4536170822560752 1.1969939986343607
decision_type=9 9 2 2 9 2 9 2 2 2 2 9 2 9 9 9 2 2 2 2 2 2 2 2 2 2 2 2 2 2
left_child=23 8 4 -4 5 -3 -5 -8 -2 10 -6 -12 13 -9 -14 -16 17 18 19 -15 -21 -13 -23 -1 -25 -26 27 29 -28 -17
right_child=1 2 3 6 9 -7 7 12 -10 -11 11 21 14 16 15 26 -18 -19 -20 20 -22 22 -24 24 25 -27 28 -29 -30 -31
leaf_value=0.060266953246398483 -0.051687648175495295 0.0098218208985743558 -0.10445612582372515 0.0091801979610513489 0.058122241623646057 -0.074660643269934643 0.043075263715101147 -0.084834607458873459 -0.083478042029631508 0.05411597106957336 -0.085847301446513161 -0.084877182878222934 0.044451766365032286 -0.08829885472630275 -0.073730438233639631 -0.027918695207413958 0.027775363998585774 -0.099058979074485271 0.068818491960344549 0.054703464124545888 -0.028792177041499924 0.018798623507986348 -0.073685172272536556 0.016923797218197444 0.034503216548170609 0.065737895700003199 0.070309456583479021 -0.10930004304328689 -0.10300642174447082 0.015530405189243857
leaf_weight=598.49902480840683 268.44285535812378 104.71090748906136 45.783397881314158 178.24569177627563 66.344029717380181 71.716111198067665 27.933695116080344 151.33265924453735 221.2808837890625 94.662144862813875 14.147025108337401 9.8252694089896959 117.13697004318237 24.154798427131027 83.399723052978516 303.6646660300903 84.742801467189565 42.023648362839594 37.12474278267473 20.582543669035658 59.95123619644437 320.23814435431268 12.182713727001099 122.28662633895874 140.11108589172363 177.27547931671143 24.898384847445413 32.714073115377687 9.8112463504075986 87.520244663348421
leaf_count=111 36 31 251 46 1247 27 283 20 29 694 2 48 17 330 11 2330 1903 423 105 225 674 5218 147 20 23 31 334 207 506 1689
internal_value=0.000122222 -0.0214662 -0.0107358 -0.021573 0.00989921 -0.0232044 -0.0186205 -0.0229723 -0.0647303 0.0212254 0.0143624 0.00621632 -0.024895 -0.0373264 -0.0169755 -0.0305082 -0.0071334 -0.0236132 -0.00125632 -0.0261063 -0.00745265 0.0121745 0.0154092 0.0521167 0.0422076 0.0519493 -0.0212424 -0.0252285 0.0213189 -0.0181978
internal_weight=3552.74 2514.57 2024.85 1331.02 693.826 176.427 1285.24 1106.99 489.724 517.399 422.737 356.393 1079.06 419.912 659.145 542.008 268.58 183.837 141.813 104.689 80.5338 342.246 332.421 1038.17 439.673 317.387 458.609 423.899 34.7096 391.185
internal_count=17018 16833 16768 9354 7414 58 9103 9057 65 7356 6662 5415 8774 3680 5094 5077 3660 1757 1334 1229 899 5413 5365 185 74 54 5066 4226 840 4019
cat_boundaries=0 85 169 255 345 423 493 563 642
cat_threshold=0 0 0 0 0 32768 0 0 0 0 0 0 0 8192 262144 0 0 0 268435456 0 2048 0 0 1024 0 0 0 0 0 0 4194304 0 0 272629760 16777216 0 0 0 512 0 0 0 33554688 0 0 0 0 0 0 0 0 0 0 4 0 0 0 0 524288 0 0 512 0 0 0 0 4259840 4608 0 0 536870912 2155872768 0 0 67125248 0 0 135168 4194304 0 1073741824 256 0 0 1073741824 0 0 0 0 0 0 0 0 1073741824 16779264 0 512 0 0 0 0 0 0 0 0 0 0 0 0 66560 0 0 4 0 0 0 0 0 0 0 512 0 0 0 0 4194304 0 0 0 0 0 0 0 0 0 0 0 0 0 0 0 0 0 0 0 0 0 0 128 0 0 0 0 536870912 0 0 0 0 0 0 0 0 0 0 0 0 0 0 1 0 0 0 0 536870912 0 0 0 0 0 0 0 0 0 32 0 0 0 0 0 0 0 0 0 0 0 0 8 0 0 32 0 0 0 0 0 0 0 0 0 0 0 0 0 0 0 0 0 0 0 0 0 0 69632 0 0 0 0 0 0 0 0 0 0 0 65536 0 0 0 0 0 0 32 0 0 0 0 0 524288 0 0 262144 0 0 0 268435456 0 0 0 0 536870912 0 0 0 0 0 0 0 0 0 4096 0 0 0 0 0 0 0 0 8388608 0 0 0 0 0 0 262144 0 0 0 0 0 0 0 0 0 0 0 0 0 0 0 0 0 0 0 0 536870912 0 0 0 0 0 0 0 0 0 0 0 0 0 0 0 0 4194304 0 0 0 0 0 65536 0 0 0 256 0 0 0 0 0 0 0 0 0 0 524288 0 0 0 0 0 0 0 0 0 0 0 0 0 0 0 0 0 0 0 0 0 0 0 0 0 0 0 0 0 0 0 0 0 0 0 0 0 0 0 0 0 0 0 536870912 0 0 0 0 0 0 0 0 0 0 0 0 0 0 0 0 0 0 0 0 0 0 0 0 0 0 0 0 0 0 0 0 0 16 0 0 0 0 0 0 0 0 0 0 0 0 0 0 524288 0 0 0 0 0 1048576 0 0 0 0 0 0 67108864 0 0 0 0 0 0 0 0 0 0 0 2048 0 0 0 0 0 0 1024 0 0 0 0 0 0 0 0 4096 0 0 0 0 0 0 0 0 0 0 0 0 0 65536 0 0 0 0 0 0 0 0 0 0 0 0 0 0 524288 0 0 0 0 0 0 0 0 0 0 0 0 67108864 0 0 0 0 0 0 0 0 0 0 0 2048 0 0 0 0 0 0 0 0 0 0 0 0 0 0 0 4096 0 0 0 0 0 0 0 0 0 0 0 0 0 65536 0 0 0 8388608 0 0 0 0 0 0 0 0 0 0 0 0 0 0 0 0 0 0 0 0 0 0 0 0 0 0 0 0 0 0 0 0 8388608 0 0 0 0 0 0 0 0 0 0 0 0 0 0 0 0 0 0 0 0 0 0 0 0 0 0 0 0 0 0 0 0 0 0 0 0 536870912 0 0 0 0 1073741824
is_linear=0
shrinkage=0.05


Tree=8
num_leaves=31
num_cat=0
split_feature=10 1 1 14 14 13 14 0 14 1 15 15 5 14 14 14 14 14 15 15 14 14 12 12 13 13 5 12 13 12
split_gain=528.539 206.011 152.119 105.593 207.971 101.074 92.3921 111.622 118.011 114.394 111.876 134.571 114.513 88.746 83.6124 83.6766 98.4654 75.5792 66.0716 95.9252 77.5019 85.3314 65.9117 73.1428 135.552 151.912 90.4891 82.4837 92.4754 76.4899
threshold=0.53571428571428581 1.3922864426767732 1.8810798862519273 0.4400083347238683 0.39972991488118192 4.3307498622169218 0.0088697035103638706 0.81649658092772082 0.77022748950903008 0.77349246815376194 1.1222339078273871 1.0447425489400124 0.02312346619277313 0.013024041715539615 0.34651647282067605 0.32270700124514357 0.31103300154289765 0.18935635241521295 0.01054539121131247 0.011342003395030541 0.37862869564769058 0.42167525479938089 2.2899911556955734 1.0743115741582379 0.98307189713192222 1.202929515711969 0.13452802226053293 1.0929270530887034 0.94965675050530207 0.0068701113178907267
decision_type=2 2 2 2 2 2 2 2 2 2 2 2 2 2 2 2 2 2 2 2 2 2 2 2 2 2 2 2 2 2
left_child=1 18 14 4 17 6 -2 10 9 -9 11 12 -8 -11 15 16 -3 -4 -1 -20 -21 -22 23 24 26 -26 29 28 -25 -15
right_child=5 2 3 -5 -6 -7 7 8 -10 13 -12 -13 -14 22 -16 -17 -18 -19 19 20 21 -23 -24 27 25 -27 -28 -29 -30 -31
leaf_value=0.056653192997455984 0.066585734054606882 0.054478550101106797 -0.034433025252014651 0.060184093731745485 -0.10328825754175411 0.041697193091365443 0.049172740139145507 0.041697016041335438 0.040038854395949924 -0.14470183251262847 -0.071204891717211102 0.062716340349787111 -0.05134678406507362 -0.06822942779951599 -0.033855024660491666 0.046256765737605357 -0.10290935013976457 0.025685917122280501 -0.17271882589430188 0.062471225033228286 -0.11272125912287967 0.048353149014857884 0.038527070894387921 0.062502195535471525 0.063038451453107894 -0.091202557242027971 -0.04563122792211443 -0.031937343853862342 -0.12660022530206358 -0.00048817365680785941
leaf_weight=400.11031767120585 30.104883968830109 16.386241525411606 57.792003195616417 145.31927655765321 36.284206915646791 68.274673309351783 33.205834168940783 74.300887939985842 92.868306221906096 14.62476148479618 198.5955217697192 40.163971032481641 193.08360480586998 47.219373228028417 247.94318322651088 80.938209849409759 25.251708710566163 547.92977599217556 6.6969636231660834 51.091878172010183 17.233472212217748 15.724957854487 45.044713298324496 7.5119305504485956 91.362861752510071 19.343470042571425 275.97087677614763 245.33644225308672 46.390213394537568 354.66620937967673
leaf_count=2450 122 141 214 328 185 1029 463 232 725 39 1031 320 860 349 1172 149 59 2657 21 94 73 146 181 38 396 182 489 960 104 1809
internal_value=0.000113063 0.0207718 0.00926392 0.0216966 0.0129849 -0.0180227 -0.0202756 -0.0217449 -0.0142973 -0.0184274 -0.0427986 -0.0216265 -0.0365965 -0.0223206 -0.0171546 0.0166264 -0.0409708 0.01995 0.0479169 0.00939811 0.0239088 -0.0358703 -0.0207407 -0.0231949 -0.0152081 0.0360883 -0.0235858 -0.0442419 -0.100246 -0.0084474
internal_weight=3526.77 1648.7 1157.84 787.325 642.006 1878.07 1809.79 1779.69 1314.64 1221.77 465.049 266.453 226.289 1147.47 370.519 122.576 41.638 605.722 490.858 90.7473 84.0503 32.9584 1132.85 1087.8 788.563 110.706 677.856 299.239 53.9021 401.886
internal_count=17018 7689 4905 3384 3056 9329 8300 8178 5504 4779 2674 1643 1323 4547 1521 349 200 2871 2784 334 313 219 4508 4327 3225 578 2647 1102 142 2158
is_linear=0
shrinkage=0.05


Tree=9
num_leaves=31
num_cat=0
split_feature=15 5 15 1 0 15 13 13 15 15 11 14 0 5 1 15 12 14 14 12 15 14 13 11 5 14 15 11 14 14
split_gain=460.31 260.305 160.241 153.103 116.485 92.1185 149.779 111.812 116.673 111.931 91.1028 87.7516 95.4149 148.586 115.429 157.221 127.794 94.8489 84.0236 103.687 94.2441 79.2849 119.356 87.0172 78.5766 91.9322 76.8677 73.6503 70.6818 187.318
threshold=0.015780311206662217 0.40782571382903993 1.6955314914466439 1.3008872711759814 2.6457513110645765 0.024211508490131536 0.74421171700212962 0.75242521530507422 0.79001588282522717 0.86755186352572733 0.63332369377664965 0.0088697035103638706 0.89069261439248781 0.14182605966406811 0.85574978370297972 1.0677458568594471 1.5840821630426671 0.016751011819986009 0.2141278314564653 0.070475203923342403 0.037886013639167083 0.4400083347238683 0.80727742257674051 2.4348647470335876 0.20029304029304032 0.53360891029481328 0.023389682644908861 0.7449463436684961 0.038619321962420357 0.080461581512776784
decision_type=2 2 2 2 2 2 2 2 2 2 2 2 2 2 2 2 2 2 2 2 2 2 2 2 2 2 2 2 2 2
left_child=1 3 5 -1 -5 6 10 18 21 -10 26 -11 28 14 -14 16 -16 -18 -7 20 -20 -9 -23 -24 25 27 -2 -22 -13 -30
right_child=2 -3 -4 4 -6 7 -8 8 9 11 -12 12 13 -15 15 -17 17 -19 19 -21 24 22 23 -25 -26 -27 -28 -29 29 -31
leaf_value=0.054358880838272929 0.056628245992420424 -0.1041057275547612 0.05977554727204596 0.0049491691173467588 0.040371356183290533 -0.068854296769318465 0.060713576039245036 -0.092028148472493992 0.042793321620186932 0.06534006716612302 -0.082157078612910439 -0.090689323107686848 0.049748073705616867 -0.050736273499980583 -0.10162423462086241 0.023269133952409933 -0.13065069840678048 0.074941825165966106 0.020865325960580314 0.050086770719789245 -0.017558129409525346 -0.12062958911621979 0.033430393257449849 -0.092453260653618516 -0.11488992688720821 0.038146703909157073 -0.12577397154929018 -0.12329566677995019 0.044794213219647105 -0.046093121238955842
leaf_weight=338.92140664265025 23.523061492480341 40.131244559306651 68.768867718055844 752.53520298388321 335.59231514204293 34.872017110697925 26.854483293835074 90.306027703685686 76.192590360646136 29.186576777254231 148.79569134954363 57.262393295881338 120.85254165891092 140.0576148777036 62.613450139760971 137.8642400969984 7.4657963593490448 22.56776465033181 184.63155685411766 127.01619128044695 53.194507266976871 25.813096693716943 58.258042514091358 17.960110216052271 24.280485556460917 47.498106889426708 7.6557932542636982 23.853383269160986 67.558535635238513 352.41274884325685
leaf_count=2482 145 62 250 3282 1439 235 131 362 588 115 482 210 316 292 463 658 4 78 663 522 207 106 510 267 62 180 7 61 303 2536
internal_value=0.000128651 0.0214822 -0.0152492 0.0250139 0.0158738 -0.0178701 -0.0494371 -0.0141641 -0.0220421 -0.0156197 -0.0658729 -0.02008 -0.0226538 -0.0071894 0.0101689 -0.0105817 -0.0609538 0.0238353 0.0059765 0.0116435 -0.00299979 -0.0579056 -0.0277043 0.00376706 -0.0326064 -0.0165651 0.0118404 -0.0502936 -0.0385779 -0.0314726
internal_weight=3504.5 1467.18 2037.32 1427.05 1088.13 1968.55 206.829 1761.72 1266.37 1074.03 179.975 997.842 968.655 491.421 351.364 230.511 92.647 30.0336 495.346 460.474 333.458 192.337 102.031 76.2182 148.826 124.546 31.1789 77.0479 477.234 419.971
internal_count=17018 7265 9753 7203 4721 9503 765 8738 6808 5563 634 4975 4860 1811 1519 1203 545 82 1930 1695 1173 1245 883 777 510 448 152 268 3049 2839
is_linear=0
shrinkage=0.05


Tree=10
num_leaves=31
num_cat=8
split_feature=16 16 13 16 14 14 15 14 14 14 14 16 14 16 14 13 13 13 12 14 16 15 0 14 16 14 12 13 16 14
split_gain=1331.45 372.553 155.192 73.3623 58.165 84.7751 76.7678 48.7848 47.5706 63.2348 46.2527 155.624 117.779 109.061 84.3428 67.0977 80.7431 77.7231 65.9328 65.7037 56.8982 58.2736 73.316 81.5753 55.9618 44.2018 64.7675 41.7839 82.1943 43.5763
threshold=0 1 0.38533142726568326 2 0.22260608603867962 0.59779987428289894 0.01995140068886541 0.26839775326126358 0.0088697035103638706 0.021461089730238362 0.089915085075040382 3 0.10927504927993477 4 0.18935635241521295 1.0717528830517866 0.91380309469582599 0.99371521913790994 1.0525066032413355 0.084860032950064959 5 0.11504558644628531 1.3316656236958833 0.62753533775261527 6 0.46254536732945634 0.0030913309838322971 0.18640868390269807 7 0.18935635241521295
decision_type=9 9 2 9 2 2 2 2 2 2 2 9 2 9 2 2 2 2 2 2 9 2 2 2 9 2 2 2 9 2
left_child=7 4 27 -4 -2 6 -6 -1 -5 -10 13 -12 -13 -11 -14 16 -15 -18 -19 -20 -16 24 -23 -24 -22 26 -9 -3 -29 -30
right_child=1 2 3 8 5 -7 -8 25 9 10 11 12 14 15 20 -17 17 18 19 -21 21 22 23 -25 -26 -27 -28 28 29 -31
leaf_value=0.06359110361179543 -0.069851547484044776 0.053680849773451417 -0.082212157229336086 0.059600237159855046 -0.051471942628434388 -0.069560819534463969 -0.0066054024359906861 0.054116771309007439 -0.10603469087972568 -0.059741264336682226 -0.050863769538430963 -0.092841966536303999 0.049337123853511126 0.065299038372724591 0.017100186879881931 0.06207393780071041 -0.12162016735873858 0.060851500236169337 -0.11046214355693587 0.072949215379728469 0.053385352657691898 -0.015672415895100045 -0.10419715347535359 0.056380815397693788 -0.010775956332414807 0.057221909259925402 0.0094739541840821052 -0.078655775856184149 -0.091947929320253308 0.0181062515281031
leaf_weight=399.30751609802246 223.51039361953735 65.993841005023569 31.219478607177734 21.814199472311884 173.08598470687866 165.31266510486603 212.25410652160645 144.13102960586548 18.73754824930802 38.263828277587891 252.23976516723633 36.35309828678146 75.427561749937013 30.941542241023853 166.42324585467577 74.612400484271348 17.870089317206293 23.206515255384147 16.938989211805168 6.8605456911027423 31.895879745483398 133.33907308787457 54.458175539970398 9.2529244486941007 170.24191521730972 237.82261562347412 186.20595169067383 14.706645488739012 9.1824404047802073 439.46725368115585
leaf_count=76 29 1303 4 124 23 26 29 26 185 5 33 243 1020 130 46 523 160 100 70 4 5 4118 513 179 3837 45 31 2 39 4090
internal_value=0.000141362 -0.0190493 -0.00608767 -0.0160005 -0.0477234 -0.0396082 -0.0267584 0.0496846 -0.0134357 -0.0149288 -0.0134291 -0.0182045 -0.00521528 0.00784277 -0.000327356 0.0250517 -0.00116267 -0.0328604 0.000882985 -0.0575913 -0.00695041 -0.0169802 -0.0367543 -0.080876 0.00145617 0.0407855 0.0289523 0.0164581 0.0111566 0.0155081
internal_weight=3481.08 2513.61 1739.45 1210.1 774.163 550.653 385.34 967.467 1178.88 1157.06 1138.33 929.632 677.392 208.694 641.039 170.43 95.8177 64.8761 47.0061 23.7995 565.611 399.188 197.05 63.7111 202.138 568.16 330.337 529.35 463.356 448.65
internal_count=17018 16840 16733 11299 107 78 52 178 11295 11171 10986 9994 9961 992 9718 987 464 334 174 74 8698 8652 4810 692 3842 102 57 5434 4131 4129
cat_boundaries=0 85 171 218 289 378 471 484 577
cat_threshold=0 0 0 0 0 32768 0 0 0 0 0 0 0 8192 262144 0 0 0 268435456 0 2048 0 0 1024 0 0 0 0 0 0 4456448 0 0 272629760 16777216 0 0 0 512 0 0 0 33554688 0 0 0 0 0 0 0 0 0 0 4 0 0 0 0 524288 0 0 512 0 0 0 0 4259840 4608 0 0 536870912 2155872768 0 0 67108864 0 0 135168 4194304 0 0 256 0 0 1073741824 0 0 0 0 0 0 0 0 1073741824 16779264 0 512 0 0 0 32 0 0 0 0 0 0 0 0 66560 0 0 4 0 0 32 0 0 0 0 512 8388608 0 0 2048 4194304 0 0 0 0 0 0 0 0 0 0 0 0 0 0 0 0 0 0 0 0 0 0 128 0 0 0 0 536870912 0 0 0 0 536870912 0 0 0 0 1073741824 0 0 0 0 1 0 268435456 0 0 0 0 0 0 0 0 0 0 0 0 0 0 0 0 0 0 0 0 0 0 0 0 0 0 0 8 0 0 0 0 0 0 0 0 0 0 0 0 0 0 0 0 0 0 1024 0 0 0 0 0 0 0 0 0 0 0 0 0 0 524288 0 0 0 0 0 1048576 0 134217728 0 0 0 0 67108864 0 0 0 0 0 0 0 4194304 0 0 0 0 0 0 0 0 268435456 0 0 0 0 0 0 0 0 65536 0 4096 0 0 0 0 0 0 0 0 0 0 0 0 0 65536 4 0 0 0 8388608 0 0 0 0 0 0 0 0 0 0 0 0 0 0 0 0 0 0 0 0 0 0 0 0 0 0 0 0 0 0 0 0 0 0 0 0 0 0 0 0 0 0 0 0 0 0 0 4 0 0 0 0 0 0 0 0 0 0 0 0 0 0 0 0 0 0 0 0 0 0 0 0 0 0 0 0 0 0 0 0 0 0 0 0 268435456 0 0 0 8388608 0 0 0 0 0 0 0 0 131072 0 4096 0 0 0 8 256 0 268435456 0 8388608 0 0 0 256 0 0 0 0 0 0 0 0 0 0 0 0 0 0 0 0 0 0 0 0 0 0 0 0 0 0 0 0 0 0 0 0 0 0 0 0 0 0 0 0 4194304 0 0 0 0 0 0 0 0 0 256 0 0 0 0 0 0 0 0 0 0 0 0 0 64 0 0 0 0 1 0 0 0 0 0 0 0 32768 0 0 0 0 0 0 0 0 0 0 0 0 0 0 0 0 0 0 0 0 0 0 0 0 0 0 0 0 0 0 0 0 0 0 0 0 0 0 0 0 0 0 0 536870912 0 0 0 0 0 0 0 0 0 0 0 0 0 0 0 0 0 0 0 0 0 0 0 0 0 0 0 0 0 0 0 0 0 0 0 0 0 0 0 0 0 0 0 0 0 0 0 0 64
is_linear=0
shrinkage=0.05


Tree=11
num_leaves=31
num_cat=6
split_feature=16 16 12 14 16 14 14 14 14 14 12 12 1 14 12 5 14 16 16 14 14 14 12 16 10 0 1 12 12 14
split_gain=1236.49 334.5 99.2547 62.8122 85.1844 53.8429 81.6728 48.6779 47.4171 50.736 47.2208 54.5915 52.8466 43.1331 61.6332 38.8133 38.4279 136.435 119.699 79.6164 79.7762 49.2573 46.4504 108.206 43.3336 47.1824 42.1653 40.5195 45.1772 39.3632
threshold=0 1 0.01412045936557549 0.34864338675767576 2 0.57785635447501671 0.22260608603867962 0.26839775326126358 0.0088697035103638706 0.021461089730238362 1.0000000180025095e-35 0.00087407615890167112 1.6408253082847339 0.46254536732945634 0.0030913309838322971 0.15012894619831038 0.089915085075040382 3 4 0.10927504927993477 0.18935635241521295 0.065902330489896258 0.017009574519814556 5 1.392857142857143 0.81649658092772603 1.3096181562194817 1.082489455482468 0.96019065752919552 0.32270700124514357
decision_type=9 9 2 2 9 2 2 2 2 2 2 2 2 2 2 2 2 9 9 2 2 2 2 9 2 2 2 2 2 2
left_child=7 5 3 -3 -5 6 -2 -1 -4 -10 12 -12 -6 14 -9 -13 17 -11 -18 -20 -21 24 26 -24 25 -19 -22 28 -27 -28
right_child=1 2 8 4 10 -7 -8 13 9 16 11 15 -14 -15 -16 -17 18 21 19 20 22 -23 23 -25 -26 27 29 -29 -30 -31
leaf_value=0.062760883702986991 -0.06417860373799493 0.020204554055413437 0.05793515514559773 0.050636834827379178 -0.09598794030491789 -0.072899201615058848 -0.025306032338430047 0.053000479693470583 -0.097894967859655971 -0.065256259324797228 0.064773562631542977 -0.0045253716248449347 0.015615048877178654 0.056235540697577205 0.0090412576581890263 -0.05832327304723875 -0.043922272593163413 0.047392982344538689 -0.085773100595705143 0.047502298659514032 -0.097155365136573787 0.062974949915179226 0.033235735314395186 -0.02330865785758646 0.058310762821571521 -0.10846276514048725 -0.097845064351708852 -0.10294827950316199 0.017312296194364678 0.035154219809291759
leaf_weight=387.33761256933212 217.03414297103882 427.41095404583029 21.288905764231458 38.923909977078438 37.816320857207756 158.39799734950066 358.0293140411377 139.91588687896729 19.235532562015578 46.229336261749268 21.089404001832008 110.46490602847189 14.742522972868754 230.09100580215454 185.38307046890259 48.136211861274205 324.17494821548462 23.267198386602104 28.688547734869644 74.43804988975171 26.484340211376548 57.695530653116293 125.41489315032959 215.71693582664011 29.121113516855985 9.1637709450442326 8.162466741283426 16.578448405489326 32.32106008939445 17.470956926234066
leaf_count=82 28 4786 125 18 318 25 48 26 187 6 178 1810 443 45 31 353 43 145 244 1031 119 312 19 5834 251 81 14 49 154 213
internal_value=0.000124561 -0.0182367 -0.00637574 0.00826239 -0.0105603 -0.0464534 -0.0399769 0.04864 -0.0159435 -0.0174355 -0.0220476 -0.0108037 -0.0646838 0.0396676 0.0279488 -0.0208533 -0.0159401 0.00290953 -0.0208647 -0.00482418 3.81841e-05 0.0240983 -0.00894628 -0.00222948 0.00597255 -0.0127676 -0.0529105 -0.0368753 -0.0104707 -0.00719682
internal_weight=3450.23 2507.5 1774.04 698.584 271.173 733.461 575.063 942.728 1075.45 1054.16 232.249 179.691 52.5588 555.39 325.299 158.601 1034.93 214.376 820.551 496.376 467.688 168.147 393.25 341.132 110.452 81.3305 52.1178 58.0633 41.4848 25.6334
internal_count=17018 16834 16733 7906 3120 101 76 184 8827 8702 3102 2341 761 102 57 2163 8515 998 7517 7474 7230 992 6199 5853 680 429 346 284 235 227
cat_boundaries=0 85 171 253 342 413 492
cat_threshold=0 0 0 0 0 32768 0 0 0 0 0 0 0 8192 262144 0 0 0 268435456 0 2048 0 0 1024 0 0 0 0 0 0 4456448 0 0 272629760 16777216 0 0 0 512 0 0 0 33554688 0 0 0 0 0 0 0 0 0 0 4 0 0 0 0 524288 0 0 512 0 0 0 0 4259840 4608 0 0 536870912 2155872768 0 0 67125248 0 0 135168 4194304 0 0 256 0 0 1073741824 0 0 0 0 0 0 0 0 1073741824 16779264 0 512 0 0 0 32 0 0 0 0 0 0 0 0 66560 0 0 4 0 0 32 0 0 0 0 512 0 0 0 2048 4194304 0 0 0 0 0 0 0 0 0 0 0 0 0 0 0 0 0 0 0 0 0 0 128 0 0 0 0 536870912 0 0 0 0 536870912 0 0 0 0 1073741824 0 0 0 0 1 0 268435456 0 0 0 0 1 0 0 0 0 0 0 0 0 0 32 0 0 0 0 0 0 0 0 0 0 0 0 256 0 0 0 0 0 0 0 0 0 0 0 0 0 0 0 0 0 0 1024 0 0 0 0 0 0 0 0 0 0 0 0 0 0 0 0 0 0 0 0 0 4194304 0 0 0 0 0 0 0 0 0 0 0 0 262144 0 0 0 8388608 0 0 0 0 0 0 0 0 0 0 0 0 0 0 0 0 0 0 0 0 0 0 0 0 0 0 0 0 0 0 0 0 8388608 0 0 0 0 0 0 0 0 0 0 0 0 0 0 4 0 0 0 0 0 0 0 0 0 0 0 0 0 0 0 0 0 0 0 0 0 0 0 0 0 0 0 0 0 0 0 0 0 0 0 0 268435456 0 0 0 0 1 0 0 0 0 0 0 0 0 0 524288 0 0 0 0 0 1048576 0 134217728 0 0 0 0 67109120 0 0 0 0 0 0 0 4194304 0 0 0 0 0 0 0 0 268435456 0 1024 0 0 0 0 0 0 0 0 4096 0 0 0 0 0 0 0 0 0 0 0 0 0 65536 4 0 0 0 8388608 536870912 0 0 0 0 0 0 0 0 0 0 0 0 0 0 256 0 0 0 8388608 0 0 0 0 0 0 0 0 0 0 0 0 8388608 0 0 0 0 0 0 0 0 0 0 0 0 0 0 0 0 0 0 0 0 0 0 0 0 0 0 0 0 0 0 0 4194304 0 0 0 0 0 0 0 0 0 256
is_linear=0
shrinkage=0.05


Tree=12
num_leaves=31
num_cat=8
split_feature=16 16 15 15 15 16 15 14 14 13 12 16 14 16 14 16 14 16 13 13 13 13 12 12 2 16 14 14 14 13
split_gain=1146.15 317.441 119.411 97.297 94.7468 117.972 56.75 42.173 75.487 40.47 48.66 57.408 45.2328 38.7158 37.8691 128.405 109.812 112.168 55.4861 56.1769 69.9764 55.9794 50.8665 50.2232 107.098 84.1132 49.4905 70.0994 65.7755 39.7271
threshold=0 1 0.01894905012905496 0.021564444586619932 0.01054539121131247 2 0.0095141775172105144 0.0088697035103638706 0.021461089730238362 0.18640868390269807 0.0019803164707137282 3 0.18935635241521295 4 0.089915085075040382 5 0.10927504927993477 6 1.0717528830517866 0.91380309469582599 0.99371521913790994 1.019089285112013 0.01412045936557549 1.5840821630426671 4.9757917835712364 7 0.35276762437477455 0.40312067598188461 0.16846099325812405 4.3307498622169218
decision_type=9 9 2 2 2 9 2 2 2 2 2 9 2 9 2 9 2 9 2 2 2 2 2 2 2 9 2 2 2 2
left_child=-1 -2 4 -4 5 -3 9 -5 -9 -7 11 -11 -13 -10 15 -15 -16 -18 19 -17 -21 -22 -19 25 26 -24 28 -28 -25 -29
right_child=1 2 3 7 -6 6 -8 8 13 10 -12 12 -14 14 16 18 17 22 -20 20 21 -23 23 24 -26 -27 27 29 -30 -31
leaf_value=0.049875024106186341 -0.052004048325360486 -0.042882601966818049 -0.087058511062070382 0.056517909798060408 0.044418225439182321 0.052886656786133093 -0.086121657759483439 -0.097603755590732491 0.0062286546987069223 -0.025670363017190834 0.04358854745155577 -0.09450380158921684 0.022760185271392841 -0.062256121647269139 -0.08764085183328936 0.060427308661026614 0.019219363539837955 0.037568076775121681 0.059294228877053413 -0.11002357062811358 0.059145071289382345 -0.082493517657973747 -0.074269783811661813 -0.086826176290121307 0.075200877581558523 -0.020892521853122292 -0.10304000891947025 -0.038477045018491952 0.059622888938257672 0.024225605711023473
leaf_weight=856.21741217374802 500.32457780838013 119.69851684570312 47.51068755146116 20.745477653690614 145.79376063565724 58.957442756858654 14.533791079185901 27.293395364657044 207.20115430653095 123.91541004180908 78.857846941333264 8.6124022547155601 182.17821798124351 46.508459091186523 59.499597663991153 23.887630522949621 163.25863121449947 28.917931312695146 70.683341245749034 18.485738514922559 21.168467670213435 10.404857188463209 123.27567577362061 10.188702418352475 30.406651880359277 229.70887977920938 32.976396810961887 91.613812556606717 30.979343729559332 34.878497381258057
leaf_count=174 65 16 251 125 1048 1239 244 188 45 19 960 16 3883 6 247 134 29 378 521 160 53 119 16 174 176 4103 131 1107 555 836
internal_value=0.000129937 -0.0166216 -0.00782739 -0.0167962 0.00834434 -0.000619127 0.0108971 -0.0141924 -0.0153554 0.0142539 0.0084666 -0.000334128 0.0165969 -0.0135363 -0.0174157 0.00249239 -0.0221773 -0.0171593 0.0258319 -0.00266036 -0.0327651 0.0124687 -0.0267263 -0.0303674 -0.0122441 -0.0422298 -0.0254965 -0.0381138 0.0233781 -0.0211877
internal_weight=3418.68 2562.47 2062.14 1329.59 732.547 586.754 467.055 1282.08 1261.34 452.521 393.564 314.706 190.791 1234.04 1026.84 191.138 835.704 776.205 144.63 73.9467 50.0591 31.5733 612.946 584.028 231.043 352.985 200.637 159.469 41.168 126.492
internal_count=17018 16844 16779 9354 7425 6377 6361 9103 8978 6117 4878 3918 3899 8790 8745 993 7752 7505 987 466 332 172 7476 7098 2979 4119 2803 2074 729 1943
cat_boundaries=0 85 169 255 337 427 516 605 675
cat_threshold=0 0 0 0 0 32768 0 0 0 0 0 0 0 8192 262144 0 0 0 268435456 0 2048 0 0 1024 0 0 0 0 0 0 4194304 0 0 272629760 16777216 0 0 0 512 0 0 0 33554688 0 0 0 0 0 0 0 0 0 0 0 0 0 0 0 524288 0 0 512 0 0 0 0 4259840 4608 0 0 536870912 2155872256 0 0 67125248 0 0 135168 4194304 0 1073741824 256 0 0 1073741824 0 0 0 0 0 0 0 0 1073741824 16779264 0 512 0 0 0 0 0 0 0 0 0 0 0 0 66560 0 0 4 0 0 0 0 0 0 0 512 0 0 0 0 4194304 0 0 0 0 0 0 0 0 0 0 0 0 0 0 0 0 0 0 0 0 0 0 128 0 0 0 0 536870912 0 0 0 0 0 0 0 0 0 0 0 0 0 0 1 0 0 0 0 536870912 0 0 0 0 0 0 0 0 0 0 0 0 0 0 0 0 0 0 0 0 0 0 8 0 0 32 0 0 0 0 0 0 0 0 0 0 0 0 0 0 0 0 0 0 0 0 0 0 0 0 0 0 0 0 0 0 0 0 0 0 0 0 0 0 0 0 0 0 0 0 0 0 16 0 0 0 0 0 0 0 268435456 0 0 0 0 0 0 0 0 0 0 0 0 0 0 0 0 0 0 0 0 0 0 0 0 0 0 0 0 0 0 0 0 0 0 0 0 0 0 0 0 0 0 0 536870912 0 0 0 0 2097152 0 0 0 0 65536 0 0 0 0 0 0 0 0 0 0 0 0 0 0 256 1073741824 0 0 0 0 0 0 0 0 0 0 0 128 0 0 0 0 536870912 0 0 0 0 0 0 0 0 0 4096 0 0 0 0 256 0 0 0 8388608 0 0 0 0 0 0 262144 0 0 0 0 0 0 0 0 0 0 0 0 0 0 0 0 0 0 0 0 536870912 0 0 0 0 0 0 0 0 0 0 0 0 0 0 0 0 4194304 0 0 0 0 0 0 0 0 0 256 0 0 0 0 0 0 0 0 0 0 524288 0 0 0 8388608 0 0 0 0 0 0 0 0 0 0 0 0 0 0 0 0 0 0 0 0 0 0 0 0 0 0 0 0 0 0 0 0 8388608 0 0 0 0 0 0 0 0 0 0 0 0 0 0 4 0 0 0 0 0 0 0 0 0 0 0 0 0 0 0 0 0 0 0 0 0 0 0 0 0 0 0 0 0 0 0 0 0 0 0 0 268435456 0 0 0 8388608 0 0 0 0 0 0 0 0 0 0 0 0 0 0 8 0 0 0 0 0 0 0 0 256 0 0 0 0 0 0 0 0 8388608 0 0 0 0 0 0 0 0 0 0 0 0 0 0 4 0 0 0 0 0 0 0 0 0 0 0 0 0 0 0 0 0 0 0 0 0 536870912 0 0 0 0 0 0 0 0 0 0 0 0 0 0 268435456 0 0 0 0 0 0 0 0 0 0 0 0 0 0 524288 0 0 0 0 0 0 0 0 0 0 0 0 67108864 0 0 0 0 0 0 0 0 0 0 0 2048 0 0 0 0 0 0 1024 0 0 0 0 0 0 0 0 4096 0 0 0 0 0 0 0 0 0 0 0 0 0 65536
is_linear=0
shrinkage=0.05


Tree=13
num_leaves=31
num_cat=6
split_feature=16 16 13 13 16 14 14 16 16 14 14 14 13 13 13 16 14 14 5 5 13 12 5 12 14 12 13 14 12 5
split_gain=1070.84 313.348 96.5735 81.8294 65.9497 52.7542 52.4398 190.963 176.638 42.2916 41.3868 87.931 60.0778 37.4876 41.9286 86.5467 40.3008 109.889 80.1452 80.123 65.2185 41.9425 48.7779 80.5738 37.4384 29.8581 61.9334 48.124 29.6454 39.4956
threshold=0 1 0.40325734805533003 0.40652065830334416 2 0.66186308755235268 0.19297424750449069 3 4 0.62753533775261527 0.25218974436431929 0.089915085075040382 0.62805882363060339 0.18640868390269807 0.38964033523302294 5 0.320693194964559 0.31103300154289765 0.03930568468140723 0.05619552860932172 0.33683261447612362 0.0019803164707137282 0.20538285244167601 0.00033271066530304877 0.18935635241521295 0.84858885545314233 1.019089285112013 0.021461089730238362 1.1192471887229927 0.4666180424637637
decision_type=9 9 2 2 9 2 2 9 9 2 2 2 2 2 2 9 2 2 2 2 2 2 2 2 2 2 2 2 2 2
left_child=-1 9 13 -4 5 -5 8 -8 -6 10 11 -2 -12 -3 15 -15 17 21 20 -19 -18 22 24 -24 -17 -10 -27 -28 -29 -30
right_child=1 2 3 4 6 -7 7 -9 25 -11 12 -13 -14 14 -16 16 18 19 -20 -21 -22 -23 23 -25 -26 26 27 28 29 -31
leaf_value=0.054720815685088665 -0.018434558059046171 0.051095884394290469 -0.12448311364621101 0.038668640531895268 0.063572340262522925 -0.016079908605779125 -0.079793297778943617 -0.0088240316688104094 -0.077057563435866283 -0.061471834653762519 -0.036399501864846494 -0.067329038759696633 0.003321301617686 -0.054276160367197915 0.061701639563095483 -0.089245678304290754 0.052108494554173983 -0.11188664423603958 0.04949745007717813 0.057490742129617113 -0.052069364739082052 0.048323565056755009 0.047651794507255325 -0.1316643101406598 0.018739791002406463 0.025443806865512342 0.047968024954780114 -0.074878456775725563 -0.040290671292277556 0.063722069672515438
leaf_weight=700.40852737426758 168.16890525817871 61.462198714958504 15.528073805384336 119.00789250433445 76.244193553924561 69.810452461242676 109.26332759857178 504.089130505512 21.61629616911523 156.95938286185265 265.85437870025635 202.88905715942383 148.29740381240845 43.629629135131836 36.657965311780572 8.5462774196639639 22.833937104558572 32.19836789695546 148.94283218705095 8.915367473382501 43.918049167376012 63.082320427289233 10.24975755158812 16.112626202404499 131.97656065376941 63.735473092412576 15.689785087364724 49.306136173428968 59.25229494809173 10.788526697084306
leaf_count=144 23 1303 62 40 12 11 14 8332 235 25 35 26 20 7 187 15 139 81 612 73 452 533 93 44 2154 677 222 519 921 7
internal_value=0.000111196 -0.0142847 -0.00165686 -0.0105058 -0.00889505 0.0175 -0.0144059 -0.0229114 0.00269529 -0.0373814 -0.033042 -0.0451693 -0.0221765 0.0140052 0.00998512 0.00641083 0.0127042 0.000132074 0.0290936 -0.0751578 -0.0164331 0.0135924 0.00046413 -0.0619458 0.0121724 -0.0203275 -0.0151809 -0.0343551 -0.0451776 -0.0242694
internal_weight=3385.44 2685.03 1742.86 1114.33 1098.8 188.818 909.985 613.352 296.633 942.169 785.21 371.058 414.152 628.526 567.064 530.406 486.776 271.081 215.695 41.1137 66.752 229.968 166.885 26.3624 140.523 220.389 198.772 135.037 119.347 70.0408
internal_count=17018 16874 16745 11052 10990 51 10939 8346 2593 129 104 49 55 5693 4390 4203 4196 2993 1203 154 591 2839 2306 137 2169 2581 2346 1669 1447 928
cat_boundaries=0 82 168 258 329 400 493
cat_threshold=0 0 0 0 0 32768 0 0 0 0 0 0 0 8192 262144 0 0 0 268435456 0 2048 0 0 1024 0 0 0 0 0 0 4194304 0 0 272629760 16777216 0 0 0 512 0 0 0 33554688 0 0 0 0 0 0 0 0 0 0 0 0 0 0 0 524288 0 0 512 0 0 0 0 4194304 512 0 0 536870912 2155872256 0 0 67108864 0 0 135168 4194304 0 0 256 0 0 0 0 0 0 0 0 1073741824 16779264 0 512 0 0 524288 32 0 0 0 256 1048576 0 134217728 0 66560 0 0 4 0 0 32 0 0 0 0 512 8388608 0 0 2048 4194304 0 0 0 0 0 0 0 0 0 0 0 0 0 0 0 0 0 0 0 0 0 0 128 0 0 0 0 536870912 0 0 0 0 536870912 0 0 0 0 1073741824 0 0 0 0 1 0 268435456 0 0 0 0 0 0 0 0 0 0 0 0 0 0 4096 0 0 0 8 0 0 0 0 8388608 0 0 0 0 0 0 262144 0 0 0 0 0 0 0 0 0 0 0 0 0 0 0 0 0 0 0 0 0 0 4 0 0 0 0 0 0 0 0 0 0 0 0 65536 4096 4194304 0 0 0 0 0 0 0 0 0 0 0 0 0 0 0 1073741824 0 0 0 0 524288 0 0 0 0 0 0 0 0 0 0 0 0 0 0 0 0 0 0 0 0 0 0 0 0 0 0 0 8 0 0 0 0 0 0 0 0 0 0 0 0 0 0 0 0 268435456 0 1024 0 0 0 0 536870912 0 0 0 4096 0 0 0 0 0 0 0 0 0 0 0 0 0 0 4 0 0 0 0 0 0 0 0 0 0 0 0 0 0 0 0 0 0 0 0 0 0 0 0 0 0 0 0 0 0 0 0 0 0 0 0 0 0 0 0 0 0 0 0 268435456 0 0 0 0 0 0 536870912 0 0 0 4096 0 0 0 0 0 0 0 0 0 0 0 0 0 0 4 0 0 0 0 0 0 0 0 0 0 0 0 0 0 0 0 0 0 0 0 0 0 0 0 0 0 0 0 0 0 0 0 0 0 0 0 0 0 0 0 0 0 0 536870912 0 0 0 0 0 0 0 0 0 0 0 0 0 0 0 0 0 0 0 0 0 0 0 0 0 0 0 0 0 0 0 0 0 0 0 0 0 0 0 0 1073741824 0 0 0 0 0 0 0 64
is_linear=0
shrinkage=0.05


Tree=14
num_leaves=31
num_cat=7
split_feature=16 16 13 13 16 14 15 13 13 14 15 11 14 14 16 16 15 14 14 15 13 14 16 16 15 11 15 15 14 11
split_gain=997.408 295.442 71.0826 75.9477 63.557 64.3248 55.5746 106.893 104.452 49.0767 61.2152 46.4962 34.4483 48.3402 128.151 109.83 86.9064 37.5183 53.8333 47.4783 32.7474 48.2652 138.5 81.5391 52.4373 51.9054 51.6619 45.8411 33.4416 81.4506
threshold=0 1 0.40325734805533003 0.40652065830334416 2 0.66902205467647724 0.024796462775368646 0.77514606288808696 0.87117553867855191 0.089915085075040382 1.0677458568594471 0.61124984550212758 0.6555552738337167 0.18935635241521295 3 4 1.1222339078273871 0.5685479548289134 0.5299653053338268 0.011588649850322645 0.18640868390269807 0.320693194964559 5 6 0.01080831925390693 0.4258153136263208 0.0062281578089846057 0.0058487288820544972 0.34864338675767576 0.46880723093849536
decision_type=9 9 2 2 9 2 2 2 2 2 2 2 2 2 9 9 2 2 2 2 2 2 9 9 2 2 2 2 2 2
left_child=-1 6 20 -4 5 -5 -2 -8 -9 -10 -11 -6 13 14 -13 -15 -16 18 -17 -19 -3 22 -22 -23 25 -25 27 -24 -27 -30
right_child=1 2 3 4 11 -7 7 8 9 10 -12 12 -14 15 16 17 -18 19 -20 -21 21 23 26 24 -26 28 -28 -29 29 -31
leaf_value=0.055719623495868814 -0.048213000643744751 0.050067682541615248 -0.11563921158567113 0.034931707418930952 -0.069568260522716405 -0.024473021444782847 0.0086172174335769434 -0.083131724202528082 -0.0035822075899773461 -0.063750389017453876 -0.020913623534652044 0.059990130937320821 0.020162563161617755 -0.075127966154113268 -0.03521998732421025 -0.013201816799555786 0.054084540868646239 0.038107111558240536 0.048609602501110238 -0.076027799199752596 -0.090343439816322382 0.060192218017157212 0.0014119769004443247 -0.1037408656235185 -0.088747693581213261 0.049920866542421477 0.045605306654538512 -0.11918825395741782 -0.096301845754474757 0.025442775390039342
leaf_weight=640.91126871109009 371.03511154651642 59.634820277336985 15.870267619378863 161.35206384956837 34.358640839753207 63.505146503448486 184.28077077865601 94.555352389812469 166.24055033922195 130.67387294769287 230.53292080760002 60.948222160339355 83.268709602387389 76.858645915985107 153.69498522870708 165.96300486638211 33.111341911368072 12.02239227388054 44.716109536355361 37.634710884070955 29.575089454650879 96.060325145721436 164.55629832949489 9.1284953177673724 14.292676795274017 54.037259321659803 73.82275432953611 8.2757721701636893 17.522407525684685 63.616809444036335
leaf_count=137 51 1303 62 59 430 10 25 14 26 17 33 10 2747 10 2167 3812 339 190 511 679 4 17 2254 57 288 414 714 28 73 537
internal_value=0.000120449 -0.01318 0.00132385 -0.00718391 -0.00532802 0.0173814 -0.0319279 -0.0248298 -0.0347392 -0.0260638 -0.0364107 -0.0126632 -0.00992679 -0.0142101 0.00255846 -0.0265308 -0.0184055 -0.00895376 -8.24993e-05 -0.0483948 0.0149366 0.0109903 -0.00348502 0.0266919 0.00245137 0.011654 0.0101798 -0.00436276 0.0194467 -0.000848566
internal_weight=3352.06 2711.15 1533.83 943.304 927.434 224.857 1177.32 806.283 622.003 527.447 361.207 702.577 668.218 584.949 247.755 337.195 186.806 260.336 210.679 49.6571 590.523 530.888 276.23 254.658 158.598 144.305 246.655 172.832 135.176 81.1392
internal_count=17018 16881 16715 11026 10964 69 166 115 90 76 50 10895 10465 7718 2516 5202 2506 5192 4323 869 5689 4386 3000 1386 1369 1081 2996 2282 1024 610
cat_boundaries=0 82 175 265 321 377 456 535
cat_threshold=0 0 0 0 0 32768 0 0 0 0 0 0 0 8192 262144 0 0 0 268435456 0 2048 0 0 1024 0 0 0 0 0 0 4194304 0 0 272629760 16777216 0 0 0 512 0 0 0 33554432 0 0 0 0 0 0 0 0 0 0 0 0 0 0 0 524288 0 0 512 0 0 0 0 4194304 512 0 0 536870912 2155872256 0 0 67108864 0 0 135168 4194304 0 0 256 0 0 0 0 536870912 0 0 0 1073741824 16779264 0 512 0 0 524288 32 0 0 0 256 1048576 0 134217728 0 66560 0 0 4 0 0 32 0 0 0 0 4194816 8388608 2147483648 0 2048 4194304 0 2 0 0 0 0 0 0 0 0 0 0 0 0 0 0 0 0 0 0 0 0 128 0 0 0 0 536870912 65536 4 0 0 536870912 0 0 0 0 1073741824 0 0 0 0 1 0 268435456 0 0 0 0 0 0 64 0 0 0 0 0 0 0 0 0 268435456 0 0 0 0 4096 0 0 0 8 0 0 268435456 0 8388608 0 0 0 0 0 0 262144 0 0 0 0 0 0 0 0 0 0 0 256 0 0 0 0 0 0 0 0 0 0 4 0 0 0 0 0 0 0 0 0 0 0 0 65536 4096 4194304 0 0 0 0 0 0 0 0 0 0 0 0 0 0 0 1073741824 0 0 0 0 524288 0 0 0 0 0 0 0 0 0 0 0 0 0 0 0 0 0 0 0 0 0 0 0 0 0 0 0 0 0 0 0 0 0 0 0 0 0 0 0 0 0 0 0 0 268435456 0 0 0 0 0 0 536870912 0 0 0 4096 0 0 0 0 0 0 0 0 0 0 0 0 32768 0 0 0 0 0 0 0 0 0 0 0 0 0 0 0 0 0 0 0 0 0 0 0 0 0 0 0 0 0 0 0 268435456 0 0 0 0 0 0 536870912 0 0 0 4096 0 0 0 0 0 0 0 0 0 0 0 0 0 0 0 0 0 0 0 0 0 0 0 0 0 0 0 0 0 0 0 0 0 0 0 0 0 0 0 0 0 0 0 536870912 0 0 0 0 0 0 0 0 0 0 0 0 0 0 0 0 0 0 0 0 0 0 0 0 0 0 0 512 0 0 0 0 0 0 256 0 0 0 0 0 0 0 0 0 0 0 0 0 0 0 0 0 0 0 0 0 0 0 0 0 0 0 8 0 0 0 0 0 0 0 0 0 0 0 0 0 0 0 0 0 0 1024 0 0 0 0 0 0 0 0 0 0 0 0 0 0 0 0 0 0 0 0 0 0 1073741824 0 512 0 0 0 0 0 0 256
is_linear=0
shrinkage=0.05


Tree=15
num_leaves=31
num_cat=5
split_feature=16 16 16 13 13 12 14 12 14 14 13 12 16 14 13 13 16 13 14 13 11 14 14 13 13 13 14 14 11 12
split_gain=934.102 293.525 104.016 77.8835 55.9506 63.6266 54.0572 102.572 93.8664 60.2598 45.5208 37.6755 34.0427 78.4647 41.1023 46.1958 35.8929 21.9037 49.8087 49.9593 48.4241 30.606 21.5456 77.3305 21.0757 42.0345 20.7819 34.5822 17.8668 17.7609
threshold=0 1 2 0.2675326844749803 0.40325734805533003 0.007160831242900457 0.5299653053338268 0.77840509428835547 0.64739934447746406 0.089915085075040382 0.18640868390269807 1.3419797021780038 3 0.24267616461191191 0.71796178005224431 0.42464659811285765 4 0.37191881445810909 0.32270700124514357 0.32920687309960367 0.46880723093849536 0.18935635241521295 0.16846099325812405 0.65329576720810556 0.2839068370608307 0.28819454978273112 0.31103300154289765 0.35541731572951379 0.46880723093849602 0.0018122790520032075
decision_type=9 9 9 2 2 2 2 2 2 2 2 2 9 2 2 2 9 2 2 2 2 2 2 2 2 2 2 2 2 2
left_child=-1 22 3 -3 -5 -6 7 -7 -8 -9 -4 -11 13 -12 15 26 -14 18 19 21 -19 -18 -2 -24 -23 -26 -15 -28 -20 -27
right_child=1 2 10 4 5 6 8 9 -10 11 12 -13 16 14 -16 -17 17 20 28 -21 -22 24 23 -25 25 29 27 -29 -30 -31
leaf_value=0.059285873553621964 -0.026208850070901759 -0.12341550299598197 0.050975928404684824 0.018740946657321459 -0.074500933857815255 -0.070678201309791008 0.039805952603229944 0.0080548290102155414 -0.017991161101361935 -0.040732995784062059 0.060560809463443291 -0.0078120673776392452 -0.052961768851309689 0.023344105800821396 -0.024583845452034219 0.045287728270144267 -0.085269894797107337 -0.089543146861534223 0.058738031948207862 -0.088342816272457589 -0.0038785385378300712 0.028417337119529554 -0.033393481044337842 -0.076961768825789201 -0.11091640733047248 -0.019816485682179558 -0.032171633803471954 0.017470554891485923 0.0035682411656901059 0.044404079925482336
leaf_weight=546.21040010452271 123.35384273529053 16.066975384950638 57.44262958841864 126.71791957318783 45.195114135742188 92.393414929509163 112.77229671180248 201.30504731833935 186.29883742332458 197.30110004544258 79.49093621969223 155.32429485023022 24.093829546123743 76.078508652746677 85.46413891017437 87.660181939601898 8.7946115471422655 17.509844950109255 56.9308968646219 16.046103009022772 285.12478902097791 74.069504798389971 268.87768459320068 163.94928616285324 9.06290001189336 25.491781286429614 75.421164080500603 65.593806363642216 19.771758938673884 18.637254016473889
leaf_count=123 16 6 1301 21 6 13 17 35 31 30 44 24 131 15 20 22 27 133 234 25 11097 2248 35 26 60 342 27 20 643 246
internal_value=0.000134257 -0.011692 -0.00345918 -0.0139908 -0.0125424 -0.0165443 -0.0137736 -0.0219067 0.00380269 -0.0137717 0.00759263 -0.026232 0.00523599 0.0149642 0.00605922 0.0146527 -0.00320103 -8.53653e-06 0.0116655 -0.00490083 -0.00883492 0.0049401 -0.0438545 -0.0498966 0.0111742 -0.0128368 0.00228253 -0.00908033 0.0445168 0.00730613
internal_weight=3318.45 2772.24 2216.06 1133.38 1117.31 990.59 945.395 646.324 299.071 553.93 1082.68 352.625 1025.24 469.709 390.218 304.754 555.533 531.439 228.805 152.102 302.635 136.056 556.181 432.827 127.261 53.1919 217.093 141.015 76.7027 44.129
internal_count=17018 16895 16818 183 177 156 150 102 48 89 16635 54 15334 148 104 84 15186 15055 3825 2948 11230 2923 77 61 2896 648 62 47 877 588
cat_boundaries=0 82 166 259 353 448
cat_threshold=0 0 0 0 0 32768 0 0 0 0 0 0 0 8192 262144 0 0 0 268435456 0 2048 0 0 1024 0 0 0 0 0 0 4194304 0 0 268435456 16777216 0 0 0 512 0 0 0 33554432 0 0 0 0 0 0 0 0 0 0 0 0 0 0 0 524288 0 0 512 0 0 0 0 4194304 512 0 0 536870912 2155872256 0 0 67108864 0 0 135168 0 0 0 256 0 0 0 0 0 0 0 0 1073741824 16779264 0 512 0 0 0 32 0 0 0 0 0 0 0 0 66560 0 0 4 0 0 0 0 0 0 0 512 0 0 0 2048 4194304 0 0 0 0 0 0 0 0 0 0 0 0 0 0 0 0 0 0 0 0 0 0 128 0 0 0 0 536870912 0 0 0 0 0 0 0 0 0 0 0 0 0 0 1 0 0 0 8388608 536870913 0 0 0 0 0 0 0 32768 0 524288 0 0 256 0 256 1048576 0 134217728 0 0 0 0 67109128 0 0 32 0 0 0 0 4194304 8388608 2147483648 0 0 0 0 2 0 268435456 0 1024 0 0 0 0 536870916 0 0 0 4096 0 0 0 0 0 0 0 0 0 0 0 0 0 65536 4 0 0 536870912 0 0 0 16777216 1074266112 0 0 0 0 0 0 268435456 0 0 268435456 0 0 4 64 0 0 0 0 0 0 0 0 0 268435456 0 0 0 0 4096 0 0 0 136 0 0 0 0 8388608 0 0 0 0 0 0 262144 0 0 4194304 0 0 0 0 0 0 0 0 256 0 0 0 0 0 2097152 0 0 0 0 4 0 0 0 0 0 0 4210688 0 0 0 0 0 65536 4096 256 0 0 512 0 0 16384 0 0 16 4194304 0 1073741824 128 536870912 0 1073741824 0 0 2048 0 524288 0 0 0 524288 0 0 0 0 0 0 0 0 0 0 0 1073741824 0 0 65536 67108864 0 0 0 2048 0 0 0 0 0 0 0 0 0 0 0 0 128 134217728 2147483648 2097152 0 0 0 0 8388608 0 0 536870912 0 0 0 0 0 0 131072 0 0 4096 0 0 2048 0 0 128 0 0 0 67108864 0 65536 0 0 0 0 65536 0 0 0 16 0 0 0 0 4194304 0 0 0 128 0 0 0 0 0 0 0 65536 0 0 4210688
is_linear=0
shrinkage=0.05


Tree=16
num_leaves=31
num_cat=10
split_feature=16 16 12 16 14 14 14 16 16 16 13 12 14 13 13 14 1 16 14 14 14 16 16 14 16 13 14 14 13 14
split_gain=874.307 265.501 64.6417 52.6518 55.3172 41.8882 68.2856 139.649 119.946 41.0993 36.1295 34.9388 58.5433 102.041 79.988 33.8957 80.6816 43.1612 32.5797 52.2004 53.2835 45.6127 28.916 26.2468 22.1387 23.941 96.6285 24.6315 52.9346 30.4319
threshold=0 1 0.0064679933623971184 2 0.30688380885079625 0.6555552738337167 0.18935635241521295 3 4 5 0.18640868390269807 0.007160831242900457 0.59779987428289894 0.79993717236467721 0.99371521913790994 0.10927504927993477 1.0754976321197354 6 0.64739934447746406 0.5299653053338268 0.41293697012842173 7 8 0.18935635241521295 9 0.24118659676749427 0.24461656021702524 0.25514921237176785 0.26290362773539272 0.26185705205856702
decision_type=9 9 2 9 2 2 2 9 9 9 2 2 2 2 2 2 2 9 2 2 2 9 9 2 9 2 2 2 2 2
left_child=-1 11 9 4 -4 6 8 -8 -5 -3 -11 -2 13 -13 -15 17 -17 -10 19 20 21 -9 -7 -12 -25 -26 -27 -28 29 -29
right_child=1 2 3 5 -6 22 7 18 15 10 23 12 -14 14 -16 16 -18 -19 -20 -21 -22 -23 -24 24 25 26 27 28 -30 -31
leaf_value=0.058659296184476323 -0.047977924266537672 0.055960546593424081 0.044920395877144692 0.05914740182573474 -0.0030049896363275523 0.0509721094912092 -0.071711107606311109 0.048754314439265312 0.021059079445294504 0.048204393029003346 -0.080135396590585661 0.012500130601097401 -0.046773149595968483 -0.059974031580251379 -0.01548695106469917 0.048593073615422672 -0.068407933387633874 -0.044013465365119686 -0.1034573258047993 0.037165298479672697 -0.051124493929172558 -0.014249015935362694 -0.0065528554098446589 -0.015628548071479561 0.039539271883787697 -0.17493850891705745 0.053512324198246267 0.013240340488158609 0.010182106278396537 -0.16405353452620625
leaf_weight=525.08450412750244 223.80080938339233 44.26740837097168 89.434722483158112 59.639570713043213 184.25772546231747 30.31650447845459 126.01027393341064 28.288147926330566 29.622497081756592 55.800390821881592 8.7110701920464617 192.64095830917358 242.15762248635292 155.55195140838623 288.32891699671745 46.61337233078666 21.544828713638708 106.8254057232989 8.8009658418595773 56.034758984227665 74.37953261914663 105.24686656030826 49.134643371187849 81.258009076118469 66.485562276444398 7.1581247521098694 30.590340695809573 3.6990389868151379 338.69415501883486 7.0018597962334752
leaf_count=123 29 8 24 10 37 5 17 5 5 1296 21 26 36 24 41 667 361 1525 52 1059 1157 2361 2560 31 1597 66 130 106 3627 12
internal_value=0.000145005 -0.01115 0.00152074 -0.00632332 0.0122095 -0.0131425 -0.0174308 -0.0304932 0.0022811 0.0139277 0.00972757 -0.0300683 -0.0258488 -0.0178884 -0.0310768 -0.0163846 0.011609 -0.0315687 -0.0085094 -0.0056659 -0.0172093 0.00168164 0.0209879 0.00595686 0.00735895 0.0115662 0.00706106 0.0104896 0.00672281 -0.102767
internal_weight=3287.38 2762.3 1659.82 1016.15 273.692 742.457 663.006 398.761 264.246 643.666 599.399 1102.48 878.679 636.522 443.881 204.606 68.1582 136.448 272.75 263.949 207.915 133.535 79.4511 543.598 534.887 453.629 387.144 379.985 349.395 10.7009
internal_count=17018 16895 16739 9845 61 9784 7219 4651 2568 6894 6886 156 127 91 65 2558 1028 1530 4634 4582 3523 2366 2565 5590 5569 5538 3941 3875 3745 118
cat_boundaries=0 82 168 247 340 396 489 559 606 684 763
cat_threshold=0 0 0 0 0 32768 0 0 0 0 0 0 0 8192 262144 0 0 0 268435456 0 2048 0 0 1024 0 0 0 0 0 0 4194304 0 0 268435456 16777216 0 0 0 512 0 0 0 33554432 0 0 0 0 0 0 0 0 0 0 0 0 0 0 0 524288 0 0 512 0 0 0 0 4194304 512 0 0 536870912 2155872256 0 0 67108864 0 0 135168 0 0 0 256 0 0 0 0 536870912 0 0 0 1073741824 16779264 0 512 0 0 524288 32 0 0 0 256 1048576 0 134217728 0 66560 0 0 4 0 0 32 0 0 0 0 4194816 8388608 2147483648 0 2048 4194304 0 2 0 0 0 0 0 0 0 0 0 0 0 0 0 0 0 0 0 0 0 0 128 0 0 0 0 536870912 0 4 0 0 536870912 0 0 0 0 1073741824 0 0 0 0 1 0 268435456 0 0 0 0 0 0 0 0 0 0 0 0 0 0 4096 0 0 0 8 0 0 0 0 8388608 0 0 0 0 0 0 262144 0 0 4194304 0 0 0 0 0 0 0 0 256 0 0 0 0 0 0 0 0 0 0 0 0 0 0 0 0 0 0 0 0 0 0 0 65536 0 4194304 0 0 0 0 0 0 0 0 0 4194560 0 0 0 0 0 0 0 0 0 0 0 0 32768 0 0 0 0 0 0 0 0 0 0 0 0 0 0 0 0 0 0 0 0 0 0 0 0 0 0 0 0 0 0 0 268435456 0 0 0 0 0 0 536870912 0 0 0 4096 0 0 0 0 0 0 0 0 0 0 0 4096 0 0 0 0 0 0 0 0 0 16777216 0 0 0 0 0 0 0 0 0 0 0 0 0 0 64 0 0 0 0 0 0 0 0 0 0 0 0 0 0 0 0 0 0 0 0 0 0 0 0 0 0 0 0 0 0 0 0 0 0 0 0 0 0 0 0 0 0 0 0 268435456 0 0 0 0 0 0 536870912 0 0 0 4096 0 0 0 0 0 0 0 0 0 0 0 0 0 0 0 0 0 0 0 0 0 0 0 0 0 0 0 0 0 0 0 0 0 0 0 0 0 0 0 0 0 0 0 0 0 0 1024 0 0 0 0 0 0 0 0 0 0 0 0 0 0 0 0 0 0 0 0 4096 0 0 0 0 0 0 0 0 0 16777216 0 0 0 0 0 0 0 0 0 0 0 0 0 0 64 0 0 0 0 0 0 0 0 0 0 0 0 0 0 0 0 0 0 0 0 0 0 0 0 0 0 0 67108864 0 0 0 0 0 0 0 0 0 0 0 0 0 0 0 0 0 0 0 0 0 0 0 0 0 0 0 0 0 0 0 0 0 0 0 0 0 0 0 0 0 65536 0 0 0 8388608 0 0 0 0 0 0 0 0 0 0 0 0 0 0 0 0 0 0 0 0 0 0 0 0 0 0 0 0 0 0 0 0 0 0 0 0 0 0 0 0 0 0 1024 0 0 0 0 0 0 0 0 0 0 0 0 32768 0 0 0 0 0 0 0 0 0 0 0 0 0 0 256 0 0 0 0 0 0 0 0 0 0 0 0 0 0 0 0 0 0 0 0 0 0 0 0 0 0 0 0 0 0 0 0 0 0 0 0 0 0 0 0 0 0 0 0 0 0 0 0 0 16777216 0 0 0 0 0 0 0 0 0 0 0 0 0 0 0 0 0 0 0 0 0 0 0 0 0 0 0 8 0 0 0 0 0 0 0 0 0 0 0 0 0 0 0 536870912 0 0 0 0 0 0 0 0 0 69632 0 0 0 0 0 0 0 0 0 0 0 65536 0 0 0 0 0 0 0 0 16 0 0 0 524288
is_linear=0
shrinkage=0.05


end of trees

feature_importances:
pred_diff=153
item_idx=88
lgb_pred=78
pred_ratio=76
tft_pred=50
rolling_cv_14=20
trend_r2_14=17
rolling_std_14=12
rolling_cv_7=9
rolling_mean_14=6
bb_width_14=1

parameters:
[boosting: gbdt]
[objective: binary]
[metric: binary_logloss]
[tree_learner: serial]
[device_type: cpu]
[data_sample_strategy: bagging]
[data: ]
[valid: ]
[num_iterations: 1000]
[learning_rate: 0.05]
[num_leaves: 31]
[num_threads: 0]
[seed: 42]
[deterministic: 0]
[force_col_wise: 0]
[force_row_wise: 0]
[histogram_pool_size: -1]
[max_depth: -1]
[min_data_in_leaf: 20]
[min_sum_hessian_in_leaf: 0.001]
[bagging_fraction: 1]
[pos_bagging_fraction: 1]
[neg_bagging_fraction: 1]
[bagging_freq: 0]
[bagging_seed: 400]
[bagging_by_query: 0]
[feature_fraction: 0.8]
[feature_fraction_bynode: 1]
[feature_fraction_seed: 30056]
[extra_trees: 0]
[extra_seed: 12879]
[early_stopping_round: 0]
[early_stopping_min_delta: 0]
[first_metric_only: 0]
[max_delta_step: 0]
[lambda_l1: 0]
[lambda_l2: 0]
[linear_lambda: 0]
[min_gain_to_split: 0]
[drop_rate: 0.1]
[max_drop: 50]
[skip_drop: 0.5]
[xgboost_dart_mode: 0]
[uniform_drop: 0]
[drop_seed: 17869]
[top_rate: 0.2]
[other_rate: 0.1]
[min_data_per_group: 100]
[max_cat_threshold: 32]
[cat_l2: 10]
[cat_smooth: 10]
[max_cat_to_onehot: 4]
[top_k: 20]
[monotone_constraints: ]
[monotone_constraints_method: basic]
[monotone_penalty: 0]
[feature_contri: ]
[forcedsplits_filename: ]
[refit_decay_rate: 0.9]
[cegb_tradeoff: 1]
[cegb_penalty_split: 0]
[cegb_penalty_feature_lazy: ]
[cegb_penalty_feature_coupled: ]
[path_smooth: 0]
[interaction_constraints: ]
[verbosity: -1]
[saved_feature_importance_type: 0]
[use_quantized_grad: 0]
[num_grad_quant_bins: 4]
[quant_train_renew_leaf: 0]
[stochastic_rounding: 1]
[linear_tree: 0]
[max_bin: 255]
[max_bin_by_feature: ]
[min_data_in_bin: 3]
[bin_construct_sample_cnt: 200000]
[data_random_seed: 175]
[is_enable_sparse: 1]
[enable_bundle: 1]
[use_missing: 1]
[zero_as_missing: 0]
[feature_pre_filter: 1]
[pre_partition: 0]
[two_round: 0]
[header: 0]
[label_column: ]
[weight_column: ]
[group_column: ]
[ignore_column: ]
[categorical_feature: 16,17]
[forcedbins_filename: ]
[precise_float_parser: 0]
[parser_config_file: ]
[objective_seed: 16083]
[num_class: 1]
[is_unbalance: 0]
[scale_pos_weight: 1]
[sigmoid: 1]
[boost_from_average: 1]
[reg_sqrt: 0]
[alpha: 0.9]
[fair_c: 1]
[poisson_max_delta_step: 0.7]
[tweedie_variance_power: 1.5]
[lambdarank_truncation_level: 30]
[lambdarank_norm: 1]
[label_gain: ]
[lambdarank_position_bias_regularization: 0]
[eval_at: ]
[multi_error_top_k: 1]
[auc_mu_weights: ]
[num_machines: 1]
[local_listen_port: 12400]
[time_out: 120]
[machine_list_filename: ]
[machines: ]
[gpu_platform_id: -1]
[gpu_device_id: -1]
[gpu_use_dp: 0]
[num_gpu: 1]

end of parameters

pandas_categorical:[]
