tree
version=v4
num_class=1
num_tree_per_iteration=1
label_index=0
max_feature_idx=12
objective=regression_l1
feature_names=rolling_cv_7 rolling_cv_14 bb_width_14 trend_r2_14 rolling_mean_14 rolling_std_14 tft_pred lgb_pred pred_diff pred_ratio lgb_minus_tft item_idx store_idx
feature_infos=[0.13228756555299534:2.6457513110646436] [0.18167945172868039:3.741657386773948] [0.72671780691472154:14.966629547095792] [0:0.70586336740182898] [0.071428571428571425:72.571428571428569] [0.26726124191242484:28.207239348231241] [1.000000407459446:99.165762900221353] [0.23399901770281181:85.872256511735031] [4.8186048124065906e-05:27.344741658790674] [0.24461593074898849:4.6803732954534158] [-27.344741658790674:5.4693775285609485] -1:3:5:10:12:16:19:26:30:34:38:40:41:43:44:50:52:53:56:58:59:62:64:65:78:80:81:83:84:85:97:101:107:109:110:114:115:119:121:124:127:131:134:136:142:149:150:151:152:158:159:160:162:166:168:169:177:179:180:186:189:190:196:197:198:200:203:204:206:211:213:214:215:228:229:231:234:236:242:245:250:251:262:265:267:269:271:275:276:278:282:289:293:295:297:310:315:316:317:324:326:329:330:333:342:345:353:364:365:366:367:376:378:384:395:397:398:408:411:415:418:435:436:447:458:461:477:478:490:497:505:507:508:513:518:525:532:539:540:552:553:556:561:563:571:573:574:578:585:588:594:596:605:610:615:616:617:620:621:626:628:632:634:636:637:639:641:645:647:649:654:655:661:664:665:670:674:675:676:679:682:683:688:689:692:695:698:699:701:702:704:708:709:710:711:713:718:719:720:721:724:725:727:732:733:736:737:739:740:741:742:743:744:745:747:748:750:751:752:754:756:758:759:768:775:781:784:789:793:796:797:802:804:807:813:814:815:817:818:820:823:825:827:829:836:837:838:839:840:842:843:844:845:848:849:851:857:858:860:861:862:864:865:869:870:871:877:879:881:885:886:889:890:891:893:894:895:897:900:901:903:904:907:912:913:914:916:918:923:925:931:932:933:934:939:942:943:944:947:951:954:956:958:960:961:968:969:974:975:979:981:984:986:988:989:997:999:1001:1004:1005:1010:1011:1012:1016:1018:1019:1021:1022:1023:1025:1030:1031:1035:1040:1041:1043:1044:1051:1061:1062:1063:1066:1067:1070:1071:1072:1073:1074:1077:1081:1085:1086:1089:1091:1092:1093:1094:1099:1103:1104:1110:1111:1113:1114:1115:1117:1121:1126:1127:1128:1131:1136:1137:1138:1142:1144:1145:1146:1147:1153:1154:1157:1159:1163:1167:1172:1173:1174:1176:1177:1178:1180:1181:1182:1185:1189:1192:1197:1198:1199:1200:1202:1203:1206:1208:1211:1212:1214:1215:1216:1218:1219:1220:1221:1222:1226:1227:1229:1236:1237:1244:1246:1247:1248:1252:1253:1256:1257:1258:1259:1264:1265:1266:1267:1269:1273:1280:1286:1287:1290:1293:1294:1295:1296:1300:1301:1304:1306:1307:1309:1310:1311:1313:1315:1317:1318:1322:1323:1325:1332:1334:1336:1338:1344:1345:1348:1349:1350:1351:1353:1355:1356:1358:1359:1362:1365:1366:1369:1374:1376:1377:1378:1381:1385:1389:1391:1392:1395:1396:1398:1402:1403:1404:1406:1410:1412:1414:1416:1417:1418:1420:1421:1423:1425:1427:1428:1429:1430:1431:1432:1436:1444:1450:1451:1452:1453:1455:1459:1465:1466:1468:1484:1491:1492:1493:1499:1502:1508:1510:1512:1515:1519:1523:1524:1535:1564:1566:1571:1573:1576:1579:1580:1585:1586:1587:1590:1591:1596:1610:1620:1631:1638:1639:1641:1662:1665:1670:1673:1676:1677:1678:1681:1683:1685:1690:1697:1707:1715:1716:1717:1723:1725:1728:1741:1744:1748:1749:1752:1757:1760:1765:1767:1769:1772:1776:1781:1782:1786:1797:1798:1799:1806:1807:1809:1815:1828:1832:1835:1844:1849:1870:1895:2005:2006:2007:2008:2011:2014:2019:2020:2027:2028:2038:2039:2040:2044:2047:2048:2049:2050:2052:2058:2060:2064:2065:2067:2070:2071:2078:2081:2088:2094:2098:2101:2104:2105:2108:2110:2111:2115:2116:2119:2125:2126:2127:2128:2129:2133:2135:2140:2144:2146:2148:2150:2154:2157:2161:2166:2169:2170:2172:2174:2176:2177:2182:2183:2188:2190:2191:2193:2194:2195:2199:2200:2201:2205:2211:2212:2214:2217:2219:2222:2223:2231:2232:2233:2239:2242:2243:2250:2255:2258:2272:2277:2278:2280:2286:2288:2289:2293:2296:2298:2299:2301:2302:2305:2313:2314:2316:2320:2322:2323:2324:2329:2333:2334:2337:2339:2341:2342:2343:2344:2345:2346:2355:2363:2364:2365:2367:2370:2373:2375:2377:2379:2380:2381:2383:2388:2391:2396:2400:2401:2402:2403:2405:2406:2408:2410:2417:2418:2421:2422:2423:2429:2431:2432:2435:2437:2439:2440:2445:2449:2451:2453:2457:2465:2466:2470:2474:2481:2486:2489:2490:2497:2498:2501:2506:2508:2509:2511:2513:2514:2522:2524:2527:2528:2531:2532:2533:2607:2635:2643:2644:2648:2693:2709:2716:2717:2728:2745:2757:2771:2826:2831:2867:2876:2878:2880:2921:2942:2953:2966:2974:2997:3009:3015:3022:3031:22:33:42:49:69:95:103:117:184:192:246:253:280:299:323:355:388:389:446:464:471:488:523:575:602:644:703:755:766:767:779:1078:1082:1102:1125:1165:1210:1240:1243:1255:1260:1262:1272:1275:1316:1340:1341:1384:1479:1513:1520:1532:1555:1582:1611:1643:1655:1671:1740:1751:1754:1755:1773:1801:1802:1820:1822:1836:1851:2041:2045:2062:2084:2086:2099:2138:2163:2209:2215:2224:2241:2245:2257:2279:2308:2311:2317:2325:2340:2376:2384:2414:2426:2434:2473:2480:2495:2502:2507:2673:2868:2903:2941:2981:3043:11:14:45:74:87:100:146:178:237:277:307:396:582:611:659:669:731:794:834:847:854:863:922:935:994:1045:1046:1108:1135:1233:1263:1413:1434:1440:1601:1826:2031:2033:2066:2085:2091:2109:2118:2124:2132:2143:2210:2247:2262:2312:2348:2353:2390:2398:2441:2450:2461:2529:2732:2733:2780:2844:2933:24:76:285:301:313:334:344:380:387:394:412:431:500:521:534:546:567:587:599:601:618:714:726:898:985:1002:1038:1149:1171:1201:1283:1285:1299:1352:1370:1473:1558:1625:1661:1666:1687:1711:1766:1795:1825:1848:2074:2185:2347:2483:2530:2731:2821:2854:3042:18:48:67:71:98:139:171:257:319:348:413:424:425:444:454:460:511:562:595:667:668:672:786:790:809:906:945:973:1027:1049:1057:1120:1130:1150:1162:1191:1225:1241:1270:1279:1282:1357:1375:1415:1470:1472:1518:1551:1553:1574:1581:1626:1628:1630:1634:1695:1783:1792:1808:1837:1852:2022:2046:2076:2107:2122:2168:2178:2226:2229:2235:2270:2287:2294:2413:2447:2448:2459:2460:2516:2678:2703:2788:2794:2885:2906 none
tree_sizes=4436 4158 3448 3450 4892 3461 4006 4238 4278 4125 4587 4260 4450 4677 4600 3448 4430 3431 4589 4338 4561 4155 4537 4413 4267 4097 4392 4220 4360 4240 3443 3436 4426 3989 4001 4173 4407 4358 4217 4197 4159 4477 4394 4074 4527 4168 4138 4196 4001 4407 4196 4185 4386 4392 4209 4227 3450 4203 4133 4601 4403 4278 4293 4219 4761 4731 3455 3448 4359 4773 3445 3451 3468 4487 4442 3457 4410 3454 4308 4612 3461 4375 4145 4186 4097 4206 3996 4410 4306 4164 4502 4092 4402 3453 4217 3462 4513 4050 4512 3929 3454 4061 3455 4188 4373 3476 4031 4278 4038 4589 4585 4242 4044 4564 4922 4086 4254 4205 3476 4787 4268 4398 4332 3481 4213 4633 4096 4531 4377 4163 3465 4824 4540 3870 3471 4725 3480 4721 4358 3478 4423 4172 4576 3468 4413 4769 4530 3467 4464 4102 4355 4423 3463 4870 4515 3452 4210 4466 4603 4071 4224 4341 4417 4384 4387 4125 3461 4303 3891 4574 4416 4277 3464 4621 3469 4290 4241 4123 4573 4588 3465 4014 3468 3474 4525 4366 4735 4220 4260 3482 3472 4363 4165 3463 4019 4438 4686 4702 4787 4672 4520 4336 4300 4208 4104 4611 4193 3458 4631 4360 3456 4568 4214 4335 4041 4192 4300 3463 3867 4315 3918 4089 4471 4318 3908 3451 4221 4557 3461 4297 4357 4221 3471 4526 3476 4161 4034 3463 4115 4205 4735 4443 4239 4427 4294 4486 4378 4505 4509 4158 3469 4364 4170 4420 4284 4187 4009 4443 4246 4097 3983 4315 4839 4162 4787 4102 4600 4184 4389 4249 3468 4347 4376 4251 4364 4440 3462 4390 4344 4195 4324 4414 3476 4318 3888 4217 4387 4337 4301 4368 4071 4441 4447 4604 4597 4374 4171 4467 4199 4496

Tree=0
num_leaves=31
num_cat=6
split_feature=11 8 11 8 8 11 11 6 6 8 6 7 6 8 11 7 2 6 6 3 8 6 2 5 5 5 11 6 4 3
split_gain=967.913 366.354 167.23 164.378 144.711 154.192 118.042 145.521 128.111 120.528 91.952 89.4562 75.2126 74.1798 51.3412 55.1014 56.0781 35.6567 102.514 32.879 29.0251 24.7448 15.3362 14.1526 11.5328 11.0306 6.2351 4.08249 13.3613 3.39648
threshold=0 0.038523576211249806 1 0.055244170290077339 0.23959407766620691 2 3 1.0371022810441444 1.1090956453450358 0.077488688636079286 1.5976457774588784 1.8229097942860777 7.642642468600811 0.30575232914140743 4 4.1258739204834169 1.4580717520180499 1.2149135387065118 1.1226703995642955 0.075204611577888367 0.30289362645037216 1.0040469409167749 1.714638309249199 1.723295995269311 1.8700941708185035 1.1411388181101374 5 1.1976004763597234 0.96428571428571441 0.02816849816849817
decision_type=9 2 9 2 2 9 9 2 2 2 2 2 2 2 9 2 2 2 2 2 2 2 2 2 2 2 9 2 2 2
left_child=-1 -2 -3 27 6 -6 -5 19 25 -10 17 -12 13 20 -15 16 -16 18 -11 -8 -7 -18 -13 -17 -14 -9 -23 28 -4 -19
right_child=1 2 3 4 5 12 7 8 9 10 11 22 24 14 15 23 21 29 -20 -21 -22 26 -24 -25 -26 -27 -28 -29 -30 -31
leaf_value=-0.040760027309559549 -0.036130249579437078 -0.03215172899784529 -0.037569793574512005 -0.033986512199044229 -0.025674586200791896 -0.043289632126688959 -0.038270785436034203 -0.038083109036087991 -0.038231793940067288 -0.032460854053497315 -0.039706497937440875 -0.031236849650740625 -0.0061529811471700696 -0.048697611913084984 -0.034408400319516662 -0.092228101815567759 -0.050131109580397605 -0.032783627733588221 -0.03992768742144108 -0.033257630839943889 -0.026927742287516595 -0.053254579529166221 -0.033624103069305418 -0.048234661743044853 -0.040742629244923591 -0.039161467924714088 -0.045235039219260212 -0.037583348453044889 -0.035083071552217009 -0.029773432835936545
leaf_weight=2865.1805113554001 635.96084837708622 1030.2991712093353 42.033691350370646 244.42449188232422 579.20186054706573 56.401077562011778 30.731712436303496 25.417307212948799 95.005669324658811 85.925075750797987 93.293829403817654 42.368260557763278 40.737415313720703 244.42449188232422 42.072346059605479 122.42865627072752 42.488894321024418 174.12258576601744 58.57461463008076 259.76757577434182 42.832322238944471 17.342460975050926 30.490901881828904 19.300202758982778 15.326325746253131 148.80740638449788 173.94389067450538 130.26343526411802 19.734511021524668 60.098597561940551
leaf_count=77 565 30 11 6 21 592 280 246 151 47 126 30 1 6 16 8 11 121 161 141 28 42 447 570 632 259 2404 103 152 185
internal_value=-0.0371669 -0.028653 -0.0320226 -0.0357044 -0.0338226 -0.040592 -0.026815 -0.0312167 -0.0376673 -0.0314575 -0.0260207 -0.0446269 -0.0489037 -0.051517 -0.0551429 -0.047849 -0.0402934 -0.0178577 -0.0295773 -0.0129344 -0.0273287 -0.0460317 -0.0197179 -0.0633082 -0.0155126 -0.0604743 -0.0414317 -0.0625329 -0.0561807 -0.0106274
internal_weight=7469 4603.82 3967.86 2937.56 2745.53 1396.5 1349.03 1104.6 814.104 639.88 544.874 166.153 817.298 761.234 662.001 417.576 275.848 378.721 144.5 290.499 99.2334 233.775 72.8592 141.729 56.0637 174.225 191.286 192.032 61.7682 234.221
internal_count=7469 7392 6827 6797 6531 4331 2200 2194 1773 1268 1117 603 4310 3677 3057 3051 2473 514 208 421 620 2457 477 578 633 505 2446 266 163 306
cat_boundaries=0 90 179 219 293 367 450
cat_threshold=0 0 0 8388608 0 0 0 0 0 0 0 0 0 0 0 0 0 0 0 0 0 0 0 8388608 0 0 0 0 0 0 0 0 0 4194304 0 0 0 0 512 0 0 0 33554688 0 268435456 0 0 0 0 0 0 4 0 0 0 4096 0 0 0 0 0 0 0 0 0 0 65536 0 0 0 0 0 0 0 0 0 0 131072 0 0 0 0 0 0 0 0 268435456 0 0 524288 0 0 0 0 0 0 0 0 0 2048 0 0 0 0 0 0 0 0 0 0 0 0 0 0 0 0 0 0 0 0 0 0 0 0 0 0 0 0 0 0 0 0 2 0 0 0 0 0 0 0 0 0 0 0 0 0 0 0 0 0 0 0 0 0 0 0 0 0 536870912 0 4 0 0 0 0 0 0 0 0 0 0 0 0 0 0 0 0 0 268435456 0 0 0 0 0 0 0 0 0 0 0 0 0 0 0 0 0 256 0 0 0 0 0 0 65536 0 0 67108864 0 0 0 0 0 0 0 0 0 2147483648 0 2048 0 0 0 0 0 0 0 0 0 0 0 0 0 0 0 0 0 0 0 0 0 0 0 0 0 0 0 0 0 0 0 0 0 0 0 0 0 0 0 0 0 0 0 0 0 0 0 0 0 0 0 0 0 0 0 0 0 0 0 0 0 0 0 0 0 0 0 0 0 65536 0 0 0 536870912 0 0 0 0 0 0 0 0 0 0 0 0 0 0 0 0 0 0 0 256 0 0 0 0 0 0 0 0 0 0 0 0 0 0 0 0 0 0 0 0 0 0 0 0 0 0 0 0 0 0 0 0 0 0 0 0 0 0 0 0 0 0 0 0 0 0 0 0 0 65536 0 0 0 536870912 0 0 0 0 0 0 0 0 0 268435456 0 0 0 0 4096 0 0 0 33554432 0 512 0 0 0 0 0 0 0 0 0 0 0 0 0 0 0 0 0 131072 16 0 0 0 0 0 0 0 0 0 4194304 0 0 0 0 0 0 0 0 16384 0 0 0 0 0 0 0 0 0 0 0 0 0 0 0 0 0 0 0 0 0 0 0 2048
is_linear=0
shrinkage=1


Tree=1
num_leaves=31
num_cat=4
split_feature=11 8 8 11 11 8 9 9 9 10 11 6 6 8 7 8 8 6 8 6 3 9 9 7 3 7 4 1 3 7
split_gain=906.693 545.333 328.215 249.582 178.42 113.005 91.1368 182.851 140.023 111.841 100.042 83.5525 120.624 76.6132 137.957 99.4209 111.089 69.6455 74.3156 93.037 50.7899 76.1057 47.3781 55.5445 44.6999 24.1882 13.6789 13.2093 12.6966 10.4397
threshold=0 0.039993747948742449 0.090993394695237165 1 2 0.10078443506307468 0.78747224934689319 0.88917777237555062 0.73045616154962878 0.14044269212485719 3 1.0120319011063943 1.0331545229183907 2.5612323166552025 4.1258739204834169 0.18514728193478594 0.12599098892444663 1.1030763540387736 0.40448815724630044 4.1852918924467275 0.027847249590638428 1.202012809674023 1.2050797320343494 3.1107615732213394 0.11958772444807757 3.0699684827442346 4.8928571428571432 0.93704562129399016 5.8527097712436121e-05 1.0688626384332351
decision_type=9 2 2 9 9 2 2 2 2 2 9 2 2 2 2 2 2 2 2 2 2 2 2 2 2 2 2 2 2 2
left_child=-1 -2 4 -4 -3 -5 8 27 -7 10 -9 -12 -13 14 15 16 28 -17 24 22 -21 -22 -20 25 -19 -24 -16 -8 -14 -6
right_child=1 2 3 5 29 6 7 9 -10 -11 11 12 13 -15 26 17 -18 18 19 20 21 -23 23 -25 -26 -27 -28 -29 -30 -31
leaf_value=-0.006539403440347231 0.00090747972722165289 -0.0012257109543615927 0.0061014301025847772 0.0039874949567019939 -0.00039096485786139964 -0.012130457850089588 -0.0059315491634517083 -0.010945531432087523 0.012135424158098646 0.0057519907481968406 -0.0029427301844889269 0.006113402467221021 0.0044962362033218965 0.03008334319666028 -0.015947728784409771 -0.0019348889775574207 -0.0028038744050174124 -0.0049985543958842756 -0.011381472312659026 0.038969371459009597 0.0091681977194637866 -0.021556166799655475 -0.00094265337511897094 0.024309307476999709 0.0080872737050056449 -0.027808125474927475 -0.0038919843614101412 -0.0037199249155819413 0.0031859996996819974 -0.00059530192791513309
leaf_weight=1629.4966125488281 762.57108427863568 285.16190719604492 1514.4026396274567 133.84233143087476 70.719623237848282 77.297375582158566 290.60543442843482 244.42449188232422 228.12769267661497 141.01264762366191 93.318992856889963 185.46056696027517 40.970852516591549 93.067181820515543 168.87605994194746 63.807936295866966 198.48136036004871 49.115463954396546 87.570259462110698 128.87486057169735 42.015100659336895 49.25301040103659 65.580016181338578 41.831939006224275 213.53846847638488 41.43205526098609 18.216032038908452 32.445504277478904 24.574231418780982 452.90840852167457
leaf_count=40 598 7 40 118 222 450 470 6 298 289 113 198 4 383 91 197 354 509 100 120 21 164 852 21 145 12 551 364 243 489
internal_value=0.000337001 0.00586242 0.00231939 0.00563985 -0.0152033 0.000230777 -0.00114199 -0.0031746 0.0142608 0.000221642 -0.00174097 0.00103156 0.00273757 -0.000429257 -0.0024086 0.00183131 -0.0140886 0.00719934 0.0098643 0.00254992 0.0165841 -0.000539029 -0.0105183 -0.000217159 0.0225785 -0.0116753 -0.0261369 -0.0241104 0.0197742 -0.025333
internal_weight=7469 5839.5 5076.93 4268.14 808.79 2753.74 2619.9 2314.47 305.425 1991.42 1850.41 1605.98 1512.67 1327.2 1234.14 1047.05 264.026 783.019 719.211 456.557 220.143 91.2681 236.414 148.844 262.654 107.012 187.092 323.051 65.5451 523.628
internal_count=7469 7429 6831 6113 718 6073 5955 5207 748 4373 4084 4078 3965 3767 3384 2742 601 2141 1944 1290 305 185 985 885 654 864 642 834 247 711
cat_boundaries=0 87 158 247 317
cat_threshold=0 0 0 0 0 0 0 0 0 0 0 0 0 0 0 0 0 0 0 0 0 0 0 8388608 0 0 0 0 0 0 0 0 0 0 0 0 0 0 512 0 0 0 33554688 0 0 0 0 0 0 0 0 0 0 0 0 0 0 0 0 0 0 0 0 0 0 0 65536 0 0 0 0 0 0 0 0 0 0 131072 0 0 0 0 0 0 0 0 268435456 0 0 0 0 0 0 0 0 0 2048 0 0 0 0 0 0 0 0 0 256 0 0 0 0 65536 0 0 67108864 0 0 0 0 0 0 0 0 0 0 0 0 0 0 2 0 0 0 0 0 0 0 0 4 0 0 0 4096 0 0 0 0 0 0 0 0 0 0 0 0 536870912 0 4 0 0 0 0 0 0 0 0 0 0 0 0 0 0 0 0 0 0 0 0 0 0 134217728 0 0 0 0 0 0 0 0 0 0 0 0 0 0 0 0 0 0 0 0 0 0 0 0 0 0 0 0 0 0 0 0 0 0 0 0 0 0 0 0 0 0 0 0 0 0 65536 0 0 0 0 0 0 0 0 0 0 0 0 0 0 0 0 0 0 268435456 0 0 0 0 0 0 0 0 0 0 0 0 0 0 0 0 0 0 0 0 0 0 134217728 0 0 0 0 0 0 0 0 0 0 0 0 0 0 0 0 2048 0 0 0 0 0 0 0 0 0 0 0 0 0 0 0 0 0 0 0 0 0 0 0 0 0 0 0 0 0 65536
is_linear=0
shrinkage=0.03


Tree=2
num_leaves=31
num_cat=0
split_feature=8 9 9 9 10 9 8 6 6 0 6 10 9 7 9 0 8 9 0 6 9 9 4 0 9 7 9 10 7 6
split_gain=900.327 372.843 166.202 268.746 157.975 156.704 117.804 116.6 117.189 131.948 109.114 96.4878 131.29 133.845 96.9388 111.975 95.0652 189.571 175.258 141.949 109.037 98.2198 91.4498 89.3365 161.815 127.525 98.9562 86.8634 130.676 100.949
threshold=0.039993747948742449 1.7858156115774231 0.78747224934689319 0.88917777237555062 0.14044269212485719 0.73045616154962878 0.055244170290077339 1.0087481548123469 1.0252505433100225 0.60380736442455774 1.0129354910400241 -0.42235300577024454 1.234833579744087 0.83102790233148915 1.6637897053431472 0.91095858107967242 0.11022453253586685 0.93558226105528741 0.74564709034055643 2.8555354109696678 0.92393920787584849 1.1936184605482627 1.1071428571428574 0.57534904906357698 1.1288927238394242 1.7419838272867352 1.1764315576377407 -1.0416195922168128 4.4177508219748587 7.642642468600811
decision_type=2 2 2 2 2 2 2 2 2 2 2 2 2 2 2 2 2 2 2 2 2 2 2 2 2 2 2 2 2 2
left_child=-1 2 5 -4 6 -2 -5 -8 10 23 -9 14 16 -14 15 -11 17 -13 -19 20 -18 -22 -20 24 25 -10 -26 28 -28 -30
right_child=1 -3 3 4 -6 -7 7 8 9 11 -12 12 13 -15 -16 -17 19 18 22 -21 21 -23 -24 -25 26 -27 27 -29 29 -31
leaf_value=0.0014297965862075798 -0.011766544114586899 -0.31675343376451448 -0.0049957029571505284 -0.0003792359121255576 0.0055794310257509354 0.011771361433355687 -0.0050973093216987349 -0.0028544482789542589 0.0039371611797989004 -0.0096688232605978836 0.0039592639419129142 -0.0012611833220096324 -0.0041939940755935405 0.0094591712798422819 0.055749250828686168 -0.015925387325011035 0.0043816635744453065 -0.00057744287007767913 0.0012704392371280144 0.0063775082560479637 -0.0031311003571124767 -0.001876842308230698 0.0038678701080009344 0.0073110696520155907 0.010976960183968551 -0.0026466109929799446 0.038085739609459886 -0.0078492285018535342 -0.033065164087325336 0.029180842900760472
leaf_weight=844.04591490607709 77.297375582158566 462.84608842618763 567.47543058823794 311.78324210178107 181.75006293738261 309.60252330405638 135.48272593691945 128.56625135242939 46.394338387995958 198.56371952220798 384.39038667827845 135.26658111251891 56.466127548366785 216.95829205028713 45.432153608649969 391.18795301485807 132.17815882712603 87.676529950462282 173.76251904666424 168.71086418628693 555.04691922385246 178.70334966666996 306.19933481607586 300.28112955950201 168.69409766001627 217.12184090679511 211.7522667106241 340.44155360478908 85.833653749898076 49.088756528217345
leaf_count=600 450 174 840 240 290 300 108 64 55 682 157 94 144 157 72 329 98 87 88 136 576 139 248 178 120 296 150 225 90 282
internal_value=0.000307188 -0.00341058 -0.00146008 -0.00273531 -0.000599034 0.0175752 -0.00159265 -0.000411476 0.000400115 -0.00130464 0.0139122 -0.00526312 -0.00204356 0.0172799 -0.0154561 -0.018709 -0.00508434 0.0034292 0.0110345 -0.0108682 -0.015773 -0.0202913 0.0181592 0.00607398 0.00217602 -0.0183799 0.00850548 0.00345086 0.0140211 -0.00905324
internal_weight=7469 6624.95 6162.11 5775.21 5207.73 386.9 5025.98 4714.2 4578.72 4065.76 512.957 2646.15 2010.97 273.424 635.184 589.752 1737.54 702.905 567.638 1034.64 865.928 733.75 479.962 1419.61 1119.33 263.516 855.81 687.116 346.675 134.922
internal_count=7469 6869 6695 5945 5105 750 4815 4575 4467 4246 221 2850 1767 301 1083 1011 1466 517 423 949 813 715 336 1396 1218 351 867 747 522 372
is_linear=0
shrinkage=0.03


Tree=3
num_leaves=31
num_cat=0
split_feature=8 9 3 8 8 3 9 0 4 0 10 9 8 8 9 8 7 8 4 10 8 7 3 7 8 10 9 9 10 7
split_gain=887.991 356.057 219.58 281.456 183.671 187.83 205.159 160.43 116.11 118.73 140.708 173.605 108.74 109.838 97.1975 94.9957 187.649 93.5355 106.006 92.3162 163.981 69.835 140.547 65.4941 107.062 100.854 140.939 119.443 129.893 105.802
threshold=0.038523576211249806 1.7858156115774231 0.0027510299452745499 0.090993394695237165 0.1055281131592385 0.0061631935624803158 0.78747224934689319 0.97970007316673591 0.8928571428571429 0.9053123840932632 -0.34336009979124854 1.2781799248153076 0.45334002956760305 0.11022453253586685 1.3287225715712563 0.2454635906538806 1.2124706224867812 0.063592406737016285 1.3214285714285718 -0.3946399144196549 0.32987148596073573 1.0355515448699728 0.1227456535148843 4.3407540797890976 2.5612323166552025 -0.34336009979124854 1.055982133835921 1.1936184605482627 -1.2560039635789411 3.168811041862261
decision_type=2 2 2 2 2 2 2 2 2 2 2 2 2 2 2 2 2 2 2 2 2 2 2 2 2 2 2 2 2 2
left_child=-1 2 12 7 -5 19 -7 -4 -8 23 -11 15 13 -2 -14 16 21 18 -9 -6 -21 22 -12 25 -25 27 -27 -10 -29 -30
right_child=1 -3 3 4 5 6 8 17 9 10 11 -13 14 -15 -16 -17 -18 -19 -20 20 -22 -23 -24 24 -26 26 -28 28 29 -31
leaf_value=0.0013869026886213524 0.0042453130139822118 -0.30725083075157905 -0.00045742406068586823 0.0036205537332561458 0.018790580207146589 0.011120015856415512 0.0063409855774784361 0.0028506869051254722 0.0097441307253949162 -0.012356663070084359 -0.0027688148305856312 0.0091753961414470144 0.017113303010482375 -0.0031513705152089334 -0.021450698432247912 -0.0068644887480994801 0.0051298735769268041 -0.0010344470609330201 -2.367075334258055e-05 0.0042412838578595579 -0.01049925078237569 -0.0025000726465187043 0.0044022009195253779 -0.013580882477308933 0.028305417613737657 0.0042502136672119472 -0.0035788497879317141 0.036943167421176086 0.011503685130927135 -0.019972575356788622
leaf_weight=800.84785811696202 51.167308003641665 462.84608842618763 451.56081853620708 259.44576856028289 291.57816761173308 295.58353495551273 158.33173396158963 132.02694392949343 252.95905183628201 472.40411318605766 292.94478388130665 123.93617291375995 94.919564608484507 773.95491772703826 50.501953799277544 181.05194493196905 274.97138444613665 214.8137173904106 126.798395216465 259.26976458355784 87.933794064447284 174.62934781610966 246.12302397936583 136.44502442982048 46.363023346755654 134.90580929908901 209.24312502704561 132.06493360549212 153.43528671935201 125.94278658553958
leaf_count=570 118 174 427 159 142 623 320 65 148 321 87 25 217 445 174 225 292 121 45 163 74 88 26 485 230 542 435 181 466 81
internal_value=-0.000328133 -0.00391295 -0.00201967 0.000410269 0.00363341 0.00206589 -0.000729771 -0.0146031 -0.00299579 -0.00433578 -0.00927278 -0.00415567 -0.0151259 -0.0193415 0.00879366 -0.00773293 -0.00407439 -0.00240527 0.00974017 0.0169958 0.00654448 -0.0121869 -0.00684571 0.00298279 -0.0135388 0.00597747 -0.00720389 0.0128052 0.00283148 -0.00875783
internal_weight=7469 6668.15 6205.31 5234.76 4309.56 4050.12 3411.34 925.2 3115.75 2957.42 1766.06 1293.66 970.544 825.122 145.422 1169.72 988.669 473.639 258.825 638.782 347.204 713.697 539.068 1191.36 182.808 1008.55 344.149 664.402 411.443 279.378
internal_count=7469 6899 6725 5771 5113 4954 4575 658 3952 3632 1064 743 954 563 391 718 493 231 110 379 237 201 113 2568 715 1853 977 876 728 547
is_linear=0
shrinkage=0.03


Tree=4
num_leaves=31
num_cat=9
split_feature=11 8 7 8 11 10 9 11 11 0 9 8 7 7 6 9 6 6 7 11 11 6 7 11 11 5 3 9 5 11
split_gain=932.261 332.865 208.746 157.659 190.662 154.266 180.703 188.554 157.989 153.416 103.803 77.4103 90.2922 116.789 97.5141 74.8313 58.1464 95.6108 97.8451 42.6821 38.4495 47.6671 106.221 36.6654 25.5362 11.6617 10.5245 25.6176 8.86771 3.90328
threshold=0 0.038523576211249806 0.85495851666356149 0.090993394695237165 1 -0.12743735087830446 0.92613988911683132 2 3 0.86543121818873558 1.2508815356705154 0.33803382915806518 3.1107615732213394 4.4177508219748587 7.642642468600811 1.0679506690682847 1.0160963739868141 1.0934970637901404 1.5722006122908134 4 5 1.2267326888998979 3.7241297798345498 6 7 1.8700941708185035 0.075204611577888367 1.7184454356703689 1.8700941708185035 8
decision_type=9 2 2 2 9 2 2 9 9 2 2 2 2 2 2 2 2 2 2 9 9 2 2 9 9 2 2 2 2 9
left_child=-1 -2 26 9 -5 8 7 -7 -6 -4 15 -12 24 -14 -15 -10 -11 -18 -19 -9 -17 -22 23 -23 -13 -24 27 -3 -16 -21
right_child=1 2 3 4 5 6 -8 19 10 16 11 12 13 14 28 20 17 18 -20 29 21 22 25 -25 -26 -27 -28 -29 -30 -31
leaf_value=-0.0034926383419464535 0.00089366744729976277 -0.0030804818234443383 -0.00044370133886529207 0.0035758480060878225 -0.010461308444157156 0.0010709338921499477 0.0036646102448311692 -0.0077028791904683652 0.0060322868010587215 -8.018690043826351e-05 0.0089001342572036027 -0.011985963177981828 0.03554942310432023 -0.038265635097137353 0.027456255085325527 -0.020869268873006941 0.0027651662979717084 -0.00018916793241031911 0.0027368320642675043 0.0066239902731318467 -0.0024250704671231428 0.0068531260890677854 -0.019158515176384162 -0.0034736397582542746 -0.0017326040986827477 -0.0086466029331571572 0.0056209929076226507 0.0062329684574470431 -0.0045385705952283853 -0.0033777466589225754
leaf_weight=2620.7560194730759 635.96084837708622 26.530698951333761 281.79968750383705 984.81624054908752 203.68707656860352 244.42449188232422 359.17005247063935 137.32443416118622 47.027725527528673 44.432208802551031 126.11954267229885 81.474830627441406 176.78381824307144 86.955389714799821 40.737415313720703 122.21224594116211 141.13523375242949 92.216622348874807 46.042402969673276 17.767018936574459 102.2080248221755 81.474830627441406 81.55747701972723 69.584195997565985 61.94110412010923 15.158787929452954 346.39544572215527 43.159919984638691 10.871207532938568 139.27514295186847
leaf_count=71 565 249 371 27 5 6 452 23 157 40 50 2 261 128 1 3 162 110 58 71 183 2 3 846 829 403 181 18 355 1837
internal_value=0.001314 0.0090996 0.00606402 0.00385302 0.00651665 0.00156541 0.0111471 0.000159141 -0.00500159 -0.0101796 -0.000386353 0.00827703 0.00255457 0.01153 -0.00909161 -0.0101527 0.00390581 0.00897533 -0.00875582 -0.0157795 -0.0137469 -0.00784723 -0.000960615 0.0147565 -0.0171809 -0.0255089 0.0262363 0.015599 0.023576 -0.00424319
internal_weight=7469 4848.24 4212.28 3796.2 3190.57 2205.75 897.961 538.791 1307.79 605.626 1104.11 584.883 458.764 315.348 138.564 519.223 323.826 279.394 138.259 294.367 472.196 349.983 247.775 151.059 143.416 96.7163 416.086 69.6906 51.6086 157.042
internal_count=7469 7398 6833 6385 5644 5617 2389 1937 3228 741 3223 1626 1576 745 484 1597 370 330 168 1931 1440 1437 1254 848 831 406 448 267 356 1908
cat_boundaries=0 90 161 231 320 394 468 520 558 653
cat_threshold=0 0 0 8388608 0 0 0 0 0 0 0 0 0 0 0 0 0 0 0 0 0 0 0 8388608 0 0 0 0 0 0 0 0 0 4194304 0 0 0 0 0 0 0 0 33554688 0 268435456 0 0 0 0 0 0 0 0 0 0 4096 0 0 0 0 0 0 0 0 0 0 65536 0 0 0 0 0 0 0 0 0 0 131072 0 0 0 0 0 0 0 0 268435456 0 0 524288 0 0 0 0 0 0 0 0 0 0 0 0 0 0 0 0 0 0 0 256 0 0 0 0 65536 0 0 67108864 0 0 0 0 0 0 0 0 0 0 0 0 0 0 2 0 0 0 0 0 0 0 0 0 0 0 0 0 0 0 0 0 0 0 0 0 0 0 0 0 536870912 0 4 0 0 0 0 0 0 0 0 0 0 0 0 0 0 0 0 0 0 0 0 0 0 0 0 0 0 0 0 0 0 0 0 0 0 0 0 0 0 0 2048 0 0 0 0 0 0 0 0 0 0 0 0 0 0 0 0 0 0 0 0 0 0 0 0 0 0 0 0 0 65536 0 0 0 0 0 0 0 0 0 0 0 0 0 0 0 0 0 0 0 0 0 0 0 0 0 0 0 0 0 0 0 0 0 0 0 0 0 0 0 2048 0 0 0 0 0 0 0 0 0 0 0 4 0 0 0 0 0 0 0 0 0 0 0 0 0 0 0 0 0 65536 0 0 0 0 0 0 0 0 0 0 0 0 0 0 0 0 0 0 268435456 0 0 0 0 0 0 0 0 0 268435456 0 0 0 0 4096 0 0 0 0 0 0 0 134217728 0 0 0 0 0 0 0 0 0 0 0 0 0 0 1073741824 131072 16 0 0 0 0 0 0 0 0 0 0 0 0 0 0 0 0 0 0 0 0 0 0 0 0 0 0 0 0 0 0 0 0 0 536870912 0 0 0 0 0 0 0 0 0 2048 0 0 0 0 0 0 0 0 0 0 0 0 0 0 0 0 0 0 0 0 0 0 0 0 0 0 0 2147483648 0 0 0 0 0 0 0 0 0 0 0 0 0 0 0 0 0 0 0 0 0 0 0 0 0 0 0 0 0 0 0 0 0 0 0 536870912 0 0 0 0 0 0 0 0 0 0 0 0 0 0 0 0 0 0 0 0 0 0 0 0 0 0 0 0 0 0 0 0 0 0 0 4194304 0 0 0 0 0 0 0 0 0 0 0 0 0 0 0 536870912 0 0 0 0 0 0 0 0 0 2048 0 0 0 0 0 0 0 0 0 0 0 0 0 0 0 0 0 0 0 0 0 0 0 0 0 0 0 2147483648 0 0 0 0 0 0 0 0 512 0 0 0 0 0 65536 0 0 0 0 0 0 0 0 0 0 0 0 0 0 0 0 0 128 0 0 0 0 134217728 0 0 0 0 0 8192 0 0 0 2048 0 0 0 0 4160 0 0 67108992 0 0 0 128 0 0 0 0 1 0 0 0 0 0 0 0 0 0 0 0 0 0 0 0 0 0 1048576 0 0 0 0 0 0 0 0 0 0 0 16384
is_linear=0
shrinkage=0.03


Tree=5
num_leaves=31
num_cat=0
split_feature=7 4 3 9 9 10 10 7 3 3 7 10 7 6 6 10 1 0 6 9 10 10 3 10 10 7 0 9 9 9
split_gain=354.635 244.791 185.858 172.059 224.105 169.411 349.282 347.879 269.353 153.367 228.189 192.674 159.111 102.369 181.382 114.364 97.3782 145.27 94.4259 101.475 87.4311 106.928 82.4439 82.2551 124.164 99.9686 82.0586 90.5848 146.343 67.5268
threshold=5.3239431371929999 0.82142857142857151 0.0027510299452745499 0.97217506327372161 1.0535890726194992 -0.035951329120474933 0.046680386263115776 1.2124706224867812 0.0061631935624803158 0.11831395203106802 1.0463202776545966 -1.2560039635789411 1.559707902512028 1.5813544122757672 1.6623039250502245 0.083036373023086765 0.86470893243519253 1.0496913126495104 2.0535807725067214 1.3287225715712563 -0.3946399144196549 -0.12323352722905599 0.027675941080196404 -0.17847734305883647 -0.40615015861960185 3.7624797922983415 0.81649658092772281 1.1288927238394242 1.1795227275187712 1.5061061185047027
decision_type=2 2 2 2 2 2 2 2 2 2 2 2 2 2 2 2 2 2 2 2 2 2 2 2 2 2 2 2 2 2
left_child=1 -1 3 -3 -5 8 -7 16 20 11 -11 29 -12 22 -15 -16 -8 -18 -6 -20 -4 -22 -9 24 25 -14 27 -13 -29 -10
right_child=-2 2 5 4 18 6 7 13 9 10 12 26 23 14 15 -17 17 -19 19 -21 21 -23 -24 -25 -26 -27 -28 28 -30 -31
leaf_value=0.0034539851276818721 -0.31844978598663459 -0.0029504334309300067 0.018119587360749558 0.0020645440326709091 -0.003868853987611073 0.00079418778919463728 -0.0010208032683846509 0.0069407013237517282 0.034482940411190627 0.0054523631203939708 -0.0023523183531094487 -0.0025671226097352291 -0.013205139481474325 -0.0074717928147543149 -0.0013184252662025969 0.0051746033776171136 0.0030199854556349089 -0.0012628746900314417 0.01504498446316049 -0.020702398329022081 -0.0041449113858718547 0.0037180230455986802 0.0040154318170129545 -0.00044161771189637881 0.010818161021154189 0.0089956717141943567 -0.0030013953664999858 0.010248052016505013 -0.015521830494127071 -0.005202374012513734
leaf_weight=366.10014382004738 347.07794092409313 476.69629604741931 290.35378586687148 173.88338737748563 301.72133892402053 634.4188300864771 299.34131208062172 447.68386329896748 127.84683225490153 501.30165559239686 213.01990736089647 152.5715663600713 92.667696860153228 126.71415309049189 43.542642928659916 190.05356748122722 93.294119101017714 92.076393637806177 94.067950036376715 46.811515795066953 210.64564641937613 126.75511888600886 195.84677750337869 166.85265140607953 168.25420141778886 43.377258123829961 939.44402714632452 140.92537263873965 194.01753179822117 171.63665723055601
leaf_count=349 926 286 103 110 199 535 90 341 118 142 127 307 188 53 41 449 109 102 127 105 84 54 742 61 86 75 828 129 452 151
internal_value=0.00131941 0.00276251 0.00146777 -0.00985718 0.000608662 0.00365407 0.0103543 0.00241026 -0.000364526 -0.00420696 0.00410164 -0.00991212 -0.00716489 0.012488 -0.000315226 0.0153617 -0.0184608 -0.00137349 -0.0107286 0.00955008 0.0174591 0.00707304 0.0196565 0.00256299 0.0118449 -0.00946637 -0.0145034 -0.00451681 0.00421103 0.0119643
internal_weight=7469 7121.92 6755.82 1093.18 616.484 5662.64 2122.97 1488.55 3539.67 2911.92 1185.47 1726.44 684.172 1003.84 360.31 233.596 484.712 185.371 442.601 140.879 627.755 337.401 643.531 471.152 304.299 136.045 1426.96 487.514 334.943 299.483
internal_count=7469 6543 6194 827 541 5367 2462 1927 2905 2664 679 1985 537 1626 543 490 301 211 431 232 241 138 1083 410 349 263 1716 888 581 269
is_linear=0
shrinkage=0.03


Tree=6
num_leaves=31
num_cat=3
split_feature=11 8 11 8 8 6 6 11 10 1 8 7 10 7 6 7 7 5 7 9 7 3 3 7 7 3 5 5 5 3
split_gain=917.569 377.714 224.376 179.019 175.155 120.126 190.47 169.938 201.045 156.246 155.892 105.162 94.3548 117.654 139.125 75.8101 80.5883 60.2329 68.6023 42.328 58.09 35.0328 34.0912 33.4933 21.4426 20.6346 13.5067 3.75128 4.04665 16.58
threshold=0 0.039993747948742449 1 0.090993394695237165 0.1055281131592385 1.5813544122757672 1.9504734500210807 2 -0.18789242525067215 1.2602881433419142 0.39222385192013837 0.99371521913790994 -2.5574776934612116 3.8056449261418561 4.3141636443850437 0.85495851666356149 1.3873900827119867 1.4769288003552161 1.559707902512028 1.2050797320343494 3.1107615732213394 0.11958772444807757 0.066227064471578598 1.3919610186659386 3.0699684827442346 0.024063616689315014 2.6447127432871684 2.29786790529193 1.1883130530663675 0.62448029759435719
decision_type=9 2 9 2 2 2 2 9 2 2 2 2 2 2 2 2 2 2 2 2 2 2 2 2 2 2 2 2 2 2
left_child=-1 -2 -3 11 -5 7 27 -6 22 10 25 -4 -12 14 19 -10 21 -13 -19 -14 24 -17 -9 -18 -21 -8 -15 28 -7 -30
right_child=1 2 3 4 5 6 9 8 15 -11 12 17 13 26 -16 16 23 18 -20 20 -22 -23 -24 -25 -26 -27 -28 -29 29 -31
leaf_value=-0.0029478410894039496 0.00074658325603662787 0.0041170266982276113 0.0025186404154207381 0.0032931209897078661 0.0044504238196533671 -0.0024901089314431726 -0.0031144586124749463 -0.0023531605570454779 0.0052887922267821517 -0.0086397159559047434 0.025598079220430045 -0.0009598523704317767 -0.0091693343807919547 -0.012521686869406082 0.033448452198854901 -0.0023504146757154427 0.0093692995004721405 -9.3451033443009901e-05 0.0024465060626269273 0.00032144897051754909 0.022869566775511715 -0.0022844599454780457 0.0059423598498931753 -0.0053467748208022641 -0.026258281599388592 0.0055267733663923336 -0.0062092031230920929 -0.0072476390303116856 -0.0025088310442145526 -0.0073790441227134119
leaf_weight=2484.9823341369629 721.83366896491498 1140.6476287841797 57.138095024973154 261.25314880162477 285.16190719604492 92.499901313334703 23.991754940710962 35.79494770616293 43.435343481600285 128.10276689566672 92.866408477071673 324.9932978739962 92.159614631906152 172.65986678563058 132.90089163929224 83.505628684535623 42.796679589897394 49.224767994135618 51.534455552697182 46.555367596447468 42.277087697759271 221.75831226818264 227.75486685521901 73.916883986443281 41.43205526098609 274.69079388026148 19.91712932754308 127.80594377126545 34.67117706220597 40.737415313720703
leaf_count=61 597 28 123 180 7 77 330 344 25 155 377 346 183 153 184 649 22 92 149 679 31 167 231 728 12 429 694 82 333 1
internal_value=0.001636 0.00905415 0.0056736 0.00147786 0.004556 0.00199374 -0.00382253 0.00981244 0.00188937 0.00207928 0.0063174 -0.0153113 -0.00202614 -0.00676562 0.00346878 -0.0099404 -0.013825 -0.0204401 -0.000174701 -0.0110418 -3.39337e-05 -0.0219315 0.0228517 0.00737765 -0.0139207 0.0242169 -0.0256492 -0.0251285 -0.0221806 -0.0170225
internal_weight=7469 4984.02 4262.18 3121.54 2638.65 2377.39 1363.27 1014.12 728.963 1067.55 939.451 482.891 640.768 547.902 355.325 465.413 421.978 425.753 100.759 222.424 130.265 305.264 263.55 116.714 87.9874 298.683 192.577 295.714 167.908 75.4086
internal_count=7469 7408 6811 6783 6073 5893 3720 2173 2166 3227 3072 710 2313 1936 1089 1591 1566 587 241 905 722 816 575 750 691 759 847 493 411 334
cat_boundaries=0 87 176 246
cat_threshold=0 0 0 8388608 0 0 0 0 0 0 0 0 0 0 0 0 0 0 0 0 0 0 0 8388608 0 0 0 0 0 0 0 0 0 0 0 0 0 0 0 0 0 0 33554688 0 268435456 0 0 0 0 0 0 4 0 0 0 4096 0 0 0 0 0 0 0 0 0 0 65536 0 0 0 0 0 0 0 0 0 0 131072 0 0 0 0 0 0 0 0 268435456 0 0 0 0 0 0 0 0 0 2048 0 0 0 0 0 0 0 0 0 0 0 0 0 0 0 0 0 0 0 0 0 0 0 0 0 0 0 0 512 0 0 0 0 0 0 0 0 0 0 0 0 0 0 0 0 0 0 0 0 0 0 0 0 0 0 0 0 0 536870912 0 4 0 0 0 0 0 0 0 0 0 0 0 0 0 0 0 0 0 268435456 0 0 0 0 0 0 0 0 0 0 0 0 0 0 0 0 0 0 0 256 0 0 0 0 0 0 0 67108864 0 0 0 0 0 0 0 0 0 0 0 2048 0 0 0 0 0 0 0 0 0 0 0 0 0 0 0 0 0 0 0 0 0 0 0 0 0 0 0 0 0 65536
is_linear=0
shrinkage=0.03


Tree=7
num_leaves=31
num_cat=5
split_feature=11 8 8 11 7 8 9 9 6 7 11 6 8 7 7 7 9 8 5 11 11 5 4 8 7 7 3 3 6 5
split_gain=860.486 358.311 245.696 188.637 152.529 202.663 152.347 139.078 162.271 193.249 134.282 89.4811 193.216 80.7941 70.2373 105.846 42.5721 32.9901 74.0004 30.5009 34.6838 23.9489 19.1739 12.3486 24.0658 9.7232 17.399 8.65784 11.3559 6.51445
threshold=0 0.039993747948742449 0.090993394695237165 1 0.85495851666356149 0.12599098892444663 0.9202929215686827 0.78747224934689319 1.1001654294649301 1.0463202776545966 2 3.8506893897740921 0.21562873135283248 1.0645246171137834 3.1107615732213394 4.3407540797890976 0.73045616154962878 0.14188258102484544 2.4662547757670796 3 4 2.2446517632945509 3.9642857142857149 0.2221566207724667 0.59063479706506394 1.1068808829714565 0.014770253002811144 0.11646240375522145 1.0120319011063943 2.4348647470335876
decision_type=9 2 2 9 2 2 2 2 2 2 9 2 2 2 2 2 2 2 2 9 9 2 2 2 2 2 2 2 2 2
left_child=-1 -2 10 -4 23 6 -6 16 27 -10 -3 12 13 -11 -13 -16 -7 18 -15 -14 -21 -19 -17 -5 -25 26 -12 28 -9 -18
right_child=1 2 3 4 5 7 -8 8 9 11 25 14 19 17 15 22 29 21 -20 20 -22 -23 -24 24 -26 -27 -28 -29 -30 -31
leaf_value=-0.0035225605174820686 0.00074796465783769951 -0.0011840298117011161 0.0030537892950359626 0.0057002358735981527 -0.0012375305636987187 -0.011496805363901229 0.0032792473543985373 -0.0024053800722951767 0.0068199686110497239 -0.0022132150041518236 -0.00022198764066730305 -0.025470533151406936 -0.009151119285438495 0.0046021155985523495 0.032444998632889258 -0.010840026871736051 0.0090882205154579742 0.0049470936217869549 -0.0020494267599128874 -0.0082082281267513244 -0.0052414846264961772 0.0049819195242111914 0.0029904282927292339 0.005764089054396378 -0.0030534315377927024 -0.00096138359922015809 0.0012608142878301439 -0.0028229182728228669 -0.0022799022354439797 0.010710758343595899
leaf_weight=2647.9319953918457 681.09625365119427 285.16190719604492 977.69796752929688 214.1842886544764 57.853073019534349 36.559960268437862 353.53699738904834 44.421124573796988 174.89835801254958 43.598456889390945 50.401137266308069 49.711788766086102 285.16190719604492 50.6026048399508 184.77795300725847 40.971444722265005 61.89690680988133 37.065669788978994 41.826756609603763 81.474830627441406 138.315363004338 126.05909532494843 33.671866063494235 48.193804498761892 31.495725563727319 282.41437310259789 27.862860135734081 213.86406912282109 40.798231916502118 125.49337055301294
leaf_count=65 596 7 24 100 127 449 314 36 113 8 100 130 7 101 408 12 228 377 11 2 1684 66 1088 58 287 412 195 91 304 69
internal_value=0.00129891 0.00883838 0.00553941 0.00868147 0.00426698 0.00159823 0.0206061 -0.00271924 -0.00584193 -0.00121984 -0.0114598 -0.00582556 -0.0110992 0.00800664 0.00789199 0.0141518 0.0194124 0.0144462 0.000126787 -0.0224182 -0.0120338 0.0225599 -0.0159981 0.0245958 0.0145139 -0.0232636 -0.0145518 -0.025749 -0.0176631 0.0251899
internal_weight=7469 4821.07 4139.97 3494.13 2516.43 2222.56 411.39 1811.17 1587.22 1288.14 645.84 1113.24 804.105 299.153 309.133 259.421 223.95 255.554 92.4294 504.952 219.79 163.125 74.6433 293.874 79.6895 360.678 78.264 299.083 85.2194 187.39
internal_count=7469 7404 6808 6094 6070 5625 441 5184 4438 4007 714 3894 2256 563 1638 1508 746 555 112 1693 1686 443 1100 445 345 707 295 431 340 297
cat_boundaries=0 87 158 247 321 359
cat_threshold=0 0 0 8388608 0 0 0 0 0 0 0 0 0 0 0 0 0 0 0 0 0 0 0 8388608 0 0 0 0 0 0 0 0 0 0 0 4194304 0 0 0 0 0 0 33554688 0 268435456 0 0 0 0 0 0 0 0 0 0 4096 0 0 0 0 0 0 0 0 0 0 65536 0 0 0 0 0 0 0 0 0 0 131072 0 0 0 0 0 0 0 0 268435456 0 0 0 0 0 0 0 0 0 0 0 0 0 0 0 0 0 0 0 0 0 0 0 0 65536 0 0 67108864 0 0 0 0 0 0 0 0 0 0 512 0 0 0 0 0 0 0 0 0 0 0 0 0 0 0 0 0 0 0 0 0 0 0 0 0 0 0 0 0 536870912 0 4 0 0 0 0 0 0 0 0 0 0 0 0 0 0 0 0 0 0 0 0 0 0 134217728 0 0 0 0 0 0 0 0 0 0 0 0 0 0 0 0 0 0 0 0 0 0 0 0 0 0 0 0 0 0 0 0 0 0 0 0 0 0 0 0 0 0 0 0 0 0 65536 0 0 0 0 0 0 0 0 0 0 0 0 0 0 0 0 0 0 268435456 0 0 0 0 0 0 0 0 0 2048 0 0 0 0 0 0 0 0 0 0 0 0 0 0 0 0 0 0 0 0 0 0 0 0 0 0 0 0 0 2048 0 0 0 0 0 0 0 0 0 0 0 0 0 0 0 0 0 0 0 0 0 0 0 0 0 0 0 0 0 65536 0 0 0 536870912 0 0 0 0 0 0 0 0 0 0 0 0 0 0 0 0 0 0 0 256 0 0 0 0 0 0 0 0 0 0 0 0 0 0 0 0 0 2147483648
is_linear=0
shrinkage=0.03


Tree=8
num_leaves=31
num_cat=5
split_feature=11 8 8 11 7 11 9 8 9 11 9 7 7 10 8 7 7 3 8 9 7 11 5 3 1 1 7 7 5 1
split_gain=876.321 365.888 284.158 196.62 145.627 130.997 130.712 192.779 175.672 197.071 67.9191 65.7 114.404 61.5557 100.148 172.757 44.0104 60.2307 78.5331 86.4535 47.4819 37.3746 36.9762 35.0609 19.6157 18.0285 16.7291 12.3165 7.27729 16.3192
threshold=0 0.039993747948742449 0.090993394695237165 1 1.0463202776545966 2 1.0967491040241326 0.65400917993234431 0.92613988911683132 3 0.79583773885913656 4.3407540797890976 3.1107615732213394 -0.18789242525067215 0.12771684419151172 0.85495851666356149 1.5722006122908134 0.018796773640499347 0.063592406737016285 0.93818323610709387 1.0763413821638885 4 1.1507283885330304 0.069554999365042627 0.66912219380362414 0.77946020084091294 3.0699684827442346 4.5225569635401257 2.29786790529193 0.84730072769011611
decision_type=9 2 2 9 2 9 2 2 2 9 2 2 2 2 2 2 2 2 2 2 2 9 2 2 2 2 2 2 2 2
left_child=-1 -2 5 -4 13 -3 8 24 9 -6 22 12 26 23 -15 -16 17 20 -19 -20 -7 -12 -11 -5 -8 -10 -9 -13 29 -26
right_child=1 2 3 4 6 16 7 11 25 10 21 27 -14 14 15 -17 -18 18 19 -21 -22 -23 -24 -25 28 -27 -28 -29 -30 -31
leaf_value=-0.0037583421974282916 0.0007255257181025686 -0.0010195985003032463 0.0066063006043841433 -0.0025522362684427063 0.00074226793547803262 3.1953616843703073e-05 0.0065294268821272936 -0.0056361902541085035 0.0023210024548266212 0.0088155738999942355 -0.0068730061495790385 -0.01051482606558397 0.031471648673902584 0.0036817658006443759 -0.002355143278394397 -0.0023332186701263214 0.0024086317750991533 0.0021316380104341066 0.0028413959853700673 -0.00084360571318905738 -0.00016177058479050827 -0.0025793613370106816 -0.0099879476602748422 0.0061010915589556451 0.0060499247451614698 0.0033745922190091628 -0.024706417156864727 -0.007833023045448053 -0.0086197207708050404 -0.0079619812829487824
leaf_weight=2484.9823341369629 681.09625365119427 244.42449188232422 1140.6476287841797 31.45017496496439 244.42449188232422 89.664286967366934 24.409242590889335 35.405489111784846 23.004329688847065 43.55515893176198 203.68707656860352 44.03356390632689 178.98792334226891 134.14892241358757 84.172758795320988 143.69865106418729 54.761486805975437 105.87955073267221 47.461727548390627 94.286220076493919 131.57475962862372 112.05600487114862 63.092647074256092 309.94008036889136 24.020025283098221 258.40818737214431 41.713494587689638 21.450777501333505 210.93705346714705 161.62534749461338
leaf_count=61 596 6 28 297 6 90 291 534 453 32 5 52 308 117 26 145 182 174 51 121 93 1130 770 229 267 209 16 697 130 353
internal_value=0.00129715 0.00854738 0.00533061 0.0089242 0.00397121 -0.0112084 -0.000784384 -0.0102101 0.00659717 -0.00179135 -0.0140683 0.00727883 0.0141354 0.0154588 0.00684077 -0.00526591 -0.00239104 -0.00540906 0.0047543 -0.00984715 -0.0167847 -0.0213928 0.00629775 0.0245977 -0.0235698 0.026474 -0.0164111 -0.0195372 -0.0251763 -0.0208445
internal_weight=7469 4984.02 4302.92 3534.87 2394.22 768.053 1690.81 742.583 948.228 666.815 422.391 321.591 256.107 703.411 362.02 227.871 523.628 468.867 247.627 141.748 221.239 315.743 106.648 341.39 420.992 281.413 77.119 65.4843 396.582 185.645
internal_count=7469 7408 6812 6095 6067 717 5253 2648 2605 1943 1937 1607 858 814 288 171 711 529 346 172 183 1135 802 526 1041 662 550 749 750 620
cat_boundaries=0 87 158 229 299 373
cat_threshold=0 0 0 8388608 0 0 0 0 0 0 0 0 0 0 0 0 0 0 0 0 0 0 0 8388608 0 0 0 0 0 0 0 0 0 0 0 4194304 0 0 0 0 0 0 33554688 0 268435456 0 0 0 0 0 0 4 0 0 0 0 0 0 0 0 0 0 0 0 0 0 65536 0 0 0 0 0 0 0 0 0 0 131072 0 0 0 0 0 0 0 0 268435456 0 0 0 0 0 0 0 0 0 0 0 0 0 0 0 0 0 0 0 0 0 0 0 0 65536 0 0 67108864 0 0 0 0 0 0 0 0 0 0 512 0 0 0 0 0 0 0 0 0 0 0 0 0 0 0 0 4096 0 0 0 0 0 0 0 0 0 0 0 0 536870912 0 4 0 0 0 0 0 0 0 0 0 0 0 0 0 0 0 0 0 0 0 256 0 0 0 0 65536 0 0 67108864 0 0 0 0 0 4194304 0 0 0 0 0 0 0 0 0 0 0 0 0 0 0 0 0 0 0 0 0 0 0 0 0 0 0 0 0 0 0 0 0 0 0 0 4 0 0 0 0 0 0 0 0 0 0 0 0 0 0 0 0 0 0 0 0 0 0 0 0 0 0 0 0 0 0 0 0 0 0 0 0 0 0 0 2048 0 0 0 0 0 0 0 0 0 0 0 0 0 0 0 0 0 0 0 0 0 0 0 0 0 0 0 0 0 65536 0 0 0 0 0 0 0 0 0 0 0 0 0 0 0 0 0 0 0 0 0 0 134217728 0 0 0 0 0 0 0 0 0 0 4194304 0 0 0 0 0 0 0 0 0 0 0 0 0 0 0 0 0 0 0 0 0 0 0 0 0 0 0 0 0 0 0 0 0 0 0 0 0 0 0 536870912
is_linear=0
shrinkage=0.03


Tree=9
num_leaves=31
num_cat=4
split_feature=11 8 8 11 6 6 6 11 8 0 9 9 6 3 8 7 7 6 7 6 6 3 11 7 3 3 0 7 8 1
split_gain=925.071 294.95 262.63 169.521 178.197 165.393 192.934 182.741 147.696 133.602 120.128 105.035 98.9727 95.494 68.5761 65.0194 111.537 61.3463 97.8451 47.6424 95.4516 45.9039 39.585 24.35 22.3173 21.5926 14.2232 9.92315 8.74346 4.34298
threshold=0 0.038523576211249806 0.090993394695237165 1 1.0385659354264896 1.1061589328504993 1.5813544122757672 2 0.18743374773940832 0.86543121818873558 1.2380403472785162 1.332882750906033 1.0160963739868141 0.065246639734344261 0.13021573757545454 4.4709130999959958 3.1107615732213394 1.0934970637901404 1.5722006122908134 1.2067485332585322 1.1152645644604255 0.019999648723526005 3 3.0699684827442346 0.11488982013618187 0.15472243928063692 1.5577761927397233 4.5225569635401257 0.13218830312491361 1.2735903143079248
decision_type=9 2 2 9 2 2 2 9 2 2 2 2 2 2 2 2 2 2 2 2 2 2 9 2 2 2 2 2 2 2
left_child=-1 -2 9 -4 13 24 11 -8 25 -3 22 19 -11 14 -5 16 23 21 -19 20 -7 -14 -10 -12 -6 -9 -22 -17 -16 -21
right_child=1 2 3 4 5 6 7 8 10 12 15 -13 17 -15 28 27 -18 18 -20 29 26 -23 -24 -25 -26 -27 -28 -29 -30 -31
leaf_value=-0.0026623986206994943 0.0012280577419085731 -0.0002715957140073943 0.0064081115862526187 0.0035713128266250446 -0.0021143957061470512 0.0064323368059495626 -0.0079095379910802833 -0.0020260380390900753 -0.010028261929844934 -0.00039739333932096738 0.0010223975049555543 -0.011165932515944299 -0.00019673498348426604 0.0051099091738526885 -0.0022632221100225315 -0.010199381283616452 0.030527499213685503 -0.00016977984433059478 0.0023363728218461785 0.0032733544524388876 -0.00225705085813096 0.0024146529569961262 -0.0053173199588069965 -0.023965224642158785 -0.0026254804587153326 0.0043324465012896194 -0.0019079591155388056 -0.016525761183859237 -0.0037997946197902252 0.005918058812186976
leaf_weight=2620.7560194730759 595.22343306336552 281.79968750383705 1140.6476287841797 47.783812018111348 60.697904515080154 86.681976396590471 203.68707656860352 24.100428387522697 162.94966125488281 85.169624116271734 62.731906583998352 49.601755655370653 87.753485217690468 391.20691549684852 41.108655720949173 41.345482800155878 177.68001350015402 92.216622348874807 46.042402969673276 210.92562889494002 30.600717194378376 134.85657916218042 99.002888908144087 41.633398205041885 185.35429864842445 166.8917212150991 42.757311513647437 15.876332552637903 32.883107043802738 209.03366578184068
leaf_count=71 564 371 28 69 522 59 5 315 4 41 840 88 62 207 4 14 284 110 58 466 308 102 1752 14 193 58 28 475 281 76
internal_value=0.00125826 0.00901389 0.0062643 0.00965174 0.00502225 0.000749727 0.00421948 -0.00399834 0.0026535 -0.0101423 -0.0046139 0.0172184 7.40382e-05 0.0207079 -0.00249174 0.00716939 0.0130849 0.00693935 -0.00875582 0.0208017 0.00687359 0.0166873 -0.019875 -0.0115308 -0.0221726 0.0256693 -0.0183113 -0.0219881 -0.0205833 0.0261096
internal_weight=7469 4848.24 4253.02 3525.18 2384.53 1871.55 1625.5 995.899 792.212 727.838 601.22 629.601 446.039 512.982 121.776 339.267 282.045 360.869 138.259 579.999 160.04 222.61 261.953 104.365 246.052 190.992 73.358 57.2218 73.9918 419.959
internal_count=7469 7398 6834 6090 6062 5501 4786 3761 3756 744 3383 1025 373 561 354 1627 1138 332 168 937 395 164 1756 854 715 373 336 489 285 542
cat_boundaries=0 90 161 231 305
cat_threshold=0 0 0 8388608 0 0 0 0 0 0 0 0 0 0 0 0 0 0 0 0 0 0 0 8388608 0 0 0 0 0 0 0 0 0 4194304 0 4194304 0 0 0 0 0 0 33554688 0 268435456 0 0 0 0 0 0 0 0 0 0 0 0 0 0 0 0 0 0 0 0 0 65536 0 0 0 0 0 0 0 0 0 0 131072 0 0 0 0 0 0 0 0 268435456 0 0 524288 0 0 0 0 0 0 0 0 0 0 0 0 0 0 0 0 0 0 0 0 0 0 0 0 65536 0 0 67108864 0 0 0 0 0 0 0 0 0 0 512 0 0 0 0 0 0 0 0 0 0 0 0 0 0 0 0 4096 0 0 0 0 0 0 0 0 0 0 0 0 536870912 0 4 0 0 0 0 0 0 0 0 0 0 0 0 0 0 0 0 0 0 0 256 0 0 0 0 0 0 0 0 0 0 0 0 0 0 0 0 0 0 0 2048 0 0 0 0 0 0 0 0 0 0 0 0 0 0 0 0 0 0 0 0 0 0 0 0 0 0 0 0 0 65536 0 0 0 0 0 0 0 0 0 0 0 0 0 0 0 0 0 0 0 0 0 0 0 0 0 0 0 0 0 0 0 0 0 0 0 0 0 2147483648 0 0 0 0 0 0 0 0 0 0 0 0 0 0 0 0 0 0 0 0 0 0 0 0 0 0 0 0 0 0 0 0 0 0 0 536870912
is_linear=0
shrinkage=0.03


Tree=10
num_leaves=31
num_cat=7
split_feature=11 8 8 11 11 6 11 11 8 10 6 6 8 10 6 6 11 8 11 5 8 0 5 1 8 6 6 6 10 3
split_gain=875.901 358.367 286.062 195.059 130.588 122.766 182.884 152.638 148.932 146.113 111.403 102.893 97.8128 116.249 81.1121 79.5709 125.991 72.994 49.2506 47.6029 65.9824 36.5635 33.8417 31.7327 95.1075 24.2808 59.4451 39.3195 53.3897 20.5233
threshold=0 0.039993747948742449 0.090993394695237165 1 2 1.5813544122757672 3 4 0.19752216407681808 -0.16844246307580399 3.8506893897740921 1.501050447471145 0.12771684419151172 0.087912720194325403 1.0160963739868141 1.0398583334210618 5 0.28698479860203258 6 1.251372872462108 0.049755198969593135 0.9780933834080805 1.1507283885330304 1.2920993631341973 0.18743374773940832 3.9183304908930832 4.1852918924467275 5.0005996102819088 -2.6752556176294076 0.15472243928063692
decision_type=9 2 2 9 9 2 9 9 2 2 2 2 2 2 2 2 9 2 9 2 2 2 2 2 2 2 2 2 2 2
left_child=-1 -2 4 -4 -3 7 -7 -5 29 11 18 23 13 -11 -6 -16 -17 21 -10 -18 -21 -14 -19 -9 -25 -12 -27 -28 -29 -8
right_child=1 2 3 5 14 6 8 9 10 12 25 -13 17 -15 15 16 19 22 -20 20 -22 -23 -24 24 -26 26 27 28 -30 -31
leaf_value=-0.0035657199728844576 0.00078363190518047638 -0.00089879836013668905 0.0062158682386650402 0.0039619466580225974 -0.00069846768620851376 -0.0076722518513478739 0.0031975791607948448 0.005227761050609776 -0.0097274140719495836 0.0034060314905747921 0.019350155376632042 -0.010830954540465971 5.1725407118722032e-05 -0.00091545004853892619 0.0011148416365742513 0.0026837145170990812 -0.00020813874853237318 0.0086309786416153937 -0.005086030207162905 -4.5180095215053145e-05 0.0022662816371907929 -0.0021953254467218558 -0.0094397855599435334 -0.0017414395257533864 0.0057405170478213663 -0.023246267902894021 0.029611674237274937 0.031323194153559386 -0.0098933998451079582 0.0042791019444206237
leaf_weight=2484.9823341369629 681.09625365119427 244.42449188232422 1140.6476287841797 285.16190719604492 90.080161899328232 203.68707656860352 28.055664394050837 326.57982769608498 162.94966125488281 139.41541287861764 42.26117477286607 44.139181107282639 56.237537841312587 61.828751530498266 95.350463841110468 81.474830627441406 147.26752202119678 42.71226366981864 128.15815648110583 46.178108937107027 63.27694443333894 238.72727485746145 55.486226565204561 41.390281692147255 102.76912930049002 48.532685395330191 95.852184012532234 51.09505318896845 71.402751476038247 167.77919940184802
leaf_count=61 596 6 28 7 66 5 348 407 4 164 26 42 429 167 97 2 219 26 1661 64 263 299 565 5 193 122 282 353 893 69
internal_value=0.00129366 0.00854216 0.0053588 0.0089644 -0.0112356 0.00403032 -0.0039757 0.00979928 0.00264961 0.00456517 -0.00472873 0.0163049 -0.00552705 0.0114829 -0.00243012 0.00290553 -0.00391874 -0.0142337 -0.0180473 -0.0141329 0.000301112 -0.0216921 0.00816953 0.0204115 0.00868803 0.00781277 0.00446711 0.0111422 -0.000118979 0.0254002
internal_weight=7469 4984.02 4302.92 3534.87 768.053 2394.22 999.774 1394.45 796.087 1109.29 600.252 514.878 594.407 201.244 523.628 433.548 338.197 393.163 291.108 256.723 109.455 294.965 98.1985 470.739 144.159 309.144 266.883 218.35 122.498 195.835
internal_count=7469 7408 6812 6095 717 6067 3763 2304 3758 2297 3341 647 1650 331 711 645 548 1319 1665 546 327 728 591 605 198 1676 1650 1528 1246 417
cat_boundaries=0 87 158 229 299 369 458 532
cat_threshold=0 0 0 8388608 0 0 0 0 0 0 0 0 0 0 0 0 0 0 0 0 0 0 0 8388608 0 0 0 0 0 0 0 0 0 0 0 4194304 0 0 0 0 0 0 33554688 0 268435456 0 0 0 0 0 0 4 0 0 0 0 0 0 0 0 0 0 0 0 0 0 65536 0 0 0 0 0 0 0 0 0 0 131072 0 0 0 0 0 0 0 0 268435456 0 0 0 0 0 0 0 0 0 0 0 0 0 0 0 0 0 0 0 0 0 0 0 0 65536 0 0 67108864 0 0 0 0 0 0 0 0 0 0 512 0 0 0 0 0 0 0 0 0 0 0 0 0 0 0 0 4096 0 0 0 0 0 0 0 0 0 0 0 0 536870912 0 4 0 0 0 0 0 0 0 0 0 0 0 0 0 0 0 0 0 0 0 256 0 0 0 0 65536 0 0 67108864 0 0 0 0 0 4194304 0 0 0 0 0 0 0 0 0 0 0 0 0 0 0 0 0 0 0 0 0 0 0 0 0 0 0 0 0 0 0 0 0 0 0 0 4 0 0 0 0 0 0 0 0 0 0 0 0 0 0 0 0 0 0 0 256 0 0 0 0 0 0 0 0 0 0 0 0 0 0 0 0 0 0 0 2048 0 0 0 0 0 0 0 0 0 0 0 0 0 0 0 0 0 0 0 0 0 0 0 0 0 0 0 0 0 65536 0 0 0 0 0 0 0 0 0 0 0 0 0 0 0 0 0 0 0 256 0 0 0 0 0 0 0 0 0 0 0 0 0 0 0 0 0 0 0 2048 0 0 0 0 0 0 0 0 0 0 0 0 0 0 0 0 0 0 0 0 0 0 0 0 0 0 0 0 0 65536 0 0 0 0 0 0 0 0 0 0 0 0 0 0 0 0 0 0 0 0 0 0 0 0 0 0 0 0 0 0 0 0 0 0 0 0 0 0 0 0 0 0 0 0 0 0 0 0 0 0 0 0 0 0 0 0 0 0 0 0 0 0 0 0 0 0 0 0 0 0 0 0 0 0 0 0 0 0 0 0 0 0 0 0 0 0 0 0 268435456 0 0 0 0 0 0 0 0 0 0 0 0 0 0 0 0 0 0 0 0 0 0 0 0 0 0 0 0 0 0 0 0 0 0 0 0 0 2147483648 0 0 0 0 0 0 0 0 0 0 0 0 0 0 0 0 0 0 0 0 0 0 0 0 0 0 0 0 0 0 0 0 0 0 0 536870912
is_linear=0
shrinkage=0.03


Tree=11
num_leaves=31
num_cat=5
split_feature=11 8 7 11 8 8 9 3 3 9 11 9 10 6 9 11 11 6 6 3 1 3 9 5 3 1 4 9 3 5
split_gain=885.405 458.806 248.098 198.286 69.4067 112.355 165.808 204.714 129.808 77.7374 143.636 125.006 83.8507 98.8501 70.4379 103.487 63.6777 32.284 54.7493 25.5099 20.364 10.4196 25.6176 10.2627 8.47437 3.61654 13.7721 3.45478 3.30246 7.30601
threshold=0 0.039993747948742449 0.85495851666356149 1 0.055244170290077339 0.12370762400410935 0.96245935779598335 0.62448029759435719 0.39280138379586721 0.78747224934689319 2 0.74993450561216324 -0.37508865423995019 7.642642468600811 1.234833579744087 3 4 1.2149135387065118 1.2489844454890624 0.46831779519370059 1.5471504814122221 0.075204611577888367 1.7184454356703689 1.8700941708185035 3.5272645243319736e-05 1.2162943061748781 0.96428571428571441 1.0419414768894961 0.13962240259934183 1.1883130530663675
decision_type=9 2 2 9 2 2 2 2 2 2 9 2 2 2 2 9 9 2 2 2 2 2 2 2 2 2 2 2 2 2
left_child=-1 -2 21 -4 25 6 7 28 -8 11 -11 24 13 16 15 -14 -12 20 -19 -20 -17 22 -3 -15 -7 26 -5 -28 29 -6
right_child=1 2 3 4 5 9 8 -9 -10 10 12 -13 14 23 -16 17 -18 18 19 -21 -22 -23 -24 -25 -26 -27 27 -29 -30 -31
leaf_value=-0.004613385571767081 0.0011279918416390339 -0.0029786624639395218 0.0030031246463172847 -0.00020189458607640202 -0.00086684231401013348 -0.010632008650569784 0.0026082021704814423 0.0030929340561828317 -0.00091037051853997992 -0.0052011423249529462 -0.015085783022333262 0.0083720492823669331 0.0052588327145516589 0.025235407483071973 0.0060671511903364348 -0.0025266636385136484 -0.0015256371271444645 0.0055683015363867262 -0.0031674131635679951 -0.0078261948907621427 -0.0024321341112737266 0.0047196455753887008 0.0050980035292619436 0.0056414483642288071 -0.010498752321165527 -4.3824692358601643e-05 -0.00016799677174783047 0.0017869649561243559 -0.00089764798175274432 -0.0011028734506247845
leaf_weight=1507.284366607666 762.57108427863568 26.530698951333761 2537.5835378170013 41.381523765623569 51.183274295181036 41.06667148321867 330.7462923489511 81.474830627441406 41.12113619223237 285.16190719604492 244.42449188232422 138.5131110791117 81.474830627441406 40.737415313720703 89.613902474753559 74.371390745975077 107.27522392710671 45.403658334165812 111.45491863274947 41.447425007820129 83.209101721644402 346.39544572215527 43.159919984638691 14.188471545465289 44.370455069001764 84.748537424951792 15.999758134596052 6.7037615217268458 128.69398800004274 20.709010782651603
leaf_count=37 598 249 67 7 70 6 526 2 6 7 6 208 2 1 100 614 1668 37 1440 9 24 181 18 547 532 24 157 48 62 216
internal_value=0.0019447 0.00713928 0.00396395 0.00203106 -0.00445707 -0.00307166 0.00724358 -0.0101017 0.0204 -0.00774718 -0.0107323 0.00849821 -0.00479575 -0.0150822 0.0030505 -0.00191425 -0.0209276 -0.00896852 -0.00116596 -0.00975572 -0.0193567 0.0261831 0.015599 0.0223469 -0.0200404 -0.024273 -0.0188952 -0.000119377 -0.0263903 -0.0212401
internal_weight=7469 5961.72 5199.14 4783.06 2245.48 2096.64 653.929 282.061 371.867 1442.71 1218.76 223.95 933.601 406.626 526.975 437.361 351.7 355.886 198.306 152.902 157.58 416.086 69.6906 54.9259 85.4371 148.834 64.085 22.7035 200.586 71.8923
internal_count=7469 7432 6834 6386 6319 6083 882 350 532 5201 4455 746 4448 2222 2226 2126 1674 2124 1486 1449 638 448 267 548 538 236 212 205 348 286
cat_boundaries=0 87 176 228 298 368
cat_threshold=0 0 0 0 0 0 0 0 0 0 0 0 0 0 0 0 0 0 0 0 0 0 0 8388608 0 0 0 0 0 0 0 0 0 0 0 0 0 0 0 0 0 0 33554688 0 0 0 0 0 0 0 0 0 0 0 0 0 0 0 0 0 0 0 0 0 0 0 65536 0 0 0 0 0 0 0 0 0 0 131072 0 0 0 0 0 0 0 0 268435456 0 0 0 0 0 0 0 0 0 2048 0 0 0 0 0 0 0 0 0 0 0 0 0 0 65536 0 0 0 0 0 0 0 0 0 0 0 0 2147483648 0 2048 0 0 2 0 268435456 0 0 0 0 0 0 0 0 0 0 4096 0 0 0 0 0 0 0 0 0 0 0 0 536870912 0 4 0 0 536870912 0 0 0 0 0 0 0 0 0 0 0 0 0 0 268435456 0 0 0 8388608 0 0 0 0 0 0 0 0 0 0 0 0 0 0 0 256 0 0 0 0 0 0 0 0 0 0 0 0 0 4194304 0 0 0 0 0 0 0 0 0 0 0 0 0 0 0 0 0 4 0 0 0 0 0 0 0 0 0 0 0 0 0 0 0 0 0 0 0 0 0 0 0 0 0 0 0 0 0 0 0 0 0 0 0 4194304 0 0 0 0 0 0 0 0 0 0 0 0 0 0 0 0 0 0 0 0 0 0 0 0 0 0 0 0 0 0 0 0 0 65536 0 0 0 0 0 0 0 0 0 0 0 0 0 0 0 0 0 0 0 0 0 0 0 0 0 0 0 0 0 0 0 0 0 0 0 4194304 0 0 0 0 0 0 0 0 0 0 0 0 0 0 0 0 0 0 0 0 0 0 0 0 0 0 0 0 0 0 0 0 0 65536
is_linear=0
shrinkage=0.03


Tree=12
num_leaves=31
num_cat=6
split_feature=11 8 8 11 7 11 8 7 8 11 10 8 11 11 10 6 8 6 5 10 3 6 6 6 6 7 3 7 3 5
split_gain=872.011 383.159 231.852 208.26 148.521 134.444 125.15 133.833 152.191 124.072 120.935 119.248 91.9156 72.2741 61.5061 147.456 41.9621 68.3764 41.9398 78.1897 34.9629 27.3063 25.6769 54.0586 24.8985 18.093 12.9077 9.5947 17.1379 8.42097
threshold=0 0.039993747948742449 0.090993394695237165 1 1.0463202776545966 2 0.10078443506307468 1.2257492697576053 0.19752216407681808 3 0.30376048924575333 2.5612323166552025 4 5 -0.18789242525067215 1.0354728678391667 2.4602014615816845 4.5334186947111794 2.4662547757670796 0.13110224769173276 0.069554999365042627 1.0185835158583261 3.9932772050567009 3.8506893897740921 3.7670945716257505 3.7241297798345498 0.11958772444807757 1.1068808829714565 0.014770253002811144 2.29786790529193
decision_type=9 2 2 9 2 9 2 2 2 9 2 2 9 9 2 2 2 2 2 2 2 2 2 2 2 2 2 2 2 2
left_child=-1 -2 5 -4 14 -3 -6 26 18 -10 11 12 -11 -12 20 21 17 22 29 -20 -5 -16 23 24 -14 -19 -8 28 -7 -9
right_child=1 2 3 4 6 27 7 8 9 10 13 -13 16 -15 15 -17 -18 25 19 -21 -22 -23 -24 -25 -26 -27 -28 -29 -30 -31
leaf_value=-0.0023224298147195765 0.00072628319277589116 -0.00097608698063611976 0.0021921822081720204 -0.0024797102668051214 0.0027311919744354807 -0.0001958377484941099 -0.0022802958053486648 0.0034095425316285843 -0.0080078479340252428 -0.015649012177200692 0.0062611019560639709 0.024478345258579812 -0.0047703331177186489 -0.0091000624909951863 0.0032718987577195309 -0.0016162323166425728 -0.0096866915891442376 0.028633230270767172 -0.0016328520392965157 0.0038537597422734779 0.0054012524902951244 0.0033187125360624029 -0.022638973605196722 0.018679556975943562 -0.014935806772451304 0.0012940979811362767 -0.0017118965553327742 -0.00083492077923509633 0.0010436496018156921 0.0042375558393136312
leaf_weight=2484.9823341369629 721.83366896491498 285.16190719604492 977.69796752929688 31.45017496496439 131.36662511806935 50.401137266308069 31.092585062608123 133.5175554137677 162.94966125488281 325.89932250976562 162.94966125488281 93.067181820515543 140.78767242794856 77.057387039065361 129.20520859584212 102.17502432689071 41.56171347387135 88.009615020360798 44.654379491694272 42.057058002799749 309.94008036889136 130.64009935036302 51.749582034070045 44.639784672297537 41.796594902873039 26.979374174494296 171.40223288536072 282.41437310259789 27.862860135734081 123.69731899723411
leaf_count=61 597 7 24 297 92 100 241 526 4 8 4 383 1642 1062 65 163 22 114 72 37 229 60 192 44 20 693 78 412 195 25
internal_value=0.0012613 0.00849375 0.00508766 0.00804458 0.00360108 -0.0114694 -0.000676301 -0.00273508 0.000170681 -0.00466611 -0.000886278 -0.00617941 -0.0100975 0.0179218 0.0154203 0.00680569 -0.000798527 0.0022077 0.0178547 -0.000188408 0.0245555 0.0188118 -0.00581634 -0.00147287 -0.00870816 0.0216748 -0.0257145 -0.0232803 -0.014631 0.0239374
internal_weight=7469 4984.02 4262.18 3616.34 2638.65 645.84 1935.24 1803.87 1601.37 1257.45 1094.5 854.491 761.424 240.007 703.411 362.02 435.524 393.963 343.926 86.7114 341.39 259.845 278.974 227.224 182.584 114.989 202.495 360.678 78.264 257.215
internal_count=7469 7408 6811 6097 6073 714 5259 5167 4848 4188 4184 3118 2735 1066 814 288 2727 2705 660 109 526 125 1898 1706 1662 807 319 707 295 551
cat_boundaries=0 87 158 247 321 391 461
cat_threshold=0 0 0 8388608 0 0 0 0 0 0 0 0 0 0 0 0 0 0 0 0 0 0 0 8388608 0 0 0 0 0 0 0 0 0 0 0 0 0 0 0 0 0 0 33554688 0 268435456 0 0 0 0 0 0 4 0 0 0 4096 0 0 0 0 0 0 0 0 0 0 65536 0 0 0 0 0 0 0 0 0 0 131072 0 0 0 0 0 0 0 0 268435456 0 0 0 0 0 0 0 0 0 0 0 0 0 0 0 0 0 0 0 0 0 0 0 0 65536 0 0 67108864 0 0 0 0 0 0 0 0 0 0 512 0 0 0 0 0 0 0 0 0 0 0 0 0 0 0 0 0 0 0 0 0 0 0 0 0 0 0 0 0 536870912 0 4 0 0 0 0 0 0 0 0 0 0 0 0 0 0 0 0 0 0 0 0 0 0 134217728 0 0 0 0 0 0 0 0 0 0 0 0 0 0 0 0 0 0 0 0 0 0 0 0 0 0 0 0 0 0 0 0 0 0 0 0 0 0 0 0 0 0 0 0 0 0 65536 0 0 0 0 0 0 0 0 0 0 0 0 0 0 0 0 0 0 268435456 0 0 0 0 0 0 0 0 0 0 0 0 0 0 0 0 0 0 0 256 0 0 0 0 0 0 0 0 0 0 0 0 0 0 0 0 0 0 0 0 0 0 0 0 0 0 0 0 0 0 0 0 0 0 0 0 0 0 0 0 0 0 0 0 0 0 0 0 0 0 0 0 0 536870912 0 0 0 0 0 0 0 0 0 0 0 0 0 0 0 0 0 0 0 0 0 0 0 0 0 0 0 0 0 0 0 0 0 4194304 0 4194304 0 0 0 2048 0 0 0 0 0 0 0 0 0 0 0 0 0 0 0 0 0 0 0 0 0 0 0 0 0 0 0 0 0 65536 0 0 0 0 0 0 0 0 0 0 0 0 0 0 0 0 0 0 0 0 0 0 0 0 0 0 0 0 0 0 0 0 0 4194304 0 0 0 0 0 2048 0 0 0 0 0 0 0 0 0 0 0 0 0 0 0 0 0 0 0 0 0 0 0 0 0 0 0 0 0 65536
is_linear=0
shrinkage=0.03


Tree=13
num_leaves=31
num_cat=7
split_feature=11 8 7 11 10 11 10 8 11 8 6 8 7 6 6 7 5 7 11 11 6 9 0 7 11 7 1 1 1 8
split_gain=899.935 256.438 202.088 152.657 127.434 197.554 182.508 147.79 109.248 109.012 104.315 99.756 104.155 128.997 90.101 125.246 88.3836 86.5116 58.493 58.4873 79.5742 57.7668 53.8839 75.3137 44.1316 22.6601 13.7684 13.2615 11.8893 11.6163
threshold=0 0.024128971235779732 0.85495851666356149 1 -0.12743735087830446 2 -0.088667158545636324 0.17613794702621502 3 0.40448815724630044 1.0883336565726351 2.5612323166552025 4.1258739204834169 3.8506893897740921 1.7831277660612403 1.121188688905199 1.1217137594956041 3.1107615732213394 4 5 1.9504734500210807 1.0445613909896962 0.6277531951922467 3.7624797922983415 6 2.3275526771012909 0.98704206158176844 0.87705801930703042 0.77659019648733119 0.65400917993234431
decision_type=9 2 2 9 2 9 2 2 9 2 2 2 2 2 2 2 2 2 9 9 2 2 2 2 9 2 2 2 2 2
left_child=-1 -2 -3 -4 5 -5 -6 -7 -8 10 -9 12 13 27 15 16 26 -15 -17 -12 -21 24 -19 -24 -20 -16 -10 29 -22 -11
right_child=1 2 3 4 6 7 8 9 14 11 19 -13 -14 17 25 18 -18 22 21 20 28 -23 23 -25 -26 -27 -28 -29 -30 -31
leaf_value=-0.0021626942853577814 0.00066157977396166215 0.0044169743430993186 0.0024096664752409295 -0.0087506572420873122 0.0028391356999557683 -0.0028801715856894613 0.0017562675131437462 -0.0015677453471432956 0.00044465873589485852 -0.010544762746981526 0.0061051066783839097 0.023743994900822418 -0.010818721768083052 -0.021959804397040816 0.0026492562152024162 -0.0083021164658937142 0.0022021761131480128 0.018119170266665256 0.0029343805682521861 -0.0076571745102844389 -0.0020684481537830359 -0.00021012152763526088 -0.019046021475452576 0.0091990865897575436 -0.0021715271282752558 -0.00057217775842029423 -0.00018996261603928657 0.0097674165803742861 0.0046347079451637182 -0.0014049813083663633
leaf_weight=2335.5941122770309 447.2979531744495 416.08606465812773 855.48572158813477 244.42449188232422 308.2808326408267 198.06827321462333 570.32381439208984 43.933520089834929 23.06278907507658 140.05021630227566 244.42449188232422 93.067181820515543 184.5194922038354 48.917530097067356 95.505495234392583 203.68707656860352 151.95747752673924 171.63219179771841 53.873334407806396 69.380770028568804 18.815176773816347 84.737024299800396 45.83469027467072 42.560883820988238 164.51212526299059 30.93136368971318 46.116273198276758 23.281066530849785 94.015969411469996 18.622737370431423
leaf_count=64 358 448 21 6 257 292 14 30 165 254 6 383 551 121 177 5 245 150 26 296 292 42 88 46 1680 682 45 283 150 292
internal_value=0.00126131 0.00828098 0.00622552 0.00428078 0.00141207 -0.00446737 0.00712515 -0.000123951 0.00259643 0.00372162 0.0150931 -0.00324154 -0.00725375 -3.10496e-05 -0.00420367 -0.00831307 0.0105254 0.0117709 -0.0165329 0.0196258 0.00541243 -0.00724447 0.0186565 -0.000372901 0.000674393 0.0191233 -0.0175839 -0.02007 0.0212557 -0.0231723
internal_weight=7469 5133.41 4686.11 4270.02 3414.54 1681.55 1732.99 1437.12 1424.71 1239.06 470.57 768.486 675.419 490.899 854.383 727.946 221.137 308.945 506.81 426.636 182.212 303.122 260.028 88.3956 218.385 126.437 69.1791 181.954 112.831 158.673
internal_count=7469 7405 7047 6599 6578 3240 3338 3234 3081 2942 774 2168 1785 1234 3067 2208 455 405 1753 744 738 1748 284 134 1706 859 210 829 442 546
cat_boundaries=0 90 161 250 339 413 465 560
cat_threshold=0 0 0 8388608 0 0 0 0 0 0 0 0 0 0 0 0 0 0 0 0 0 0 0 8388608 0 0 0 0 0 0 0 0 0 4194304 0 0 0 0 0 0 0 0 33554688 0 0 0 0 0 0 0 0 0 0 0 0 4096 0 0 0 0 0 0 0 0 0 0 65536 0 0 0 0 0 0 0 0 0 0 131072 0 0 0 0 0 0 0 0 268435456 0 0 524288 0 0 0 0 0 0 0 0 0 0 0 0 0 0 0 0 0 0 0 0 0 0 0 0 65536 0 0 0 0 0 0 0 0 0 0 0 0 0 0 0 0 0 0 0 0 0 0 0 0 0 0 0 0 0 0 0 0 0 0 0 0 0 0 0 0 0 0 0 536870912 0 4 0 0 0 0 0 0 0 0 0 0 0 0 0 0 0 0 0 0 0 256 0 0 0 0 0 0 0 0 0 0 0 0 0 0 0 0 0 0 0 2048 0 0 0 0 0 0 0 0 0 0 0 4 0 0 0 0 0 0 0 0 0 0 0 0 0 0 0 0 0 65536 0 0 0 0 0 0 0 0 0 0 0 0 0 0 0 0 0 0 268435456 0 0 0 0 0 0 0 0 0 0 0 0 0 0 0 0 0 0 0 0 0 0 0 0 0 0 0 0 0 0 0 0 0 0 0 4194304 0 0 0 2048 0 0 0 0 268435456 0 0 0 0 0 0 0 0 0 0 0 0 0 0 0 0 0 0 0 0 0 0 0 0 65536 0 0 0 0 0 0 0 0 0 0 0 0 0 0 0 0 0 0 268435456 0 0 0 0 0 0 0 0 0 0 0 0 0 0 0 0 0 0 0 256 0 0 134217728 0 0 0 0 0 0 0 0 0 0 0 0 0 0 0 0 0 0 0 0 0 0 0 0 0 0 0 0 0 0 0 0 0 0 0 0 0 0 0 0 0 0 0 0 0 0 0 0 0 0 536870912 0 0 0 0 0 0 0 0 0 2048 0 0 0 0 0 0 0 0 0 0 0 0 0 0 0 0 0 0 0 0 0 0 0 0 0 0 0 0 0 0 0 0 0 0 268435456 0 0 0 0 0 0 536870912 0 0 0 0 0 0 0 0 0 0 0 0 0 0 65536 0 0 0 0 0 0 0 0 0 0 0 0 67108864 0 0 0 0 128 0 0 0 0 0 0 0 0 0 2 8192 0 0 0 0 0 0 0 0 0 0 0 0 0 0 0 128 0 0 0 0 0 0 0 0 0 0 0 0 0 0 0 0 0 0 0 0 0 0 0 0 0 0 0 0 0 0 0 0 0 0 16384
is_linear=0
shrinkage=0.03


Tree=14
num_leaves=31
num_cat=6
split_feature=11 8 11 7 10 11 11 7 7 3 8 7 6 11 8 3 8 3 6 6 3 3 7 3 1 8 6 11 6 10
split_gain=890.01 281.059 214.045 109.079 73.7809 147.023 118.602 117.722 87.7474 117.213 80.8838 142.281 100.807 72.1114 64.1582 73.2098 30.727 48.1934 28.6977 53.6921 27.3472 26.7384 25.1037 14.0351 4.83731 15.1197 4.82351 4.28705 3.41157 3.3487
threshold=0 0.024128971235779732 1 0.85495851666356149 -0.24924445421742628 2 3 1.0463202776545966 0.86355157285210893 0.0098842190947454125 2.5612323166552025 4.1258739204834169 4.3141636443850437 4 0.081402063407352857 0.62448029759435719 0.27341107534379466 0.62448029759435719 3.9932772050567009 3.8506893897740921 0.069554999365042627 0.41570946244732582 3.168811041862261 0.11958772444807757 0.36451793800451249 2.4602014615816845 1.1555280443557476 5 1.1266947619201024 -0.20015932248380255
decision_type=9 2 9 2 2 9 9 2 2 2 2 2 2 9 2 2 2 2 2 2 2 2 2 2 2 2 2 9 2 2
left_child=-1 -2 -3 20 5 -5 -6 8 -8 -10 11 12 16 -9 21 27 -7 18 19 22 -4 26 -18 -11 -13 -26 -15 -16 -29 -22
right_child=1 2 3 4 6 10 7 13 9 23 -12 24 -14 14 15 -17 17 -19 -20 -21 29 -23 -24 -25 25 -27 -28 28 -30 -31
leaf_value=-0.003178487973662142 0.00076937552555334768 0.003337733629135043 -0.0023541848449859701 -0.0076545220678018002 0.0024684072672548551 -0.0074274592749759057 -0.0015207129867289967 -0.00074499232729731012 -0.00018426373755810806 0.0016359812359917141 0.023031675053797745 -0.013028648824937735 0.027230658254644196 -0.00031792601470773872 0.0047044662165188307 -0.0042520428490361627 -0.0042756765807499516 0.0095056077731499929 -0.021301010265129591 0.017575595158665299 0.0046505166183822546 -0.0007733745164880823 -0.014171389686868319 0.0023452206582864538 0.0084212572612866257 -0.0090715291884274178 5.9201987598659629e-05 -0.0023054490637730101 -0.0023549456944251166 0.0042178051609816358
leaf_weight=2199.820426940918 488.03536848817021 1521.5209126472473 27.836763069033623 203.68707656860352 1018.4353828430176 49.619805819354951 43.437486123293638 307.70498037338257 56.143159467726946 29.074909418821335 93.067181820515543 123.99026203155518 136.72414481872693 30.372416073456407 18.491660214960575 81.578189574182034 86.021259860601276 41.150851100683212 47.432473781052977 44.52372909616679 60.826899061910808 81.722521877847612 41.648036742582917 213.95736660063267 20.331716075073928 41.378589316271245 30.853416166268289 75.368230611085892 130.5095989536494 123.73532595857978
leaf_count=54 359 43 255 5 25 88 26 32 161 255 383 59 268 246 66 3 1124 5 113 41 172 6 21 110 518 17 346 734 1918 16
internal_value=0.0016107 0.00829778 0.00609988 0.00173089 0.000287323 -0.0067584 0.00338015 -0.00346292 0.0110951 0.0168801 -0.000233503 -0.00407711 0.00509034 -0.010101 -0.00211887 0.00558641 -0.00436371 -0.000246376 -0.00582888 -0.000137286 0.0225228 -0.0187584 -0.0100301 0.0259055 -0.02615 -0.0192868 -0.0037684 -0.00326246 -0.00447511 0.0267035
internal_weight=7469 5269.18 4781.14 3259.62 3047.22 929.575 2117.65 1099.21 342.613 299.175 725.888 632.821 447.12 756.601 448.896 305.948 310.396 260.776 219.625 172.193 212.399 142.948 127.669 243.032 185.701 61.7103 61.2258 224.369 205.878 184.562
internal_count=7469 7415 7056 7013 6570 2642 3928 3903 552 526 2637 2254 1660 3351 3319 2721 1392 1304 1299 1186 443 598 1145 365 594 535 592 2718 2652 188
cat_boundaries=0 87 158 232 321 396 491
cat_threshold=0 0 0 8388608 0 0 0 0 0 0 0 0 0 0 0 0 0 0 0 0 0 0 0 8388608 0 0 0 0 0 0 0 0 0 0 0 0 0 0 0 0 0 0 33554688 0 268435456 0 0 0 0 0 0 4 0 0 0 0 0 0 0 0 0 0 0 0 0 0 65536 0 0 0 0 0 0 0 0 0 0 131072 0 0 0 0 0 0 0 0 268435456 0 0 0 0 0 0 0 0 0 2048 0 0 0 0 0 0 0 0 0 0 0 0 0 0 65536 0 0 0 0 0 0 0 0 0 0 0 0 0 512 0 0 0 2 0 0 0 0 0 0 0 0 0 0 0 0 4096 0 0 0 0 0 0 0 0 0 0 0 0 536870912 0 4 0 0 0 0 0 0 0 0 0 0 0 0 0 0 0 0 0 0 0 256 0 0 0 0 0 0 0 0 0 0 0 0 0 0 0 0 0 0 0 2048 0 0 0 0 0 0 0 0 0 0 0 0 0 0 0 0 0 0 0 0 0 0 0 0 0 0 0 0 0 65536 0 0 0 536870912 0 0 0 0 0 0 0 0 0 0 0 0 0 0 0 0 0 0 0 256 0 0 0 0 0 0 0 0 0 0 0 0 0 0 0 4194304 0 0 0 2048 0 0 0 0 0 0 0 0 0 0 0 0 0 0 0 0 0 0 0 0 0 0 0 0 0 0 0 0 0 65536 0 0 0 536870912 0 0 0 0 0 0 0 0 0 0 0 0 0 0 268435456 0 0 0 0 0 0 0 0 0 268435456 0 0 0 0 4096 0 0 0 0 0 0 0 134217728 0 0 0 0 0 0 0 0 0 0 4194304 0 0 0 1073741824 131072 0 0 0 0 0 0 0 0 0 0 0 0 536870912 0 0 0 0 0 0 0 0 0 0 0 0 0 0 0 0 0 0 0 0 0 0 65792 0 0 0 0 0 536870912 0 0 0 0 0 0 0 0 65536 0 0 0 0 0 0 0 0 0 0 0 0 0 0 0 0 0 128 0 0 0 0 0 0 0 0 0 0 8192 0 0 0 2048 0 0 0 0 4160 0 0 67108864 0 0 0 128 0 0 0 8 1 0 0 0 0 0 0 0 0 0 0 0 0 0 0 0 0 0 1048576 0 0 0 0 0 0 0 0 0 0 0 16384
is_linear=0
shrinkage=0.03


Tree=15
num_leaves=31
num_cat=0
split_feature=7 4 6 3 9 9 9 9 10 7 0 9 10 6 4 9 6 9 9 5 9 10 9 3 9 6 5 6 9 9
split_gain=324.529 265.808 190.188 157.521 197.415 195.742 131.888 137.961 127.804 140.7 258.076 165.226 158.843 157.567 156.516 115.711 105.265 159.145 103.134 188.724 143.231 81.6133 256.52 156.41 136.251 102.776 88.9734 81.1944 101.128 64.9523
threshold=5.3239431371929999 0.82142857142857151 1.0120319011063943 0.0027510299452745499 0.97971466043911015 1.0789972682420459 0.78747224934689319 0.83997789668254375 0.14044269212485719 0.93171445579019607 0.9053123840932632 1.310633656820313 -0.34336009979124854 3.9183304908930832 2.8928571428571432 1.202012809674023 1.0385659354264896 1.2508815356705154 1.0657691015187158 1.1217137594956041 0.95594838778850122 -0.035951329120474933 1.0679506690682847 0.0065405477037425415 1.1713714048968156 1.8311138239993816 1.5732945268316221 2.0535807725067214 1.3287225715712563 0.78747224934689319
decision_type=2 2 2 2 2 2 2 2 2 2 2 2 2 2 2 2 2 2 2 2 2 2 2 2 2 2 2 2 2 2
left_child=1 -1 -3 4 29 -6 -5 -8 9 16 11 13 -12 21 15 18 -9 -18 19 -14 -21 22 26 -23 -24 -26 -11 -7 -29 -4
right_child=-2 2 3 6 5 27 7 8 -10 10 12 -13 14 -15 -16 -17 17 -19 -20 20 -22 23 24 -25 25 -27 -28 28 -30 -31
leaf_value=0.0021183366085005995 -0.30803427660573346 -0.002129248886196331 0.010745872454930298 0.0096661003496339992 0.0027825622198899484 -0.0018597656597539635 -0.005631662841707569 0.0030338450801078065 0.0048720412137542935 -0.00038496077737925418 -0.010328551873446131 0.026078388708084967 0.0024156517082037157 -0.010103300650292428 0.0026799094109394494 0.0049857050954861598 -0.0014750915971271268 0.0058238797278872883 -0.0015517847412831879 -0.00062288829680927512 0.00074629425978674723 -6.3987065647582581e-07 0.0087780039545220026 0.0014643980791561207 -0.0063672430621214563 0.0085628067957648716 8.7582460265081123e-05 0.017115349337833631 -0.019219310577849272 -0.0019763625364049141
leaf_weight=366.10014382004738 347.07794092409313 354.53227791562676 86.094504019245505 297.4079579366371 174.80167134851217 258.25253150984645 151.50866653677076 299.61862610280514 245.21863064169884 257.77108723297715 474.46842593885958 483.57970960251987 130.73248282074928 256.77815745119005 125.95841844379902 87.23422546684742 90.275621455162764 86.473730338737369 230.7980362479575 382.03676684014499 316.77181845717132 208.1704293191433 321.89356226380914 386.06163553148508 86.973062708973885 262.22048286627978 169.0958984605968 92.968364171683788 46.811515795066953 391.31375932693481
leaf_count=349 926 231 62 590 138 168 301 123 480 125 335 612 86 267 42 37 68 50 254 161 274 54 396 472 59 272 99 107 105 226
internal_value=0.000277741 0.00165823 0.000309053 0.00149364 -0.00912896 0.00274503 0.00357853 0.00243597 0.00330738 0.00219583 0.000435577 0.00675415 -0.00835744 0.00285956 -0.00283752 -0.00632185 0.0176436 -0.000717495 -0.00905423 -0.00411911 -0.0103082 0.00618238 0.00133549 0.0151379 0.0129005 -7.8002e-05 -0.0168461 -0.00887647 0.00954079 -0.0233764
internal_weight=7469 7121.92 6755.82 6401.29 1050.24 572.834 5351.05 5053.64 4902.13 4656.91 4180.54 2432.54 1748 1948.96 1273.53 1147.57 476.368 176.749 1060.34 829.541 698.809 1692.19 1097.95 594.232 671.087 349.194 426.867 398.032 139.78 477.408
internal_count=7469 6543 6194 5963 806 518 5157 4567 4266 3786 3545 2356 1189 1744 854 812 241 118 775 521 435 1477 951 526 727 331 224 380 212 288
is_linear=0
shrinkage=0.03


Tree=16
num_leaves=31
num_cat=7
split_feature=11 8 9 9 9 11 9 11 6 11 9 9 11 8 11 9 9 8 5 11 9 0 5 5 8 1 1 1 5 1
split_gain=788.62 215.997 212.766 92.1012 105.994 108.967 124.569 206.247 201.233 146.859 79.9533 96.2016 98.6454 97.534 67.4006 74.5107 127.238 40.2141 38.9482 28.5888 22.889 22.496 14.4513 8.45265 24.5392 6.29925 6.05328 5.72426 13.781 5.5902
threshold=0 0.021834154910001406 1.310633656820313 1.2902459014702445 1.234833579744087 1 0.92393920787584849 2 1.0227815217025598 3 0.98188164257988741 1.2175023358114079 4 0.19279921182440743 5 1.4043636725200319 1.5949411459918175 0.28698479860203258 1.1507283885330304 6 1.0493203656988019 1.2591868375702864 1.5548576840284796 1.4392458342578485 0.051163931728289598 0.89000953586754106 0.65892947993369078 1.2162943061748781 2.5661570989303955 1.0655854807230949
decision_type=9 2 2 2 2 9 2 9 2 9 2 2 9 2 9 2 2 2 2 9 2 2 2 2 2 2 2 2 2 2
left_child=-1 -2 3 4 5 -3 7 -7 -8 -10 22 12 -12 20 -4 -16 25 21 -19 -15 -14 -9 -11 24 -22 26 -17 28 -6 -18
right_child=1 2 14 -5 27 6 8 17 9 10 11 -13 13 19 15 16 29 18 -20 -21 23 -23 -24 -25 -26 -27 -28 -29 -30 -31
leaf_value=-0.0022088928664016042 0.00072390543199314476 0.0018367426351156633 0.0003578554622086158 -0.01168921853171509 -0.0017909774158833989 0.00043623316804235836 0.0041284360945195043 -0.0021616918089467996 -0.0025668820702889495 -0.00064075894913391681 0.0013452941801709475 -0.0053226626991381655 0.001420154213715005 0.0097690531739307966 0.0083645408608036438 -0.016419281509513384 0.0044474510215757697 0.0077303023331046373 -0.008712572178880244 -0.0034457962420509458 -0.00016718700210998714 -0.0021301671001752519 0.0018655574249669736 -0.0015052311990446923 0.00076173330769662665 -0.0069267854614430569 -0.0095817349740171462 0.0052948728679807584 0.016791443100032395 0.0041985268688505819
leaf_weight=2688.6694107055664 361.76332373078912 1562.258327960968 366.63673782348633 91.080020740628242 21.874250717461109 244.42449188232422 141.47497874870896 86.04298020619899 325.89932250976562 159.06201713066548 122.21224594116211 91.792219220194966 33.187480052001774 81.474830627441406 201.73242291249335 12.883262811228631 94.516358965076506 43.380543503910303 78.842318681068718 64.189085096586496 40.996205687522888 91.701004948467016 20.114216530695558 96.388841512612998 50.043655145913363 16.640161226503551 92.489958173595369 126.87414303747937 44.267839564010501 16.087485700845718
leaf_count=66 328 44 9 144 269 6 189 714 8 271 3 131 378 2 542 266 244 31 1057 1003 4 124 309 190 461 183 182 50 111 150
internal_value=0.000291017 0.00759719 0.0057884 0.00269073 0.00346001 0.00220849 -0.00288789 0.00903916 -0.0082039 -0.0125905 -0.00505326 0.000289076 0.00558408 -0.00249439 0.0197787 0.0108999 -0.000420299 -0.00778113 0.00520579 0.0164893 -0.0151416 -0.0171492 -0.0226371 -0.0192078 -0.0126524 -0.021545 -0.0242538 0.0250744 0.017919 0.0228836
internal_weight=7469 4780.33 4418.57 3617.58 3526.5 3333.48 1771.23 544.391 1226.84 1085.36 759.461 580.285 488.492 366.28 800.986 434.35 232.617 299.967 122.223 145.664 220.616 177.744 179.176 187.429 91.0399 122.013 105.373 193.016 66.1421 110.604
internal_count=7469 7403 7075 5499 5355 4925 4881 1932 2949 2760 2752 2172 2041 2038 1576 1567 1025 1926 1088 1005 1033 838 580 655 465 631 448 430 380 394
cat_boundaries=0 87 176 247 287 307 378 449
cat_threshold=0 0 0 8388608 0 0 0 0 0 0 0 0 0 0 0 0 0 0 0 0 0 0 134217728 8388608 0 0 0 0 0 0 0 0 0 0 0 4194304 0 0 0 0 0 0 33554688 0 0 0 0 0 0 0 0 4 0 0 0 4096 0 0 0 0 0 0 0 0 0 0 65536 0 0 0 0 0 0 0 0 0 0 131072 0 0 0 0 0 0 0 0 268435456 0 0 0 0 0 0 0 0 0 2048 0 0 0 0 0 0 0 0 0 0 0 0 0 0 65536 0 0 0 0 0 0 0 0 0 0 0 0 0 0 0 0 0 2 0 268435456 0 0 0 0 0 0 0 0 0 0 0 0 0 0 0 0 0 0 0 0 0 0 0 536870912 65536 0 0 0 536870912 0 0 0 0 0 0 0 0 0 0 0 0 0 0 268435456 0 0 0 0 0 0 0 0 0 0 0 0 0 0 0 0 0 0 0 0 0 0 0 0 0 0 0 67108864 0 0 0 0 0 0 0 0 0 0 0 2048 0 0 0 0 0 0 0 0 0 0 0 0 0 0 0 0 0 0 0 0 0 0 0 0 0 0 0 0 0 0 4 0 0 0 0 0 0 0 0 0 0 0 0 0 0 0 0 0 0 0 0 0 0 0 0 0 0 0 67108864 0 0 0 0 0 4194304 0 0 0 2147483648 0 2048 0 0 0 0 0 0 0 0 0 0 0 0 0 0 0 0 0 0 0 256 0 0 0 0 0 0 0 0 0 0 0 0 0 0 0 0 0 0 0 0 0 0 0 0 0 0 0 0 0 0 0 0 0 0 0 0 0 0 512 0 0 0 0 0 0 0 0 0 0 0 0 0 0 0 0 0 0 0 0 0 0 0 0 0 0 0 0 0 536870912 0 4 0 0 0 0 0 0 0 0 0 0 0 0 0 0 0 0 0 0 0 0 0 0 0 0 0 0 0 0 0 0 0 0 0 0 0 0 0 0 0 0 0 0 0 0 0 0 0 0 0 0 0 536870912 0 0 0 0 0 0 0 0 0 0 0 0 0 0 0 0 0 0 4
is_linear=0
shrinkage=0.03


Tree=17
num_leaves=31
num_cat=0
split_feature=8 7 3 6 9 6 7 3 10 9 6 6 10 6 9 7 1 6 9 6 6 9 7 3 10 6 1 6 9 5
split_gain=578.206 286.102 295.979 214.347 160.783 183.188 137.923 182.55 200.991 290.946 196.001 177.426 174.697 199.415 139.013 125.441 120.444 140.409 146.312 116.154 149.228 110.068 100.56 99.5441 156.124 90.6712 81.6632 90.0929 81.1471 67.0687
threshold=0.038523576211249806 5.3239431371929999 0.0027510299452745499 2.0535807725067214 1.6637897053431472 1.0120319011063943 0.93171445579019607 0.027675941080196404 0.14044269212485719 1.310633656820313 1.5813544122757672 1.0227815217025598 -0.42235300577024454 1.8311138239993816 1.202012809674023 3.7624797922983415 0.84730072769011611 3.9932772050567009 1.1220694013436221 1.0385659354264896 1.1132571213156366 1.3287225715712563 3.0246530508484732 0.012376269323478498 -0.080734324804851418 1.0838010949550327 1.2162943061748781 1.082174358196242 1.1764315576377407 1.9646571937557511
decision_type=2 2 2 2 2 2 2 2 2 2 2 2 2 2 2 2 2 2 2 2 2 2 2 2 2 2 2 2 2 2
left_child=29 2 3 -2 5 -4 19 8 9 10 11 -8 15 14 25 -9 17 18 -12 -7 -21 -5 -15 24 -13 26 27 -14 -20 -1
right_child=1 -3 4 21 -6 6 7 12 -10 -11 16 23 13 22 -16 -17 -18 -19 28 20 -22 -23 -24 -25 -26 -27 -28 -29 -30 -31
leaf_value=0.0010517697752385005 -0.0018508048743207184 -0.2987269815215694 -0.0021204736986639109 0.015008457036424857 0.003773120794575736 0.0028877274486511025 -0.00038051896122571718 -0.015981312568262858 0.0069409197136226439 0.025285301382976157 -0.0015260681785033555 0.0024128378450046354 -0.00126228195684698 0.0039008638840345292 0.0045430623474036506 0.0092664653717299834 -0.0040633648615718042 -0.0097339348447916061 0.0084595615568328723 -0.0012711589682391682 0.005136026681941336 -0.018576464474521746 -0.0033101254139840416 0.0019450983821206794 -0.00044704106592080003 -0.00073995161285298112 0.0021556646708515864 0.0074983932631114986 -0.0023170966620595754 0.00051248538042727131
leaf_weight=714.89518773928285 777.8964623156935 346.92803373467177 308.08781718090177 142.02844297140837 221.99845712818205 347.93425649777055 82.776143912225962 406.31254500010982 410.04133094288409 463.67393216490746 212.50756541639566 85.962338026612997 127.30282539501786 405.83604320324957 86.243388522416353 50.451075114309788 258.06094615720212 166.83790876343846 165.68600843846798 103.76433135196567 85.755586398765445 46.811515795066953 48.352594785392284 303.68031242117286 91.200942199677229 620.393843957223 90.293442560359836 41.766612961888313 169.56758006103337 85.952670377679169
leaf_count=490 482 920 194 209 208 185 17 611 419 225 143 43 353 497 61 210 101 95 47 178 45 105 193 149 99 914 89 8 99 80
internal_value=0.00156816 -0.00132454 0.000131245 -0.0151464 0.00288958 0.00180841 0.00324067 0.00144463 0.00690795 0.00298507 -0.00330114 0.0107756 -0.00557025 -0.000379735 -0.00808801 -0.0217088 -0.0114581 -0.00511407 0.00222496 0.0175666 -0.00133028 0.0135244 0.0160148 0.0177593 -0.00011166 -0.0116512 0.00324427 -0.00905774 0.0145692 0.0256538
internal_weight=7469 6668.15 6321.22 966.736 5354.49 5132.49 4824.4 4286.95 2410 1999.95 1536.28 563.62 1876.95 1420.19 966 456.764 972.66 714.599 547.761 537.454 189.52 188.84 454.189 480.844 177.163 879.757 259.363 169.069 335.254 800.848
internal_count=7469 6899 5979 796 5183 4975 4781 4373 1437 1018 793 308 2936 2115 1425 821 485 384 289 408 223 314 690 291 142 1364 450 361 146 570
is_linear=0
shrinkage=0.03


Tree=18
num_leaves=31
num_cat=6
split_feature=11 4 8 11 10 11 11 6 6 9 9 7 7 7 6 11 11 3 8 1 1 6 4 3 9 6 3 1 1 9
split_gain=813.676 181.671 130.629 167.868 127.593 220.808 180.3 130.247 127.087 121.407 96.1891 98.3826 73.8627 65.626 58.1427 37.5394 35.9931 21.8977 21.1887 17.1835 17.9102 15.7032 10.7216 10.6575 25.7188 3.36436 3.11643 13.5301 2.5901 2.46104
threshold=0 0.8928571428571429 0.019955821320509218 1 0.043118902422314982 2 3 1.7281564548365937 1.0688441371211714 1.087687549532472 1.2380403472785162 1.0355515448699728 4.4709130999959958 3.1107615732213394 3.9932772050567009 4 5 0.14909977578166578 0.26242650329017764 0.84790512839275922 0.78620328935870698 1.0342950868441412 4.4642857142857153 0.075204611577888367 1.7184454356703689 1.1090956453450358 0.0086160191051931258 1.5471504814122221 0.85654805844894144 1.0419414768894961
decision_type=9 2 2 9 2 9 9 2 2 2 2 2 2 2 2 9 9 2 2 2 2 2 2 2 2 2 2 2 2 2
left_child=-1 23 -3 -4 6 -6 -5 15 21 19 11 -11 13 14 18 -7 -13 -9 -12 20 -10 -8 -14 24 -2 -17 -23 29 -18 -28
right_child=1 2 3 4 5 7 8 17 9 10 12 16 22 -15 -16 25 28 -19 -20 -21 -22 26 -24 -25 -26 -27 27 -29 -30 -31
leaf_value=-0.0012286249304153405 -0.0020958845277343928 0.0010098812877937708 -0.013226416695553744 -0.0012332762507098333 0.001875045365838101 -0.0054956166871242221 3.8737029051930106e-06 -0.00045703926706989545 1.1636608128788584e-06 0.004406770476981541 0.0049819458814830964 -0.0067816449972725205 -0.010052841966285917 0.024621891578448928 -0.019716186336371733 -0.0016904957224782129 0.005196441209275279 0.0024901498412636656 0.0078108174518296122 0.001217094582535512 0.002340452709654496 -0.00015220375131514116 -0.0082825037849961255 0.003382802530582226 0.0042008338670912271 -0.00051141795617692519 -0.00017102361634726017 -0.0012330241991919931 -0.0035370158672524891 0.00146355539324329
leaf_weight=3218.2558097839355 28.294550385326147 195.29054085258394 1114.1467595100403 488.84898376464844 448.11156845092773 141.70507621765137 26.376519456505775 33.312325425446033 28.373603758402169 46.849410861730576 41.439427573233843 162.94966125488281 41.596741504967213 177.68001350015402 47.005786743015051 82.467693115584552 53.655042935162783 87.030214135535061 57.991831383202225 27.646378688514233 209.18876360962167 88.150140600278974 15.625073847826568 393.64390652347356 43.159919984638691 79.296712507493794 8.9610629193484801 40.788706943392754 29.055417981930077 12.10249727591872
leaf_count=79 251 294 33 12 11 20 268 659 440 69 10 4 22 284 107 791 796 110 765 303 71 59 467 235 18 858 42 2 283 106
internal_value=-0.000376263 0.00823224 0.00607774 0.00477804 0.000395199 0.00963405 -0.00462363 -0.00599094 0.0020964 0.0065038 -0.000263426 -0.013205 0.00966356 0.0152112 0.000341509 -0.0166053 -0.020803 0.0202776 0.0133389 0.0236981 0.0263031 -0.0212501 -0.0217595 0.0259457 0.0152868 -0.00526473 -0.0250037 -0.0198415 -0.00239423 -0.000316193
internal_weight=7469 4250.74 3785.65 3590.36 2476.21 871.924 1604.29 423.812 1115.44 939.057 673.848 292.51 381.339 324.117 146.437 303.469 245.66 120.343 99.4313 265.209 237.562 176.379 57.2218 465.098 71.4545 161.764 150.002 61.8523 82.7105 21.0636
internal_count=7469 7390 6886 6592 6559 2449 4110 2438 4098 3621 2807 1152 1655 1166 882 1669 1083 769 775 814 511 477 489 504 269 1649 209 150 1079 148
cat_boundaries=0 87 158 247 336 426 500
cat_threshold=0 0 0 8388608 0 0 0 0 0 0 0 0 0 0 0 0 0 0 0 0 0 0 134217728 8388608 0 0 0 0 0 0 0 0 0 4194304 0 4194304 0 0 0 0 0 0 33554688 0 268435456 0 0 0 0 0 0 4 0 0 0 4096 0 0 0 0 0 0 0 0 0 0 65536 0 0 0 0 0 0 0 0 0 0 131072 0 0 0 0 0 0 0 0 268435456 0 0 0 0 0 0 0 0 0 2048 0 0 0 0 0 0 0 0 0 0 0 0 0 0 65536 0 0 0 0 0 0 0 0 0 0 0 0 0 0 0 0 0 2 0 0 0 0 0 0 0 0 0 0 0 0 0 0 0 0 0 0 0 0 0 0 0 0 0 536870912 0 4 0 0 0 0 0 0 0 0 0 0 0 0 0 0 0 0 0 0 0 0 0 0 0 0 0 0 0 67108864 0 0 0 0 0 0 0 0 0 0 0 2048 0 0 0 0 0 0 0 0 0 0 0 0 0 0 0 0 0 0 0 0 0 0 0 0 0 0 0 0 0 65536 0 0 0 0 0 0 0 0 0 0 0 0 0 0 0 0 0 0 268435456 0 0 0 0 0 0 0 0 0 0 0 0 0 0 0 0 0 0 0 0 0 0 0 0 0 0 0 67108864 0 0 0 0 0 0 0 0 0 0 0 2048 0 0 0 0 0 0 0 0 0 0 0 0 0 0 0 0 0 0 0 0 0 0 0 0 0 0 0 0 0 65536 0 0 0 0 0 0 0 0 0 0 0 0 0 0 0 0 0 0 268435456 0 0 0 0 0 0 0 0 0 268435456 0 0 0 0 4096 0 0 0 0 256 0 0 0 0 0 0 0 0 0 0 0 0 0 0 0 0 0 1073741824 131072 0 0 0 0 0 0 0 0 0 0 0 0 0 0 0 0 0 0 0 0 0 0 0 0 0 0 0 0 0 0 0 0 0 0 536870912 0 0 0 0 0 0 0 0 0 0 0 0 0 0 0 524288 0 0 0 0 0 0 0 0 0 0 0 0 0 0 0 0 0 0 0 256 0 0 0 0 0 0 0 0 0 0 0 0 0 0 0 0 0 2147483648 0 0 0 0 0 0 0 0 0 0 0 0 0 536870912 0 0 0 0 0 0 0 0 0 0 0 0 0 0 0 0 0 0 0 0 0 536870912
is_linear=0
shrinkage=0.03


Tree=19
num_leaves=31
num_cat=6
split_feature=11 8 11 9 7 11 3 8 8 11 11 9 7 7 10 7 7 8 9 9 7 9 2 8 8 9 4 11 7 8
split_gain=768.326 231.051 262.366 153.152 142.924 225.092 191.553 141.747 206.096 171.614 120.161 86.144 82.5872 98.4636 81.8903 126.291 101.697 70.1534 54.2731 84.2041 49.9518 48.4278 39.3343 95.0085 35.5421 58.8034 25.7111 22.8232 21.5496 13.5241
threshold=0 0.021834154910001406 1 0.78747224934689319 1.0463202776545966 2 0.066227064471578598 0.19752216407681808 0.090993394695237165 3 4 0.90310835536778267 1.0541743620636084 1.5722006122908134 -2.5574776934612116 4.1258739204834169 3.3102080583549243 0.19279921182440743 1.234833579744087 1.2585457361341763 1.0838494029943551 0.73045616154962878 5.2035490847039299 0.201962415678789 0.065848890228274351 1.1269641833696253 4.8928571428571432 5 3.0699684827442346 0.13218830312491361
decision_type=9 2 9 2 2 9 2 2 2 9 9 2 2 2 2 2 2 2 2 2 2 2 2 2 2 2 2 9 2 2
left_child=-1 -2 -3 21 6 -6 24 8 10 -9 -7 17 -12 20 -11 16 18 -10 27 -20 -14 -4 -8 -24 -5 -26 -17 -16 -21 -27
right_child=1 2 3 4 5 7 22 9 11 14 12 -13 13 -15 15 26 -18 -19 19 28 -22 -23 23 -25 25 29 -28 -29 -30 -31
leaf_value=-0.0029962875240039759 0.00097811764393902637 0.0031634980640401923 -0.0097432520492186179 -0.00014419404752960948 -0.0018228872606106457 0.0021734755654653709 0.0022003423965796013 -0.0058302983525702814 -0.0037226554175384184 0.020902939633356488 0.001486372255995736 0.0023571703517471254 -1.8243052150965835e-05 0.0018304940696819158 -0.0068774149068474323 -0.012120921127435151 0.02388323483109546 0.0060427486001886554 0.011504496913315872 0.0013815445760980841 -0.00026273015618341963 0.0090985513917198873 -0.0011960334732162331 0.0038496804209499167 0.0028187643385766846 -0.0020198612001826985 0.014923783242776658 -0.0044535871001000534 -0.01912470074628058 -0.0017718273933933146
leaf_weight=2199.820426940918 402.50073904450983 1236.3590054512024 36.559960268437862 93.036907099187374 407.37415313720703 81.474830627441406 349.77909160405397 244.42449188232422 78.146171235479414 93.067181820515543 43.638867545872927 467.49064534436911 89.832411447539926 58.856569288298488 81.474830627441406 169.02549107652158 140.48622073978186 42.633822407573462 87.927345646545291 56.212138234172016 289.38368426915258 268.86510799033567 44.939576845616102 97.061040973290801 53.441007100045681 43.840987589210272 20.850215535610914 104.55837828665972 43.513304460793734 42.425536975264549
leaf_count=54 329 36 449 101 10 2 234 6 304 383 16 651 79 245 2 99 314 24 91 764 381 299 30 136 126 30 703 1117 53 401
internal_value=0.00158384 0.00779678 0.00600494 0.00190676 4.44511e-05 -0.00323873 0.011828 0.000615112 0.00787184 -0.00740153 -0.0050998 0.0202904 -0.010812 -0.014957 -0.000466175 -0.00396804 0.0037532 -0.00229538 -0.00442738 0.00695618 -0.0205602 0.0222425 0.0224399 0.00912393 -0.0105945 -0.00102763 -0.0248767 -0.01591 -0.0119137 -0.0163466
internal_weight=7469 5269.18 4866.68 3630.32 3324.89 2600.37 724.524 2193 1151.46 1041.54 563.186 588.271 481.712 438.073 797.115 704.048 514.172 120.78 373.686 187.653 379.216 305.425 491.78 142.001 232.744 139.708 189.876 186.033 99.7254 86.2665
internal_count=7469 7415 7086 7050 6302 5244 1058 5234 1702 3532 723 979 721 705 3526 3143 2341 328 2027 908 460 748 400 166 658 557 802 1119 817 431
cat_boundaries=0 87 158 210 284 373 411
cat_threshold=0 0 0 8388608 0 0 0 0 0 0 0 0 0 0 0 0 0 0 0 0 0 0 0 8388608 0 0 0 0 0 0 0 0 0 0 0 0 0 0 0 0 0 0 33554688 0 268435456 0 0 0 0 0 0 4 0 0 0 0 0 0 0 0 0 0 0 0 0 0 65536 0 0 0 0 0 0 0 0 0 0 131072 0 0 0 0 0 0 0 0 268435456 0 0 0 0 0 0 0 0 0 2048 0 0 0 0 0 0 0 0 0 0 0 0 0 0 65536 0 0 0 0 0 0 0 0 0 0 0 0 0 512 0 0 0 2 0 0 0 0 0 0 0 0 0 0 0 0 0 0 0 0 0 0 0 0 0 0 0 0 0 536870912 0 4 0 0 0 0 0 0 0 0 0 0 0 0 0 0 0 0 0 0 0 0 0 0 134217728 0 0 0 0 0 0 0 0 0 0 4194304 0 0 0 0 0 2048 0 0 0 0 0 0 0 0 0 0 0 536870912 0 0 0 0 0 0 0 0 0 0 0 0 0 0 0 0 0 0 0 256 0 0 0 0 0 0 0 0 0 0 0 0 0 0 0 0 0 0 0 0 0 0 0 0 0 0 0 0 0 0 0 0 0 0 0 0 0 0 0 0 0 0 0 0 0 0 0 0 0 65536 0 0 0 536870912 0 0 0 0 0 0 0 0 0 0 0 0 0 0 0 0 0 0 0 0 0 0 0 0 0 0 0 0 0 0 0 0 0 0 0 0 0 0 0 0 0 0 0 0 0 0 0 0 0 0 0 0 0 0 0 0 0 0 0 0 0 0 0 0 0 0 0 0 0 0 0 0 0 0 0 0 0 0 0 0 0 0 0 0 0 0 0 0 268435456 0 0 0 0 0 0 0 0 0 0 0 0 0 0 0 0 0 0 0 0 0 0 0 0 0 0 0 67108864 0 0 0 0 0 0 0 0 0 2147483648
is_linear=0
shrinkage=0.03


Tree=20
num_leaves=31
num_cat=6
split_feature=11 4 11 8 10 11 11 6 6 8 8 9 11 2 11 7 6 7 7 7 7 3 2 3 6 4 3 9 6 3
split_gain=808.888 176.932 137.421 167.85 110.551 220.836 200.398 130.2 127.053 128.065 141.974 76.5077 92.2916 61.1364 37.5394 37.3413 103.618 62.4656 48.7552 56.0853 24.3668 21.935 17.8978 15.8666 15.7032 14.305 10.6301 25.7188 3.36436 3.11643
threshold=0 0.8928571428571429 1 0.019955821320509218 0.043118902422314982 2 3 1.7281564548365937 1.0688441371211714 0.12370762400410935 0.17613794702621502 1.1422892315267721 4 6.1886019256488884 5 4.3407540797890976 4.5334186947111794 3.7624797922983415 3.168811041862261 3.1107615732213394 3.0699684827442346 0.14909977578166578 3.3916205135710369 0.15472243928063692 1.0342950868441412 4.2500000000000009 0.075204611577888367 1.7184454356703689 1.1090956453450358 0.0086160191051931258
decision_type=9 2 9 2 2 9 9 2 2 2 2 2 9 2 9 2 2 2 2 2 2 2 2 2 2 2 2 2 2 2
left_child=-1 26 -3 -4 6 -6 -5 14 24 22 -11 23 -13 15 -7 16 17 18 19 20 -14 -9 -10 -12 -8 -17 27 -2 -16 -26
right_child=1 2 3 4 5 7 8 21 9 10 11 12 13 -15 28 25 -18 -19 -20 -21 -22 -23 -24 -25 29 -27 -28 -29 -30 -31
leaf_value=-0.0016598761287879051 -0.0020456050331661472 0.0030402388866432703 0.00095032531920476605 -0.001184839975243421 0.0017563451596932234 -0.0051558392359333863 8.0833132439254649e-06 -0.00049824291114825611 0.001941232254903752 -0.0027464200946587919 0.0066587761570326602 -0.0055162866429412294 -0.0043102530263418835 0.0047169970924101053 -0.0015774802460509461 -0.0093876290734742837 0.025115704963433818 0.009115218784210663 -0.013446841041041161 0.015273421052140263 -0.01855095972389216 0.0023605305239352984 0.0011937486608578176 0.010980935350771324 -0.00014017850614939464 0.0046501825735063406 0.00321094965558285 0.0040087985791811007 -0.00051375857599920006 -0.0011601524690197462
leaf_weight=2525.7197494506836 28.294550385326147 1523.8936703205109 192.91778317932039 488.84898376464844 448.11156845092773 141.70507621765137 26.376519456505775 33.312325425446033 225.78913837764412 140.9593878434971 27.081125942990184 81.474830627441406 99.455365375615656 82.362656587734818 82.467693115584552 42.841522768139839 137.0669899689965 40.840977188199759 86.56603724649176 41.424539268016815 41.720528554171324 87.030214135535061 29.765382803976536 125.25699793035164 88.150140600278974 21.613580355420709 393.64390652347356 43.159919984638691 79.296712507493794 61.852267138659954
leaf_count=62 251 44 293 12 11 20 268 659 267 205 440 2 1233 15 791 22 281 4 80 16 15 110 301 74 59 673 235 18 858 150
internal_value=0.00125261 0.00830378 0.00649147 0.00267788 0.000796863 0.00963312 -0.00328081 -0.00599281 0.00253656 0.00598433 0.00100053 0.00574019 0.00140837 0.00562254 -0.0166053 0.00185491 0.00493256 -0.00467095 -0.00991653 -0.00112541 -0.0101317 0.0202709 0.0248752 0.0249446 -0.0212501 -0.0194923 0.025932 0.0152868 -0.00526473 -0.0250037
internal_weight=7469 4943.28 4478.18 2954.29 2761.37 871.924 1889.45 423.812 1400.6 1224.22 968.665 827.705 675.367 593.892 303.469 511.53 447.074 310.007 269.166 182.6 141.176 120.343 255.555 152.338 176.379 64.4551 465.098 71.4545 161.764 150.002
internal_count=7469 7407 6903 6859 6566 2449 4117 2438 4105 3628 3060 2855 2341 2339 1669 2324 1629 1348 1344 1264 1248 769 568 514 477 695 504 269 1649 209
cat_boundaries=0 87 158 247 336 410 500
cat_threshold=0 0 0 8388608 0 0 0 0 0 0 0 0 0 0 0 0 0 0 0 0 0 0 134217728 8388608 0 0 0 0 0 0 0 0 0 4194304 0 4194304 0 0 0 0 0 0 33554688 0 0 0 0 0 0 0 0 0 0 0 0 0 0 0 0 0 0 0 0 0 0 0 65536 0 0 0 0 0 0 0 0 0 0 131072 0 0 0 0 0 0 0 0 268435456 0 0 0 0 0 0 0 0 0 2048 0 0 0 0 0 0 0 0 0 0 0 0 0 0 65536 0 0 0 0 0 0 0 0 0 0 0 0 0 0 0 0 0 2 0 0 0 0 0 0 0 0 4 0 0 0 4096 0 0 0 0 0 0 0 0 0 0 0 0 536870912 0 4 0 0 0 0 0 0 0 0 0 0 0 0 0 0 0 0 0 0 0 0 0 0 0 0 0 0 0 67108864 0 0 0 0 0 0 0 0 0 0 0 2048 0 0 0 0 0 0 0 0 0 0 0 0 0 0 0 0 0 0 0 0 0 0 0 0 0 0 0 0 0 65536 0 0 0 0 0 0 0 0 0 0 0 0 0 0 0 0 0 0 268435456 0 0 0 0 0 0 0 0 0 0 0 0 0 0 0 0 0 0 0 0 0 0 0 0 0 0 0 67108864 0 0 0 0 0 0 0 0 0 0 0 2048 0 0 0 0 0 0 0 0 0 0 0 0 0 0 0 0 0 0 0 0 0 0 0 0 0 0 0 0 0 65536 0 0 0 0 0 0 0 0 0 0 0 0 0 0 0 0 0 0 268435456 0 0 0 0 0 0 0 0 0 0 0 0 0 0 0 0 0 0 0 256 0 0 0 0 0 0 0 0 0 0 0 0 0 0 0 0 0 0 0 0 0 0 0 0 0 0 0 0 0 0 0 0 0 0 0 0 0 0 0 0 0 0 0 0 0 0 0 0 0 0 0 0 0 536870912 0 0 0 0 0 0 0 0 0 268435456 0 0 0 0 4096 0 0 0 0 256 0 0 0 0 0 0 0 0 0 0 0 0 0 0 0 0 0 1073741824 131072 0 0 0 0 0 0 0 0 0 0 0 0 0 0 0 0 0 0 0 0 0 0 0 0 0 0 0 0 0 0 0 0 0 0 536870912 0 0 0 0 0 0 0 0 0 0 0 0 0 0 0 524288
is_linear=0
shrinkage=0.03


Tree=21
num_leaves=31
num_cat=4
split_feature=11 8 9 6 6 6 11 9 5 5 6 6 8 6 6 11 8 3 11 9 9 6 9 6 9 5 4 6 6 3
split_gain=793.903 219.146 206.882 108.914 258.971 216.789 184.863 179.071 142.932 140.474 81.8783 127.341 79.5382 72.3634 95.2853 187.332 173.856 68.6149 67.915 74.9148 125.914 66.0031 57.5836 54.1062 67.8118 34.0284 25.9611 23.9753 12.804 9.77241
threshold=0 0.039993747948742449 1.310633656820313 1.5976457774588784 1.8311138239993816 2.2436557597750428 1 0.93558226105528741 1.2043875831929889 1.4238934396479677 2.7665625635541806 2.9667871772862977 0.28698479860203258 1.0120319011063943 1.0385659354264896 2 0.20921681405303841 0.075204611577888367 3 1.4043636725200319 1.5949411459918175 1.0147087451434549 0.97971466043911015 3.8506893897740921 1.3068479582422725 1.1507283885330304 1.0357142857142858 1.1090956453450358 3.9183304908930832 0.02479697568426964
decision_type=9 2 2 2 2 2 9 2 2 2 2 2 2 2 2 9 2 2 9 2 2 2 2 2 2 2 2 2 2 2
left_child=-1 22 3 6 -5 9 -3 12 -7 -6 -10 -12 27 -9 17 -16 26 21 -4 29 -21 -15 -2 -13 28 -14 -17 -8 -25 -20
right_child=1 2 18 4 5 8 7 13 10 -11 11 23 25 14 15 16 -18 -19 19 20 -22 -23 -24 24 -26 -27 -28 -29 -30 -31
leaf_value=-0.0016752724007826579 1.0932990715138702e-05 0.0021492277020051117 1.2192425898805426e-05 -0.0050011640588553856 -0.0031992999820268518 0.0084132811419770619 -0.00089631201873612888 -0.0020589193988162268 -0.005341638684631984 0.0035676024460051105 0.0036987322585232832 -0.0057942980705709959 0.0070871399552426533 0.0027697466076766863 0.0017104096308026653 -0.0010973471441115036 0.0027891959171913241 0.0026493104204422988 0.0090035701312713035 -0.009041123498628241 0.0038885346218056668 -0.00012536057002046438 0.00072794667823412201 0.014815218420576058 -0.017994430932175395 -0.0086879907719175416 -0.00017697518499876059 -0.0017528968799078891 0.0091007302924186132 0.0081879931569035346
leaf_weight=2783.7056807279587 139.81636793538928 448.11156845092773 366.63673782348633 315.22063049767166 54.093763317912817 82.878001751378179 254.62577139399946 53.393038228154182 232.64097252581269 352.4858923451975 89.522428524680436 139.49491160502657 42.71226366981864 42.428441904485226 162.94966125488281 229.9942915244028 94.404274246655405 296.98404547572136 16.316415020264685 122.01338221132755 110.60384466592222 57.772786866873503 539.34253723081201 41.831678266637027 41.08003048133105 55.846005606465042 46.302786534652114 37.506821040995419 32.869102474302053 185.41600789222866
leaf_count=75 106 11 9 323 122 19 454 99 394 359 118 307 26 18 4 199 137 75 215 631 394 141 489 21 10 570 458 344 1014 327
internal_value=0.00123022 0.00876156 0.00610884 0.00270077 -0.00365055 0.00340808 0.00751598 0.00195157 -0.00720337 0.0206419 -0.0124912 -0.00321193 -0.0152183 0.008787 0.0107352 0.00245455 -0.00940006 0.021861 0.0197462 0.0108414 -0.000511567 0.000394338 0.0245381 -0.0140084 0.00115162 0.00808597 -0.0216628 -0.0230806 0.0181775 0.0244698
internal_weight=7469 4685.29 4006.14 3205.15 1382.12 1066.9 1823.03 1374.92 660.317 406.58 577.439 344.798 390.691 984.229 930.836 533.651 370.701 397.185 800.986 434.35 232.617 100.201 679.159 255.276 115.781 98.5583 276.297 292.133 74.7008 201.732
internal_count=7469 7394 6799 5223 2687 2364 2536 2525 1883 481 1864 1470 1394 1131 1032 798 794 234 1576 1567 1025 159 595 1352 1045 596 657 798 1035 542
cat_boundaries=0 90 160 249 320
cat_threshold=0 0 0 8388608 0 0 0 0 0 0 0 0 0 0 0 0 0 0 0 0 0 0 0 8388608 0 0 0 0 0 0 0 0 0 0 0 4194304 0 0 0 0 0 0 33554688 0 268435456 0 0 0 0 0 0 4 0 0 0 4096 0 0 0 0 0 0 0 0 0 0 65536 0 0 0 0 0 0 0 0 0 0 131072 0 0 0 0 0 0 0 0 268435456 0 0 524288 0 0 0 0 0 0 0 0 0 0 0 0 0 0 0 0 0 0 0 0 0 0 0 0 65536 0 0 67108864 0 0 0 0 0 0 0 0 0 0 0 2048 0 0 0 0 0 0 0 0 0 0 0 0 0 0 0 0 0 0 0 0 0 0 0 0 0 0 0 0 0 65536 0 0 0 0 0 0 0 0 0 0 0 0 0 0 0 0 0 0 0 256 0 0 0 0 0 0 0 0 0 0 0 0 0 0 0 0 0 0 0 0 0 0 0 0 0 0 0 0 0 0 0 0 0 0 0 0 0 0 0 0 0 0 0 0 0 0 0 0 0 0 0 0 0 0 0 0 0 0 0 0 0 0 0 0 0 0 0 0 268435456 0 0 0 0 0 0 0 0 0 0 0 0 0 0 0 0 0 0 0 0 0 0 0 0 0 0 0 0 0 0 0 0 0 0 0 0 0 0 512 0 0 0 0 0 0 0 0 0 0 0 0 0 0 0 0 0 0 0 0 0 0 0 0 0 0 0 0 0 536870912 0 4
is_linear=0
shrinkage=0.03


Tree=22
num_leaves=31
num_cat=6
split_feature=11 8 9 8 8 11 5 11 6 0 6 8 9 11 6 11 3 10 10 9 11 0 9 9 9 8 9 8 5 5
split_gain=786.086 239.416 223.041 130.625 276.034 239.845 194.2 124.091 97.8829 94.6513 86.7256 187.224 179.808 98.3813 165.256 45.3273 44.3626 109.38 41.2536 76.3448 40.2728 29.8103 22.7984 55.0518 37.6656 59.6616 16.2227 12.877 11.2984 9.02243
